-6.307589057167083402e-01
1.955551361636561902e-01
-7.721640445758463089e-01
-1.568335399525512264e-01
-9.986176320822413022e-01
8.347238761173143562e-01
9.192415697214939563e-01
-2.827953233876812078e-01
5.888075519435475025e-01
-8.881929266389051447e-01
-6.950254537525714094e-01
9.265511129914548727e-01
6.742125237557333728e-01
-6.850359993158764427e-01
4.855030543682429811e-01
4.948853878774593928e-01
3.557098308732616343e-01
-3.936648853121722524e-01
7.992158048486153188e-01
2.115143221225853076e-01
9.672045730350237180e-01
8.084193974988919118e-01
2.217408662956179000e-01
8.260185569388778237e-01
4.153441331281735316e-01
-4.116142265710479031e-01
9.580725430387124764e-01
5.761568397726749557e-01
5.377836442981419607e-01
-8.634570075477829287e-02
-1.794401446701721359e-01
3.657593534817063247e-03
4.208308773464552455e-01
7.035742582684690882e-01
8.428856344377322340e-02
-8.418705554362877486e-01
6.345192292438912585e-01
6.890016893632143757e-01
-4.117014457334211563e-01
-8.563785250010900185e-01
6.019625282399402311e-01
-8.250801109543212664e-02
6.030831375284456675e-01
-6.260260335525271724e-01
6.230782779968127016e-01
-4.594883759477200180e-02
2.897526285717029193e-01
8.685261483514803427e-01
7.502901344511055948e-01
-7.534758473443747828e-01
9.846550172273316193e-01
6.545912821269443682e-02
8.334167469908424497e-01
6.386259181255488082e-02
-6.147995285220049233e-01
6.261603197077851846e-01
-7.634552448056600715e-01
3.109298784747007161e-01
7.259864531147038891e-01
5.938956887093749248e-01
8.160435484086475677e-01
6.346922667671688334e-01
-9.375217505372178683e-01
9.146565309148171341e-01
-9.123780635686836726e-01
-9.704488264375129569e-01
3.174303703451291092e-01
5.622835890934795300e-01
-6.275973799849194901e-01
5.485626528732290286e-02
-1.844128785280727267e-01
-7.956044481465246454e-01
-1.807727207356302490e-01
1.719007329854867483e-01
-3.648937088936791695e-01
9.765067606092222574e-01
1.506210062352730805e-01
1.903336444416399154e-01
-5.566360010072208819e-01
-9.817220205055036120e-01
8.428162930857284740e-01
2.052164558393057558e-01
-4.946596025908129857e-01
6.564415037641299078e-01
-4.704308081755965709e-01
-5.216779354923896106e-01
6.417932780850975627e-01
-8.369162079583803981e-01
3.152002776585152710e-02
9.422175673642301241e-01
-7.974433861682624913e-01
4.163333795771630985e-01
-4.603994289405246576e-01
-2.425715731350945314e-01
-8.784447901808271064e-01
6.504432517265386071e-01
4.511103334464617309e-01
8.819499061091624625e-01
-6.375490181512951660e-01
-5.733633915274025661e-01
-7.046144365664838149e-01
-7.317928344557464992e-01
3.059388236625338875e-01
1.607774580333131975e-01
6.966917567297121749e-01
-3.087754226165076790e-02
-6.035264149259764871e-02
9.870674333240377907e-01
7.168876418925035354e-01
7.831110903692509728e-01
7.920734561077531488e-01
2.785472970129606596e-01
-2.099399863844240641e-02
7.351768936184814862e-01
2.387724527564003274e-01
-8.779445602043522978e-01
-2.053231987548286702e-02
7.632959001857545500e-01
3.043344352101400307e-01
2.720778239501710494e-01
-2.946586211493255614e-01
9.466547832987874944e-01
8.826399344829886084e-01
-2.322222131255866906e-01
-1.126902633112409624e-01
-7.455388223223877731e-01
8.744493912318263007e-02
5.280205368597686855e-01
-3.624011401861412102e-02
1.687148260617185869e-01
9.634248105563189002e-01
-2.569514383423937565e-01
-7.222796872577182947e-01
2.829206115839580371e-01
-8.131182521933086882e-01
-7.617384609295968501e-02
-2.869336409831865220e-01
4.332324209874163223e-01
-5.801196341255071554e-01
4.967142815209232842e-01
-8.061362880558836652e-01
-9.338765773710926144e-02
-7.315664134950744524e-01
2.848088000615598969e-01
-9.922397325098673004e-01
8.589493615851208075e-01
-1.609134943188381683e-01
5.078300990732312892e-01
9.568655296335233373e-01
-1.654111604103893074e-01
8.203656955320096089e-02
3.212027258871199553e-01
5.555175761528536871e-01
9.165062894758388978e-01
8.992289788231145886e-01
-4.694761589981735761e-01
-5.283610731913997993e-01
-7.484028009580034890e-01
-9.106368766856807184e-01
4.766941918175504056e-01
-8.743631270049201376e-01
-1.730933196886466630e-01
9.871375002835417467e-01
-9.579393438668543093e-01
-9.791564558240572688e-03
-6.742777162868447416e-01
6.065317243038526041e-01
2.799800638632409799e-01
-5.037189280951295256e-01
-1.366362399150202744e-01
7.492561851481755776e-03
-2.789581851267081691e-01
-6.468319761448850791e-01
2.566188255321386058e-01
8.131444445276727606e-01
3.401724385184823340e-01
1.389736453279519050e-02
-4.978443808109453972e-01
6.680682793065569891e-01
9.095127231646927823e-01
1.182865292357785647e-01
-8.623408507057301886e-01
5.346292466022496415e-01
4.719238764272113973e-01
-5.952419313631651665e-01
-4.570654237071152259e-01
8.581895162430202006e-01
-5.170931288133182036e-02
5.161467196778050104e-01
-6.282956169246697309e-01
-9.543783799764988807e-01
-3.096896926907267145e-01
-7.990839344549219847e-01
9.563621390940868494e-01
6.558168801942116932e-01
-2.423907056498931234e-01
4.896308446922293389e-01
-3.830427575261927675e-01
2.324034619298372684e-01
-9.887865428204084539e-01
-4.343723892058288238e-01
-9.051787465593852389e-01
7.552400699993500055e-01
-2.798002059012778542e-01
3.471946831818730206e-01
5.553903055305361436e-01
-6.876238109200814852e-02
4.422862154582165028e-01
-9.743323922859450370e-01
1.578994113328720528e-01
-9.671476159704002207e-01
8.501503523956608355e-01
-8.493740284078565850e-02
-2.389454234482297768e-01
1.981062290084483479e-01
-5.107211105101827631e-01
6.700491475079698445e-01
-2.807715711999563268e-01
6.462618792514798760e-02
-8.443127975492866755e-01
6.832402488252594663e-01
-3.333417687239355054e-01
-8.958319605669997632e-01
-4.245255290945701421e-01
3.179735738218621988e-01
2.343962983535558681e-02
-7.899628698188904119e-01
4.549775332150183260e-01
6.125319031257082658e-01
-1.091250076486353221e-01
-4.828193947776299177e-02
-1.323961557710499060e-01
3.979712870221149279e-01
-3.394574294201560538e-01
-9.674872396546402298e-01
8.205706829816535874e-01
-8.880700985195159047e-01
9.384099441414699150e-02
-5.555283138321792658e-01
9.690246604990609969e-01
-8.888953755352958508e-01
-5.921760900698276320e-01
-3.018661838349389614e-01
7.641770646638726960e-01
7.640080775236630650e-01
9.139147544925236843e-01
1.964988252687898396e-01
7.608365153144455162e-01
-2.787628921849202301e-01
3.462987334705198705e-01
-3.632989095772201464e-03
6.059850864207724230e-01
-4.160020451024136756e-01
-5.451514224981492962e-01
-2.936553327457508966e-01
1.928744882217384160e-01
-6.162252029407517401e-02
6.175006681124256547e-01
1.531814786984942167e-01
8.284208838432672861e-01
-6.360445579588192011e-02
-3.179617900344806070e-01
-2.975079037460492959e-01
-5.139596047701096015e-01
8.607897043094512313e-01
-8.626702371040183281e-02
8.226203806065820467e-01
1.670693149032098923e-01
-4.369249933686449316e-01
-4.216756907915589214e-01
-2.791556889526428803e-02
2.574542450308414110e-01
7.291773729917945257e-01
1.052168748572525625e-01
2.980216177149199730e-01
-8.157350348365014492e-01
7.836576006011756190e-01
1.222028004407889334e-01
-6.598540807561260602e-01
2.322218571749137817e-01
-3.968010017154242203e-02
4.085728376171708920e-01
-7.992992540688629299e-01
-4.497622241407931432e-01
-8.695215453910750680e-01
-9.652944644473752112e-01
-3.330933746340122847e-01
-5.371940462265426541e-01
8.816294178569638040e-01
6.266347990771141685e-01
-8.376307576307034930e-01
1.903296756955809022e-01
-3.767307894662108025e-01
-4.711280504970510319e-01
6.313695462617353593e-01
-5.822144120455478022e-01
6.525611996269288229e-01
9.431966897992051235e-01
-1.807269157110310276e-01
-2.083824644819710914e-01
-1.561799896081660088e-02
7.448075551951269802e-01
-8.079519549172705650e-01
4.065703829518788615e-01
-2.065520464946527524e-01
-3.318052108956265345e-01
2.269394118294993379e-01
-7.749682345725191768e-01
-6.360587967897948225e-01
-1.857076911824097065e-01
-6.303942643734631313e-01
5.520793883767489696e-01
2.938678928084718089e-01
2.095204258099507555e-01
-5.319911645863809602e-01
8.424814708570365074e-01
-5.992214205496276813e-01
-4.929700140746963721e-01
-7.416394093552585165e-01
-4.016285181427159956e-01
-5.404784704499350223e-01
2.662641103247659000e-03
5.672740552120423274e-01
-7.309493329967416964e-01
-7.252959594752388384e-01
-7.584476201502922121e-01
8.518010164459819400e-01
8.816899079845996745e-01
3.795902101625575065e-01
1.809784713757599528e-01
-8.877761411771864508e-03
6.914099155117850448e-02
6.829905248597664125e-01
-7.100560375771622912e-01
-2.087840164955300504e-01
9.536822811338341310e-01
-4.934212804062882984e-01
3.280919908303937121e-02
2.394347003529292972e-02
3.991326028255779979e-01
8.020631182792918590e-02
-9.026369973500855126e-01
2.308695526486397864e-01
-1.833524049664160271e-01
-6.902134381012503539e-01
8.463884695311528483e-02
8.686001458774799122e-01
-3.220470325673059353e-01
1.133285496366734507e-01
-9.768392639614552619e-01
2.929590228281873654e-01
8.383836144502916990e-03
1.331236121022202623e-01
9.891868879716836371e-01
6.644626372198697561e-01
-5.587408653970291073e-02
-8.403610849235843006e-01
2.360436728394520456e-01
-1.537685716765108401e-01
-5.619400872051448781e-01
-6.167959698141979308e-01
-9.970998692610110181e-01
-3.373735337553043223e-01
2.054336949452005290e-01
-1.532407928445174601e-02
-3.200754512795180029e-02
2.637253844467127850e-01
8.810870719196880474e-01
-4.222528902035986853e-01
-2.527527973337822531e-01
2.924848871468562969e-02
-4.699801500813030608e-01
6.388927767060162966e-01
9.965275483426164760e-01
9.742936229678846871e-01
1.110442064820106045e-01
-8.287740191603617523e-01
2.419815937528652650e-01
-1.550746675644169292e-01
1.848879005390810792e-01
4.611929315856919120e-01
-2.162064830493249101e-01
-2.861271924380317522e-01
-4.244305227642934386e-01
-1.590254150893922469e-01
3.183214953415637316e-01
-1.559768130951962595e-01
6.562743905717819404e-01
3.787258765709973218e-01
-2.673900551473477605e-01
7.133895622412342874e-01
5.695634377256805214e-01
5.540933863122214920e-01
7.886008381864066941e-01
1.417970545518699443e-01
4.185352225915602298e-01
4.877191427125251999e-01
-1.482772618891868843e-01
-6.325554746699089126e-01
9.618181128602907304e-01
8.252572888223556058e-01
-5.913703597205820506e-01
6.751039848351452211e-01
2.465249678087461094e-02
1.463472722464555509e-01
-2.311838406336685359e-01
-7.207443752346262000e-01
-6.440781122268126602e-01
8.009098886368286596e-01
5.145568467018938330e-01
5.581341081589025199e-01
1.097289189287921629e-01
-4.058148138202199440e-01
-1.527897127763045912e-02
2.819572895135886714e-01
-8.520634666917357158e-01
1.820467165949319066e-01
6.037067637541666532e-01
5.336958644347930200e-03
-3.252770765383584672e-01
9.671748702813359744e-01
6.666703698322309357e-01
4.007987488977062251e-01
-1.512209296103077527e-01
6.225755514501412069e-01
-3.411853235702539400e-01
3.808320547815881585e-01
-6.371620742581955987e-01
-6.767253752941360112e-01
-3.054645891973302163e-01
8.583709478503028789e-01
-9.383342939298560115e-01
3.154008430646165206e-01
4.007444770095583975e-01
5.960497504107014066e-01
8.322143964521973025e-01
2.740867790813755756e-01
6.499394482570132192e-01
9.760112233532087789e-01
-5.283303677395201348e-02
-8.501974244115031443e-01
-2.248142345164568789e-01
9.068363672168783252e-01
-9.300032787362993991e-01
2.180893742523456469e-01
-3.917568065600104954e-01
7.132863794772715815e-01
-9.749547471202090199e-01
-3.538772756481446402e-01
4.928700734975571263e-01
-2.867668209709053895e-01
2.042579025064243381e-01
1.042673482725548773e-01
-4.048569635196854755e-01
2.996347417056703932e-01
-5.511291140485999884e-01
3.341530064038257253e-01
-3.719872310815507954e-01
-6.108028647522435461e-01
-5.497095828948043161e-01
1.531072378494308939e-01
-6.015865108548660301e-01
-2.358890112933329786e-01
4.942984779690799968e-01
-9.770501259255995885e-01
-6.915161545618281336e-01
-8.285029600684906681e-01
9.146628033141447345e-01
-8.124526615551153075e-01
-3.497088720787839833e-01
-5.618341523826896333e-01
-8.260862493435212617e-01
1.780860317543817850e-01
-2.890264449384394863e-01
-8.567154184879737233e-01
8.784048758460798467e-01
1.004823769459391114e+00
5.301888254644196996e-01
9.852028928287792642e-01
1.000438914716781591e+00
-9.430121710804191537e-02
-8.849367571029848056e-01
4.331854486905606372e-01
-9.823618516591443861e-02
-9.129155214573126953e-01
5.917553762425952213e-01
-7.294823768178719803e-01
-2.090032859916345076e-01
6.594281901409917435e-01
7.553202009573308784e-01
2.183299757543783470e-01
-6.504213794758605394e-01
-9.407753800587735915e-01
9.846737244521962529e-01
1.540390179197208553e-01
-3.106787921167925015e-01
9.701191603026609878e-01
-3.885711826175297645e-02
7.203356675173444579e-01
7.929369575818387972e-01
8.144559210441154606e-01
-8.827658685446954090e-01
8.207163437534824302e-02
4.993978416431463785e-01
-9.481272493513561717e-01
7.357969070545103407e-02
6.381380066976022336e-01
2.701849422602765061e-01
7.614919428580927407e-01
5.323787905823311739e-01
2.119378274588792077e-01
4.404782577671607635e-01
-5.155593774351128200e-01
4.561296562463165172e-01
8.961821205743293328e-01
-7.693432532180908279e-01
-7.411715058680869994e-01
3.793768841248796875e-01
3.722730233285131973e-01
9.997908868648672787e-01
-4.583498490881374177e-01
8.159185984168609851e-01
-6.870642933527806862e-03
9.167152100547584226e-01
-2.530743972904814232e-01
4.554292533300140500e-01
3.318864045771562354e-01
-1.828416299824468239e-01
2.515802445882963645e-01
-1.578616024769406434e-01
7.416284903652804739e-02
7.655201177680244218e-01
-9.305534940716176928e-01
1.282754296225987849e-02
-4.601514325677064088e-01
-5.389640750233762878e-01
1.360132529283249181e-01
-8.953346918493412243e-01
-3.265517124250727488e-01
4.140068400596270126e-01
7.588522034893437906e-01
4.937238501724768303e-01
-6.980034776858390355e-01
2.596145364943306943e-01
-6.518217116615327988e-01
8.789663007312572551e-01
8.649775194703498427e-01
-3.655646272540259978e-01
1.965690170819706928e-01
1.089234936836128709e-01
4.477842275611512157e-01
-2.301891623414078492e-01
-7.453526814931930033e-01
-6.857290929989923178e-01
-2.149667971131440647e-01
-4.316041129383911823e-01
-5.682854813518097847e-01
-1.790994689947098539e-01
-2.996337186183873902e-01
-5.869843451818759078e-02
-8.875536269972424952e-01
4.258821570191815287e-01
-1.588428511054721104e-01
-5.640333993383206401e-01
8.429593163055728589e-01
4.254160525927612180e-01
-9.976095174665344789e-01
1.241723303031684877e-01
7.159657203750905419e-01
-5.087600949340489453e-01
-8.984856586375831178e-01
1.001750575843452618e+00
2.808541309914938666e-01
-4.859459360728120014e-01
-8.365378249766167729e-01
6.286759054035147010e-01
4.367125486181792637e-01
-2.095751150487171477e-01
5.789513063536954052e-01
-5.128207777967915687e-02
9.493056156147887392e-02
-6.457107167496187738e-01
-4.717518514459168033e-01
-8.537504539483757870e-01
-2.521399728099980586e-01
-6.970797967742417001e-01
-9.973558021910798876e-01
-6.367078323354698199e-02
-9.653034569642945928e-02
3.168223067881179578e-01
-1.866592582826272495e-01
7.627357395227258863e-01
-1.186512200663460970e-01
-1.208973793769679665e-02
-7.292799944052544836e-01
-7.296185533315217020e-01
7.068916227199524283e-01
-7.804531266116014887e-01
5.841514803440434056e-01
9.563578768910524497e-01
-6.230385161765591429e-01
-8.155891363541344363e-01
8.255932609909668596e-01
-6.123876947012406591e-01
8.155855471843869164e-01
-6.863922126174138993e-01
-1.981826996457295986e-01
-8.274114036038930919e-01
2.960945539226584877e-01
7.797883140002735969e-01
-2.125995521741907424e-01
-7.184543121629992646e-01
-3.752228528886277226e-01
1.814719153085696812e-01
3.759022406623017676e-01
-4.855247511838753360e-01
-8.483760836291538432e-01
3.855596466278853884e-01
3.183631454041045972e-01
-4.234689757990659498e-01
2.729667938974274510e-01
-1.549280463917066808e-01
3.313184540890487528e-01
-3.393422728076106454e-01
-1.686825760506631133e-01
-2.737219590084265519e-01
-4.231157317693331477e-01
4.074615885351678402e-01
4.877895110600193318e-01
6.525926843358179075e-02
-3.250703410230518786e-01
-9.543134946962622545e-01
8.382508644235696638e-01
-2.739425400863956250e-01
3.468537938193265724e-01
-7.436263039625078397e-01
8.864289275731633833e-01
5.437104345765181312e-01
2.021679157789859904e-01
-3.422470552895827411e-02
6.441558985739437304e-01
-6.417131390736509067e-01
-8.127238388447598494e-01
7.712606386731896135e-01
2.782083446756871137e-01
-4.155240016129971292e-01
-6.556491580925096763e-01
5.050099569123119858e-01
-6.170580587629058700e-01
2.342371624714842046e-02
-4.097623987744677398e-01
-9.353920446584188531e-01
-4.396504260222490745e-01
4.193539285482540679e-02
-1.335356388354687618e-01
-4.944815845151100397e-01
2.617649080468596456e-01
7.131676185636277587e-01
-3.130821172073278147e-01
4.060929237415725201e-01
-3.794877376140496361e-01
-5.685049545723731557e-01
5.050693169213231748e-01
-5.493063073877924030e-02
-4.824248337565579803e-01
2.012562517238362103e-01
1.965912054987457025e-01
-8.061159725763919481e-02
-3.461638079574813620e-01
-2.251723351757548841e-01
5.561231081650269692e-01
7.729987474309084616e-01
-6.160338109164785747e-01
9.264294832344480701e-01
-1.671434709892732906e-02
-7.216824635176989355e-01
4.168585810958319593e-01
5.874320997748803952e-02
-7.947928769448739938e-01
2.567654008596036500e-02
-8.006201981152784308e-02
2.587716362663542227e-02
-6.168282497252575158e-01
2.968351514008888414e-01
-1.000801691969807061e+00
-5.187325254671277808e-01
2.489286286538808513e-01
-7.652734693942019328e-01
-6.003186859103424311e-01
-9.680761622278809264e-02
-3.997038476986429223e-01
8.551266917212030361e-01
-2.942819595704620483e-01
9.852155551313069859e-01
2.937883585940164743e-01
-9.135699269301930103e-01
-4.163793659566841776e-01
6.164983404283497226e-01
-2.958343196706214040e-01
7.568262106746908024e-01
5.050487577056910204e-01
3.646539539710030864e-01
-5.714095031666460711e-01
3.533811334145932626e-01
-5.043324745256046876e-02
9.234922091714393710e-01
3.205047596388853060e-01
-3.624712595365191525e-01
-4.043621770739893595e-01
9.990576049244632995e-02
9.131495104503981608e-01
7.300947842746207117e-01
-3.661621110785551192e-01
-5.813034405791109860e-01
-6.419179130185099780e-01
-4.271771873261246411e-01
3.008885273294121254e-01
9.492140299661493419e-01
-8.360487536834634303e-01
7.423320611877602948e-01
-9.755939935214065217e-01
-2.887053332296750027e-02
9.142597658601981925e-01
-3.885910999894611195e-01
-2.068724927426004445e-01
8.496243100781907254e-01
6.213935040032032564e-01
1.340120222020380406e-02
-4.969129325047311752e-01
-3.337684537694189379e-01
-4.917408987790746755e-01
8.175491115326511959e-01
-3.360693638008897532e-01
-4.471785000656547382e-01
6.730658078087669027e-01
-6.522249953874579287e-01
-2.684333790164777911e-01
5.422380256397894005e-01
2.591532361469859880e-01
4.105716220067613387e-01
6.202807400891297007e-01
5.724341691212873062e-01
2.258530349964033013e-01
-9.294465131569354943e-01
8.475587750241515561e-01
-5.794061778998493839e-01
4.614230661389676635e-01
5.094078593646380604e-01
1.805279277830657003e-01
-2.736964692038570401e-01
6.980675429474531013e-01
-4.813882186629566684e-01
2.671528001481632969e-02
8.835762858969414824e-01
-6.450301279965042767e-01
-6.475678124767297872e-02
-1.521262436727320311e-01
-6.760023480839115750e-01
-8.194456315874154573e-01
-2.695491453291166128e-01
-9.446448413766003749e-03
9.323599702626226282e-01
2.792227817579479576e-01
8.476235598891523892e-01
3.444741489338526974e-01
1.812536448468934636e-01
-7.532501008952666721e-01
2.536378626176367668e-01
3.846037918700020986e-01
-7.283737687404731598e-02
1.737667547722056560e-01
-9.640430779323631016e-01
-2.699465727454999908e-01
-7.871715288814762346e-01
-4.669338565272296848e-01
9.043297168017384591e-01
7.790653054140198597e-01
8.053664017330922631e-01
5.573146213674307764e-02
-6.559791372083699779e-01
-6.070929991928718517e-01
7.278932731147288449e-01
3.144856967600440090e-01
9.553934910585815121e-01
4.828452640676505481e-01
-7.015503450864436497e-01
-2.715826892193597408e-01
7.975741099530999634e-01
3.773709436787577864e-01
8.184219534781919103e-01
8.013218988786496855e-01
2.858269270204647286e-02
-9.045369329463415209e-01
9.232765828934734464e-02
-7.493585060637741879e-01
-4.973704665275855419e-01
6.337202515618474141e-01
4.309325405187823532e-03
-4.599038169954168531e-02
-4.809212154165796727e-01
4.273349894186486142e-01
-7.823048428868416559e-01
3.770250471155913718e-01
5.531743957628588726e-01
4.748272535596990696e-01
7.066878258147391012e-01
1.709230604538635179e-01
9.512753414513435146e-01
9.094025202272690844e-01
7.885092610686332826e-01
-1.651496302532368121e-01
8.026581802471626226e-01
7.799221273026990531e-01
2.855784798649672607e-01
9.380730489089612600e-01
6.253675980448510918e-01
-7.377894273385492419e-01
9.445614758745753958e-01
2.767605137422469164e-01
4.118719622827102800e-01
-1.621112999953393530e-01
-6.078697908889910684e-01
9.894849548078239465e-01
-9.798112293321293853e-01
2.962881786994683853e-01
5.918693073947456362e-01
1.363267585600007048e-01
5.960639228020940816e-01
-7.401674013681177611e-01
-6.117074855720069371e-01
-4.498628271796747402e-01
-1.974274117442567922e-01
6.285772022158365724e-01
-2.766932967461942505e-01
3.898049865053935803e-01
-6.329481250866161313e-01
-2.369577245469072502e-01
9.024195667003288568e-01
7.085271887575436689e-02
9.072554120179410209e-01
9.311847551347326446e-01
-6.253530895409067369e-01
4.326263438030500397e-01
-7.091108499091843820e-01
-1.710155070677522524e-02
-2.094954453763089586e-01
-9.617018669762317229e-01
4.468784182451366882e-01
-7.294772057402376664e-01
-5.831156078220534056e-01
-6.817731466184385747e-01
-6.056726742485797343e-01
8.321456645766335258e-01
-5.975272574844877616e-01
-4.073598988128215304e-01
-6.163468823915579931e-01
-8.344515441079493057e-01
8.167284621836151670e-02
-2.625136510720317840e-01
5.739522399538691255e-01
-7.957272592127824229e-01
-5.307060380690629131e-01
1.937667135230905224e-01
4.517261055512390988e-01
-7.520603639440640031e-02
7.728506997201926021e-01
9.796114128758778294e-01
7.215138038479907978e-01
-4.273107832097817194e-01
2.481369645281071568e-01
7.694153142017874369e-01
2.486751080151772958e-02
1.183735164406532221e-03
4.864254237600604824e-01
6.973178715800987248e-01
-3.833583639217558181e-02
-4.232284679885874312e-01
2.744825171462519364e-01
-3.794054297583774327e-01
-4.404376614751671221e-02
-2.180789632075475770e-01
-1.934620708044617055e-01
-6.573582076341704106e-01
-9.656262478650100567e-01
2.579317904302126374e-01
-5.039046503006131550e-01
-3.847393111550267975e-01
8.272796495109454584e-01
-3.195530144558842572e-02
-4.319998971498371088e-01
-8.077929154120992994e-01
-1.491629666107959495e-01
7.288220539450503965e-01
-6.978700542283854391e-01
-4.435841017884313842e-01
-8.359813463931363431e-02
-9.931588903169724647e-01
-9.479362122618382180e-01
-4.540650395518365245e-01
-5.196671204046401926e-02
7.566614827296926915e-01
5.153683822652201929e-01
3.062546502897394926e-02
4.046236798140544488e-01
8.361191617660214126e-01
4.001888122598059039e-01
3.622752000063194089e-01
6.046830765877695413e-01
2.460800607174795929e-01
1.429950920271547965e-01
1.044849513176354244e-01
5.169276392853293656e-01
-6.981021819012576124e-01
1.576038886261887928e-02
4.798187992822428027e-01
-8.655612495929698724e-01
-2.653907698092564660e-01
-3.437975842893385703e-02
9.350973281492642730e-01
-3.690668533906219517e-01
8.112749963594558800e-01
6.601787063354327412e-01
-8.356950945292078714e-01
8.022088192670945306e-03
-2.317638733685621066e-01
-1.591689932751617631e-01
-9.194401364223571127e-01
6.625631300454445372e-01
9.348372141650284073e-01
5.579109700225032276e-01
-7.121257193284846743e-01
-8.219153310753518626e-01
5.169347012951275300e-01
-6.154254704216987060e-01
-6.713255234186857878e-01
-2.991804430654304917e-02
-8.780876844206028098e-01
5.973554273026203676e-01
-4.545399561304303004e-01
-9.253104962638655229e-01
-6.792113705396012058e-02
1.597346005412089986e-01
4.431701136659353391e-01
2.259572147862599079e-01
-7.400350417816063953e-01
6.856996203071387130e-01
7.389235265766522232e-02
3.099511019432427475e-02
-1.651452338592407088e-01
4.617374557876482433e-01
-7.146595340984672751e-01
6.872196283537991279e-01
-8.239398006901574867e-01
4.992222842458420295e-01
-1.915967782573062272e-01
1.596534853799650155e-01
-4.260768902607635633e-01
8.068853022796642627e-01
5.885449371056999945e-01
-4.338941186348621581e-01
-6.159755409575388141e-01
8.133724748734342258e-01
-9.587866161230726991e-01
1.197692118922352861e-01
6.614803076839794738e-01
1.725174673547456294e-01
7.531293336675081163e-01
6.354045375043968491e-01
7.523743833447094076e-01
-2.053238751985618504e-01
-9.736590853867759243e-01
5.159547712578219647e-01
-1.653830620911870553e-01
8.078952498282937489e-02
-1.396269761314808677e-01
-4.808664443542814970e-01
-2.578629385193706991e-01
9.436106196847785510e-01
-3.634137373894931744e-01
8.913984351595546363e-01
-5.046248928621080987e-01
-9.282345153535540572e-01
-1.029351833317243559e-01
-8.829174435362978635e-01
-8.573899943630778342e-01
6.452105119675335398e-01
-3.812522887536523575e-01
-3.058407407362697117e-01
8.557283334216115867e-01
5.713270537853410991e-01
-6.855966280841019334e-01
6.252835265789323804e-01
9.225315770860655906e-01
-2.177808958524234118e-01
-8.337473322699455736e-01
-5.761316908249468627e-01
2.341443693169351081e-01
-9.580363743566974177e-01
-7.481217252138646634e-01
-6.524744490823767284e-01
-3.629102541644614321e-01
5.860700822588583991e-02
-5.093890138705465809e-01
8.036194910550522597e-01
4.084843285081171116e-01
2.308272441622866433e-01
6.564415175923311863e-02
8.459319721262961167e-01
7.814008412468973486e-01
-5.550207081000684273e-01
-7.898659277833820491e-01
2.712467264471434270e-01
-6.517844366676640577e-01
7.691548053740097091e-01
-2.306023023501032818e-02
5.472105439474156396e-01
6.289827927633705462e-01
-8.825983927637170989e-01
1.061349284188222303e-01
-4.529049773455426364e-01
4.041706762007028775e-02
2.911662878655327247e-01
-7.746761854487941301e-01
-6.936105521831903431e-01
8.930195416088555493e-01
-7.850226048755362118e-01
5.481314671457900856e-01
-6.200270392649002149e-01
-2.603275759875931517e-01
-8.319027138166719126e-01
8.981513308010482532e-01
6.338776115990476523e-01
8.848135665487141255e-01
7.669012488190959376e-01
3.224303040977558044e-01
8.606988491361298177e-01
-2.472828642756693396e-01
2.787941035658508815e-01
-7.773609798461350584e-01
6.053177469126388432e-01
7.246282828476975357e-01
7.388427477224446260e-01
7.066338927522778368e-01
9.281280483753585608e-01
-3.009635281392529782e-01
1.586429624120298254e-01
2.403914325186455037e-01
-9.008401506631634748e-01
5.173479492130418356e-01
2.793578708710136582e-01
8.218583496046173442e-01
3.835205062398679976e-01
7.360305771932742491e-01
-3.020674785632344178e-02
-3.738665829580012923e-01
3.863501602415385094e-01
-1.839212903219207274e-01
5.690635755205908364e-01
9.673661815028298250e-01
-3.758388888071164669e-01
-7.218890135979116884e-01
7.883846886989240854e-01
1.669298537855294362e-01
9.627298914327672152e-01
4.205839174828577831e-01
6.282866218557924265e-01
2.379126912179942155e-01
-6.186072048787494282e-01
6.164511032519168765e-01
1.752913865261325199e-01
8.225339344009569009e-01
6.362952342533769734e-01
-9.423697738945033819e-01
-8.351550444272562990e-01
-7.813616038220855264e-02
-7.198198156324037145e-01
9.015729434422746769e-01
-3.649419402335619678e-01
-1.540720526078222241e-01
6.983409700512336338e-01
-7.239241615261585716e-01
-3.032225262607118332e-01
9.141757286359988299e-01
9.472856773755290449e-01
-4.067251840643560379e-01
-4.428278967127034504e-01
-8.952361623078914921e-01
-5.228705510731551653e-01
-6.857407182101975529e-01
-7.830424562850841763e-01
-4.317367396583788874e-01
7.200856552849963510e-01
-2.545793963783586356e-01
7.322835287642435187e-01
4.035408263477697349e-02
-3.674963308508216731e-01
-6.809226981378822818e-02
4.275303336646016361e-01
-2.219509559209279503e-01
-8.139967945760118173e-01
7.913754432272825934e-01
-5.068869158778188666e-01
-7.607410280747455289e-01
9.046127966339706505e-01
-5.523530716197487811e-01
5.733918069781832605e-01
6.009808470828903459e-01
1.653492669497804435e-01
-2.233408698967648820e-01
-9.903451670460239331e-01
-1.061455344842629489e-01
1.466182580220418419e-01
-7.914391701644881705e-01
-1.614729665481328125e-01
1.340393810069554770e-01
-7.389268364999899141e-01
9.671509588271928193e-01
-6.592583825742139858e-01
-7.807175245311086531e-01
-7.279868545350232090e-01
5.060307304629038105e-01
-2.426461274227332265e-01
-8.799470793479192698e-01
-4.798958368684593800e-01
9.650232803881467758e-01
-7.702642200388826188e-01
4.336053402742430785e-01
2.126846549125360475e-01
-7.305894192788939812e-01
-5.163170624531915331e-01
-3.226659124597039963e-01
-8.827139418562194306e-01
2.594523908514131394e-01
-4.161334906608025186e-01
9.815979919756605554e-01
1.948974783775057895e-01
5.883842281381719275e-01
-4.771840546053286725e-02
4.885777274763122846e-01
-1.214490828779381110e-01
5.668759162878940217e-01
3.113320427784755928e-01
-5.767590439116481171e-01
9.884131873081656305e-01
-7.870947069730011014e-01
-4.580144730969304412e-01
-7.664576876912022607e-01
6.876954650817850290e-01
5.076932938983226284e-01
6.352785415194253105e-01
3.752069322395765183e-02
3.973336244133709449e-01
-4.927411400321271007e-01
9.453456058211199275e-01
2.633239763967555325e-01
9.652245119885917157e-01
-8.332105245165518648e-01
3.881156905770072330e-01
-8.667979928464742967e-01
-3.223452663556512499e-01
7.459456209798754900e-01
-8.796933284417526311e-01
-7.343805226472022163e-01
-1.591940057094001215e-01
4.241520731691117985e-01
6.779578081951875834e-01
-3.142145277888800381e-01
-5.587178384710100865e-01
7.168931782748668713e-01
9.778126915226215132e-01
-2.406528757717633082e-01
8.477465781885513973e-02
-4.410241233248810011e-01
-1.329954620334340698e-02
-1.695332438579767731e-01
4.035540863063362682e-01
3.005415450289871671e-01
5.964486830965203268e-01
-7.689187605054778607e-02
-5.791933160300198891e-01
2.966430325156108050e-01
2.076525789680336020e-01
-8.017977033979822865e-02
8.520648311012160026e-01
-7.094353005117061406e-02
-2.807375842518286535e-01
5.365203612389773946e-01
-6.535266073424655930e-01
-5.011140539315681597e-01
4.008727862235152428e-01
2.196038044119555110e-01
-2.339814406108609024e-01
4.513161234341580008e-01
-1.162598816621534248e-01
7.272514583264961807e-01
2.996139519935631101e-01
-7.923830779947945713e-01
-6.616423608482993046e-01
-2.244416255484360870e-02
6.889136366129515743e-01
-5.524533743746801173e-01
7.224050800159794727e-01
1.862497270171246666e-01
-2.390205312037765040e-01
4.256119517717903422e-01
-8.757893785105984596e-01
-8.201255039103895195e-01
-1.525294490160976624e-01
6.212792195109861915e-01
5.918647384096655806e-01
4.482196772994074818e-01
-9.416596639685842485e-01
2.603574977475350480e-02
-2.198533474241241847e-01
9.141761740346123766e-01
4.666940048824820830e-01
-2.185576079664587057e-01
-5.113038744258420198e-01
7.810464171619124762e-01
9.519400574127585557e-01
-8.506169529659101114e-01
6.604500140888898141e-01
-6.633815950542727435e-01
-9.762926633489815709e-01
3.896610712141572730e-01
7.728617251698526314e-01
6.976999165775663592e-01
-9.241752548510224763e-01
-8.006344300726805363e-01
6.233778105424657712e-01
6.302444085642596727e-01
6.535891184129258846e-01
-7.505382710546197877e-01
3.462464503051270182e-01
3.841198622913024607e-01
9.606670254151052912e-01
6.608437475807289463e-01
-4.506418168015078884e-01
5.672373536156992690e-01
-9.689168646953515429e-01
8.481985679142541867e-01
-4.380293259924078475e-01
8.309004981702992065e-01
2.659461895477344129e-02
-6.823431924816334426e-01
-4.668706032012680529e-01
-5.054959723091301260e-01
-4.109952215143587995e-01
-6.005964825712156729e-01
-8.018604557567500235e-01
3.720606056037294440e-01
6.167345625954201438e-01
1.867380592298765237e-03
-3.769985174606244605e-01
3.138598485986178743e-01
8.294148621488431905e-01
5.562579512467994425e-01
-6.214175082939278338e-01
2.743303269986205328e-01
2.850277467463991354e-01
-4.622660554802508481e-01
2.892490239356728110e-01
-2.558164769158218221e-01
4.421655943440263026e-01
9.838630293055536935e-01
5.893141872717555518e-01
-3.590517667222447445e-02
6.078258801993204896e-01
-4.400627391452508475e-01
2.151589350032906967e-01
-7.674803418872968575e-01
-7.507806067114231041e-01
-9.581399665488633532e-01
9.630756960118223020e-01
5.417714913055191595e-01
-9.328629156816790058e-01
-4.386294212242109469e-01
4.018680063084406062e-01
7.026912033495007481e-01
-9.450803149153502725e-01
-7.769670941888586757e-01
9.761122615563085914e-01
-5.034017716432701572e-01
-2.874052556138660397e-01
-3.009935446628663192e-01
-9.522177973303186382e-01
2.714151217338652833e-01
9.917572298627354010e-01
-5.188573055129593881e-01
1.810898691311095265e-01
-3.778012243529957348e-01
1.570497209352533785e-01
-6.055522834398516796e-01
-7.974324675449917521e-01
8.747036484479017160e-01
4.448586110941911143e-01
-5.077325215632715327e-01
-7.601624866627768595e-01
-3.928249553770065683e-01
-8.288774063911016343e-01
1.193402743302259955e-01
-9.721646094430851370e-01
-3.370308286340135684e-01
5.544186288629150416e-01
-6.076654679540912651e-01
-9.829753035597879052e-01
-2.064015982596487941e-01
8.730755503295983821e-01
-4.281622907695684099e-01
-6.529595450360365927e-01
6.952127155955354354e-01
-9.330512428802113511e-01
3.621896041179674675e-01
9.899155973201474445e-01
3.549303957481446670e-01
1.470254934933944713e-01
-6.289444612093580966e-01
8.646738062988497120e-01
2.638398111467687435e-01
3.860336693863452573e-01
6.204469473142290026e-01
-8.162634338453823579e-01
3.790616813928661677e-01
4.404077684610930299e-01
3.352371890110203423e-02
-9.639051073733452268e-01
6.212752546862921887e-01
-8.376975061852750537e-01
-5.419031372504603539e-01
-1.610095912388446460e-01
6.496047925580646920e-01
7.011834255427116247e-01
-2.036402249283415442e-02
-2.181063426825205764e-01
-5.515903962542380023e-01
-3.624338936796627220e-01
9.943425268060999966e-02
9.531916809377319888e-01
-2.498728535530890249e-01
9.193030763045099141e-01
-2.496491030209333495e-01
-2.658892367465172657e-01
-2.822318161696261707e-01
5.606805178888610852e-01
-3.539853600615976426e-01
-8.010194007860166332e-01
-7.308463678846734146e-02
-4.990858175662660212e-01
7.387959573915627021e-02
-5.032532033159300422e-01
-1.056123640359351162e-01
-3.529965529906528565e-01
6.596340434315386414e-01
6.209123523699515701e-01
7.762416496904748220e-01
-1.760244379759285382e-01
5.623164726631958016e-02
6.379328477317730561e-01
-9.464406120761919006e-01
9.732236853068185756e-01
-7.532811092888523630e-02
-9.368524421079130748e-01
1.459148298167562696e-01
5.599992923145356016e-01
-1.643448537717012020e-02
-2.377452542726864737e-01
-9.547922962939601188e-01
4.444045074955035313e-01
-9.107487974078137816e-01
5.497091008832016845e-01
1.683066169120658873e-01
-1.465373239457262167e-01
7.802195600722777735e-02
-3.474490541586058301e-01
-3.976360977556692156e-01
2.301791490762189127e-02
-3.731712249212231769e-01
4.592592950759092907e-01
7.647544176924118142e-01
7.756049947545199386e-01
-6.869502125046130780e-01
-5.980300733716942263e-01
3.072025594174943586e-01
4.346743365144102866e-01
-4.151689298673739287e-02
6.317457772143414418e-01
-7.048612890786878360e-01
-7.264988397916741780e-01
-2.125964185494626235e-01
4.063280139338720232e-01
8.557591672288132889e-01
-5.942367541148290133e-01
-6.530809654529123875e-01
-8.684019105088598423e-01
2.920161704546718751e-01
9.831061551888334860e-01
4.075340210924752876e-02
4.993978364943020276e-01
2.094549118242698960e-01
3.100192219452351794e-01
-9.965050475440473399e-01
-7.889784303576768965e-01
6.661020400130646113e-01
-3.536251823633381197e-01
3.686395603775984853e-01
-7.385811984292056653e-01
7.133866003009824153e-02
-1.678679447749580056e-01
-3.797751158165649787e-01
8.805326249776204151e-01
5.684526437217960471e-01
3.058517037987735221e-01
-4.763312352497220403e-01
-1.538014926249879101e-02
4.794226027150280678e-01
4.854858676660817052e-01
-9.370624367492665918e-01
6.588900242940327612e-01
4.241013270400363910e-01
-1.610856843982673148e-01
-6.295909472911626059e-01
-5.053747713909328976e-01
-6.951059790531363136e-01
2.706816759017074969e-01
-9.106381543071744300e-01
-3.871976398055678170e-01
-1.265484383447448846e-01
4.496786892569871186e-01
-7.892738360706050837e-01
-6.826228197308480405e-01
4.373757891572134238e-01
9.123312810114350135e-01
1.041982658813811469e-01
-5.324175148874047414e-01
-7.022461680733617095e-01
2.701309475061350884e-01
3.192799882884360674e-01
-6.371316603824883629e-01
-3.580782691436582565e-01
5.359100872147618683e-02
-3.074194505761799756e-01
-1.007020798032811193e+00
-6.212598859179715438e-01
2.137148595528691464e-01
1.680027324276920919e-01
-7.717182514643762259e-01
-6.085678434872722198e-01
1.179585682737712277e-01
4.918299489811455150e-01
-5.607667611442984645e-01
-7.759234974234630045e-01
5.662130262799979219e-01
-9.573430016272309606e-01
-9.449886366566428997e-01
8.765197270942874930e-01
9.923959832425810479e-01
-1.548808472482257337e-01
-6.471774918676183042e-01
9.625824138818983577e-01
6.615253351837275808e-01
9.518214204057319217e-01
1.972450228199022493e-01
-1.690024922544191288e-01
7.266302113260963980e-01
9.726939884777368039e-01
-7.343533708487786082e-01
6.571472923983768810e-01
3.446142550289864048e-01
-9.662252745282098321e-01
4.805442570243125822e-01
-5.338909846763041367e-01
-4.940785378829198882e-01
-1.504830458512195768e-01
3.655322826270561154e-01
9.898575580908115512e-01
4.170664681439642529e-01
7.692527061873318805e-01
-3.011693002547641274e-01
-3.393623901382236130e-01
1.312977600803588631e-03
9.622238928883140030e-01
-4.001998452542607776e-01
-1.653743539011189589e-01
1.953432814547921836e-01
-3.573631442542835601e-01
8.412794320268125459e-01
9.769940070621953021e-01
1.462529656775968523e-01
-3.345855464963422565e-01
4.165019305495768487e-01
-5.025142836369539401e-01
-4.659891625678006521e-01
4.057139405127422882e-01
7.915922357423849087e-01
-6.764148427605383151e-01
-1.163774322595894084e-01
2.331976686925734121e-01
-6.964111328106674659e-01
4.240154089648353053e-01
-2.961599765342728396e-01
3.974729141446933789e-01
5.652486573907709033e-01
1.591872711273253083e-01
-3.084597483039678290e-01
-6.680647946326215836e-01
-3.207756644622969389e-02
-4.735383706785846747e-01
1.906967650764285760e-01
-8.444709793413914811e-01
5.617475967195865172e-01
3.101908742199959712e-01
-1.597497315085454062e-02
4.090219683867165612e-01
-9.848777826209202946e-01
5.934342195958484112e-01
-2.340509481783712917e-02
-8.017704665694574961e-01
-9.746942099920906655e-01
8.957335276501665611e-01
2.917427424260652380e-01
-4.354222032862786751e-01
-2.307347784846776884e-01
8.982107430445606111e-01
6.000336858132530038e-01
2.138739611095552551e-01
-9.023573860472774988e-02
-3.095274092165514190e-01
-5.666664913985639540e-01
-8.043979070166155099e-01
2.447780748479218005e-01
5.410427110198697820e-01
-2.149996213704988002e-01
2.394539391139023921e-01
-6.399780265621787256e-01
-6.850189794959216094e-01
-3.506532435311080498e-01
5.504439725604504119e-01
9.673675930987759575e-01
-3.269832878337449178e-01
-8.089162188781388041e-01
9.621940818722775068e-01
-6.185695514144770035e-01
4.187412482097174760e-01
-4.203751885354162915e-02
4.502414015664854552e-01
5.747728643398919424e-01
9.605915268806147767e-01
-4.581843179101016128e-01
7.540958250238261051e-01
-2.109487216493051709e-01
8.295294599585923967e-01
-1.188830279293222464e-01
-7.745995994720248357e-01
-5.106463904670046627e-01
1.224516119929203173e-01
9.233484239269486027e-01
-3.608813086107124507e-02
-3.504263682663453783e-01
3.343747076847819466e-01
7.520708786316003536e-02
-7.209355651463164594e-02
6.072608353925246227e-01
-7.513411477736127164e-01
6.952095116112567696e-01
-3.505617654721160936e-01
-1.978470464512618321e-01
1.678223269792424588e-01
-5.542702795620954026e-01
-5.442043366083628708e-01
5.848542924436028745e-01
9.143484245732745874e-01
-9.721467639729716170e-01
-9.020200228648419527e-01
-6.284588403314651517e-01
-5.404752480071921550e-01
-2.764681654723941673e-01
8.369720224991484825e-01
-6.989252456531777069e-01
-8.321884134968817737e-01
2.277500727372155226e-02
-1.381686623081180010e-01
-5.863465421879194839e-01
-4.096584944833497888e-01
-4.109530314527466421e-01
-4.560944360950942578e-01
6.558677667331993533e-01
7.915667186070243222e-01
1.703413581129250010e-01
9.119994910477542682e-02
-6.302658777245040422e-02
-5.721639808087811696e-01
-9.308176852506695464e-01
1.098703023927474071e-02
7.950649180147912887e-01
5.508416339190098654e-01
-5.665148854905157627e-01
5.777772613177193373e-01
2.093916772036425178e-01
-2.976545739208341645e-02
-1.793621103001211692e-01
-3.414059223253432807e-01
3.431008229285152922e-01
-4.412768163703547075e-01
3.865471625077943063e-01
-5.114824662636705543e-01
6.149543012400220388e-01
2.555438991089719614e-01
6.754412814953374422e-01
9.395661844064312485e-01
6.812850875316452948e-01
4.281899827575805229e-01
-3.236952956316824226e-01
1.018889346642776889e-01
5.348711190883443933e-01
5.977538768646911693e-01
5.474362463843143178e-01
9.132184038295225736e-01
1.151326970086798823e-01
4.008608165589572780e-01
-6.219229220092094002e-01
-2.658608421838601910e-01
-5.270168247149678020e-01
7.515742107220282908e-02
8.116354194738045758e-02
-8.748222435571674227e-01
7.821785471191186057e-01
-1.247278062886947488e-02
-6.963227908645760467e-01
5.425112005062265874e-01
-2.431030991132647132e-02
8.296624903455117606e-01
-2.293303016072434086e-01
-1.845465680744726444e-01
2.602896993532292091e-01
-7.465329625888008636e-01
8.370203860121433470e-01
2.641556280477531105e-01
-5.395316420066531560e-01
-6.529813685546087543e-01
7.350436523097848562e-01
-9.398113701716386270e-01
-3.384622065418051440e-01
3.400744449790235602e-01
-5.555356928377046533e-01
-9.925912147357199844e-01
-5.227199158867723572e-01
-8.916332475095590793e-01
6.773379800046972488e-01
-1.730050434610129195e-01
-3.136540810714723015e-01
6.786877018120183180e-01
6.158768165007818540e-01
-8.061138511707728604e-02
1.380824250556567101e-01
-2.831187454532844705e-01
-4.217049208576288399e-01
-9.695913167791914145e-01
1.241132516605710501e-01
7.397365887704077103e-02
-7.426073904421749416e-01
-7.680890319973886493e-01
8.724269401582497308e-01
-6.442045740552727606e-01
2.276976941144480404e-01
2.567367786999367740e-01
-2.363032959128845978e-01
-6.675172621228979697e-01
-8.305461606015352993e-01
5.044883068319825359e-01
8.543271685538699201e-01
-9.906075127864896190e-01
-9.559988321814105738e-01
4.084404762980722303e-01
4.005133873325983362e-01
1.174094869382523304e-01
9.131380561075134183e-01
-3.583535344416826085e-01
7.872698739424293102e-01
-7.261619975761620660e-01
3.733857845646338935e-01
-7.817416350132662395e-02
6.432552780305936801e-01
-5.656416350411096472e-01
9.110542843874746000e-01
7.627064825612672738e-01
-3.378641436392573194e-01
-2.074455313563778810e-02
-1.028672026943598244e-01
-7.250899160106557551e-01
-5.096723011755204258e-01
3.908464909173816476e-02
-6.185225122346388327e-01
-9.372205818498274832e-01
-6.513157227768126001e-01
-7.567298462738083487e-01
-3.739523862704742241e-01
-5.682266047917360341e-01
-2.759938589351840776e-01
4.103071477610094608e-01
8.630912264564426228e-02
-9.550000585005192777e-01
-5.564325262746456779e-01
4.081525231036616796e-01
-6.151324562647729477e-02
-4.598468616115971019e-01
1.019149841546370117e-01
-2.377855414094448561e-01
9.177888967506635520e-01
7.524314422026951998e-01
-7.996620188503065219e-01
1.839472385725180459e-01
1.423317711917668031e-02
-4.159184892023490981e-02
-6.185256999580587278e-01
3.448968918696334041e-01
-1.704119815771385493e-01
-7.149477978817853074e-01
8.463074889915053189e-01
-3.267323034723316755e-01
-3.586440659704432377e-01
-4.850093485930277448e-01
-7.585791466747434653e-01
-7.064892915213425439e-01
6.534532658760742185e-01
-9.207680903635591108e-01
9.063868338558802584e-01
3.965557789016547208e-01
-5.689551823256377983e-01
-1.345982961120834043e-01
1.906877971495176127e-01
-2.715102078705370348e-01
6.999022609809542050e-01
-9.707623437926643506e-01
-7.779305108027820270e-02
-6.597168185220813053e-01
2.382799091613646211e-02
-3.788221322548725456e-01
5.733698428558616639e-02
-8.891566495376994617e-01
7.798645835425539463e-01
6.909271966425247768e-01
-5.009545490968699832e-01
-6.454161455708629092e-01
6.428339353510148513e-01
-5.008668063490324673e-01
5.616441382099351953e-01
4.425187327699683058e-03
3.510015561511851782e-03
-4.013027653898287167e-02
5.812002863960382681e-01
-4.019373081766408617e-01
2.678240222573470275e-01
-3.577261682412400390e-01
1.867835390204793111e-01
-1.313741239967124996e-01
-6.762934209126210128e-01
5.758447633111822839e-01
-9.018579731725967497e-02
4.353423294683926303e-01
8.266861739912564344e-01
6.549593878816049874e-02
-4.464693802123753108e-01
8.485753262525168594e-01
-8.501879736121246145e-01
8.842130147103077764e-01
-1.265614720079140665e-01
4.834866939285756837e-01
9.478759032901201698e-01
-2.357822012834438763e-01
-6.251669978792224747e-01
-6.091863408830631293e-02
-8.651363980541035836e-01
-1.102149182874427452e-01
5.500382218326124173e-01
3.746390820667323124e-02
9.272685046287338917e-01
6.640683180093719107e-02
6.318491712941256555e-01
-3.479505891464471090e-01
4.913479448807779315e-01
8.417868529230883023e-01
8.706121166333341543e-01
-7.096252607700599402e-01
-5.778903344354601179e-01
-4.481121494414049278e-01
-6.873332281241435471e-01
-5.027945841383860692e-01
8.490892525446672723e-01
-9.554816857692508547e-01
1.208840294087129147e-01
-2.244956016193004264e-02
9.476574981651199325e-03
-6.550855145842970906e-01
3.251126450924608502e-01
8.565509797910920708e-01
-4.289491948760013051e-01
-3.648619910969209124e-01
-5.957460719662536208e-01
8.382590616090110913e-01
1.892323005007165437e-01
-1.803960481422542950e-01
2.109044132921261416e-01
-9.964294596177151186e-01
2.377876859067224249e-02
5.683840495935967851e-01
-8.034024170852576141e-01
2.088575507720157043e-01
-2.710157242504259156e-01
-3.865052584066754338e-01
-4.327682117481221891e-01
4.005616957441713311e-01
8.310189182927710805e-01
3.852785742930742163e-01
3.723759142561930413e-01
-4.658837216838623285e-01
-4.556205667698700057e-01
-2.994861636910954861e-01
-1.342658321921459952e-01
-1.946506503339512917e-01
5.421306139586242745e-01
4.784015609937602997e-01
6.475546944601047183e-01
-2.630262524904115051e-01
-8.093032775564968917e-01
-4.571098936127823142e-01
-8.281508157908999967e-01
4.667487078205139750e-01
5.635241170490642437e-01
-8.539695176302807278e-01
-3.295468272076001459e-01
2.716775262604044783e-01
-2.276970014747959348e-01
9.300405900910581336e-02
6.751170106718549224e-01
-1.747429234389744623e-01
9.734357400900200963e-01
9.964467505693623828e-01
4.924706892065753849e-01
4.089715910121481945e-01
9.148891272498970162e-01
-7.600490462068114628e-01
-4.531030661676314075e-01
3.593049904518685889e-01
7.631976917514025072e-01
-4.792781533663097449e-01
-2.123581493964795675e-01
-5.034023576689904134e-02
-6.632530189375593910e-01
-6.943904438978556470e-01
2.973929026334684589e-01
1.398775311517442277e-01
6.989887051326716394e-01
-9.115881431347112596e-01
-4.120027121634605161e-01
-1.424482056781287420e-01
-3.926342026813963160e-01
-1.394841684193704467e-01
-2.220355766736418351e-02
-7.379978218684591917e-01
-8.794379099487517060e-01
-4.206685334883438765e-01
-1.611027899028493610e-02
7.423477539364025102e-01
4.956826857922446150e-01
1.707946120761523467e-01
-2.729330040058112195e-01
2.928597886890130578e-03
3.708792120638709222e-01
-7.234398060595133295e-02
6.331899978703344756e-01
-2.473148497389190958e-01
-3.387263952756112695e-01
-2.019455036252649494e-01
8.671335139665525826e-01
3.332672489466177446e-01
4.909670835648003440e-01
-9.545724703405447653e-02
8.348123048600599727e-01
8.332566810965994497e-01
-1.129029924905474297e-01
-3.984765304759108617e-01
-2.157960380916275900e-01
5.476546823464607527e-01
1.971283758523676710e-01
-6.431901726477996517e-01
9.856974601194521401e-01
8.649709396777148784e-01
-4.317201350103562207e-01
-3.714515232863531136e-01
4.318719869909620201e-01
-7.068363296763316983e-01
-3.186022000262347387e-01
-5.255313282440029488e-01
-3.475179152550833539e-01
-9.752645433835398503e-01
-9.384642522087425220e-01
6.842427879156054438e-01
2.088191411409441589e-01
-3.714979537310322821e-02
4.672761515677035793e-01
-7.916560268605045414e-02
-9.983155761543655027e-01
5.776556690790569659e-01
-7.794584003402896810e-01
-2.865541567547975066e-01
-7.480629444998685429e-01
-8.912592621560437856e-01
3.066842082300501593e-01
3.461153523140397259e-01
-1.070521958394238249e-01
-4.190729562625408189e-01
-2.541640400401268818e-01
9.330582321785941824e-01
-9.646310500475209215e-01
8.630965728488910749e-01
-8.219805391846135567e-01
-6.052825338724616699e-01
4.453785774957552679e-01
-2.497219175946075245e-02
6.846700954558125884e-01
9.335324294717367577e-01
3.907218867944485807e-01
6.671223613525073537e-01
5.641321413820199471e-01
-1.547957901392953417e-01
2.725032342635850258e-01
6.407531241536079669e-01
-3.611783665347570449e-01
-2.267247092555840504e-01
4.965940818907741972e-01
1.439323831053999636e-01
9.900257612157759013e-01
-9.860574860554357501e-01
1.607538335488695735e-01
3.571412808797718719e-01
-3.460096305445557463e-01
-9.553257221005292399e-01
-3.660249219879378457e-01
3.495261318239437642e-01
3.589228579035127487e-01
-3.147995302755292046e-01
2.878963326721621918e-01
-1.211691392146356690e-02
-1.580585065776163867e-01
1.293329505783109368e-03
-3.437899712442563094e-01
-4.836289869611834491e-02
5.719209979688928414e-01
7.998573946167764070e-01
1.448472293973057101e-01
-5.545759542487307403e-01
3.375883648727572850e-01
3.330863221237507776e-01
-2.474135668107008135e-01
3.759140824454798580e-01
2.424365129040339378e-02
-4.675490494442235412e-01
-2.238596387773515162e-01
6.952848314560955423e-01
8.264470208512132432e-01
-5.162216007266872131e-01
-3.867731462803654652e-01
8.178605535846951158e-01
2.382492900936382663e-01
9.269466125168138726e-01
-5.054402119252290326e-01
-2.779117971011779709e-01
-3.400709879234721789e-01
2.221677894869444198e-02
7.830935488354200391e-01
6.707040210017251036e-01
-1.345970863307598409e-01
-2.347242743262918097e-01
6.143431715686618055e-01
7.223279164459639468e-01
-8.628248144699162125e-01
6.967578246265182518e-01
1.234409503774781258e-01
-3.578676073182214812e-01
9.241469368009673779e-01
3.846637304047753614e-01
-6.774679193905763785e-01
8.549946878564909647e-02
-1.764001965490882562e-01
-8.392578838532188668e-01
7.341015001227090275e-01
4.716830212187936855e-01
-3.865680664017093898e-02
1.856908193494034159e-02
7.895086367608905586e-01
-8.976600192346169127e-01
3.321667970762933741e-01
-3.650881615022789073e-01
2.305395572653775801e-02
-9.323471267312694044e-01
1.653181047256876979e-02
1.134568727781142539e-01
-9.867330778462957142e-01
-8.914354707262940325e-01
9.545504779899679493e-01
-7.968261753039891371e-01
-5.593239803077773020e-01
-6.421149990056889134e-01
-9.021330909701219536e-01
-3.120175071748876872e-01
-2.528443826971610853e-01
-2.820045971611682689e-01
-6.784470107179533249e-01
5.646270379802595940e-01
-2.711768360055435423e-01
4.590386236370366801e-01
-7.959798432274998170e-01
-9.926006449002846566e-01
6.953759350322281652e-01
3.061988578605923661e-01
-9.869117339669950528e-01
9.455818618822943167e-01
-3.584169101118593326e-01
6.314501643180261414e-01
-6.681604343927708411e-01
-2.009101349260350999e-01
-6.338672459391788694e-01
9.024740479110899827e-01
-4.469779863961090977e-02
-9.148516459688967872e-01
5.352242061447086696e-01
5.139230210179608349e-01
-6.379220110672204624e-01
-7.293489886911274089e-01
3.730578669742095621e-01
-4.730406205984452050e-01
-6.245078400559642695e-01
5.691359645677878110e-01
3.510452971390959909e-01
-1.385882290473461620e-01
-2.450708424193138724e-01
9.149521920978689327e-01
-8.767231615990090932e-01
-7.128155754784406550e-01
1.808582832677934141e-02
-6.724034303687449476e-01
7.482199929398243299e-01
6.770889790617055093e-01
-7.771379994805726055e-01
1.294092404808681041e-01
-7.141050629444274378e-01
-5.188276764774579775e-01
5.703500699899652915e-01
4.404247293845682254e-01
-8.156331570128281250e-01
1.714966869225473256e-02
-4.610271460933996340e-02
6.727094468657592863e-01
-3.389196840135551003e-01
-9.651185506253540103e-01
-4.276845828683833312e-02
-6.650798309505543404e-01
2.444747347257611170e-01
-9.211107770714047627e-01
3.821957911195042468e-01
8.375706237831660461e-01
8.786434072972344467e-01
-7.310603622057814110e-01
-7.706459268562376730e-02
-7.341899699499471188e-01
4.720967627018867185e-01
-8.709539929418721460e-01
4.202872801230832511e-01
3.771571357992350437e-01
-1.967045065228503475e-01
-7.735554400405428299e-02
-6.044555742537738308e-01
-7.067714053762728099e-01
-2.391217661337896871e-01
7.194031424873119640e-01
-1.931428701441239015e-01
6.723185079349643933e-01
-2.568655078237861433e-01
6.455167803379115998e-01
-2.181293074061101123e-01
4.348743502780372805e-01
-3.639905722778952746e-01
-2.386169672539418529e-01
-1.582295353930324167e-01
3.560285222875790301e-01
-6.243005205428039384e-01
-4.502009628080151926e-01
4.023000563878350033e-01
-6.401784946285984379e-01
-2.309186852792626532e-01
6.684300470243946801e-01
-1.856877960833595298e-01
1.274485985941974098e-01
3.273727756249511511e-01
9.792501765271607317e-01
2.145693961045172515e-01
9.812849273106458714e-01
-9.743881217798586736e-01
3.929766089471365409e-01
3.286117609947842300e-01
-6.839595694932963932e-01
9.779109643365675453e-01
-6.538539871648441082e-02
5.312508398203266147e-01
-3.277287367213633784e-01
3.063564556533825492e-02
-3.403406307101926598e-01
-3.209235942920065643e-01
-2.268856417755961696e-01
-3.139494811235106209e-01
-2.211530559087291348e-01
-1.003730153862347541e+00
1.413274603879167979e-01
9.132630763570325216e-01
-8.898836478614324808e-02
-9.006709150136150976e-02
6.820894298497613972e-01
7.153870514680550352e-01
5.405561931171840584e-01
3.462418697722342009e-01
4.127218149329307112e-02
9.227373624577800415e-01
9.504492766732846043e-01
9.178826862135535114e-01
5.621365631675929730e-01
-5.467652799017573839e-01
-5.806701382246046705e-01
6.085264015624076706e-01
4.651870667729599007e-01
4.185911935088014180e-01
9.146824584334001251e-01
9.139676412482479195e-01
-3.075333349031365571e-01
-7.121657554092337972e-02
7.755833222096941704e-01
8.707860825702532503e-01
-5.054945418791644274e-01
-8.779784260365789406e-01
9.434386483685944791e-01
8.191565130342614021e-01
-8.097888974179650035e-01
7.073448303437005480e-01
8.004448584816241663e-01
-6.264848697403468947e-01
8.783837512927652469e-01
3.379034535655549010e-01
-1.144831972402397119e-01
5.526444715206574321e-01
8.019658307923690499e-01
5.837092767423022188e-01
-6.862573014898726287e-01
4.480805745103686455e-01
-9.524323494313615690e-01
-5.753202937977052178e-01
5.097001020402944782e-01
-7.318332225176175099e-01
1.447831209900014571e-01
-7.914767920757477537e-02
-9.855880517200080737e-01
-5.320222309506136282e-01
5.021925267253577463e-01
4.691381423747502666e-01
-8.438278237369915002e-01
-6.505394616307625943e-01
7.414212417718278880e-01
7.865237883991084145e-01
2.280255291924683791e-01
-5.966757897565945212e-01
6.623688156089769796e-01
-5.784838218206063143e-01
-2.010816044432453265e-01
-2.521874389346507317e-01
-9.857281107881676885e-01
6.563398015625244719e-01
4.392759389964369099e-01
8.473526170199806584e-01
-2.906558061501891554e-01
2.175262046850799380e-01
-3.450081803665845936e-01
4.580156164055366741e-01
1.630055521930276127e-02
-1.922031989857353115e-02
3.426242389747872208e-01
-5.404938449557452618e-01
-3.001397203770032607e-01
8.963244942953849104e-02
-8.295059443716537029e-01
-3.201350918608594776e-01
-6.278237707718797855e-01
3.811446051200598761e-01
6.756855974057667247e-01
2.831210367170133302e-01
-1.472195606400161436e-02
3.482077570494651608e-01
4.826936496860552150e-01
6.909598787309585433e-01
-5.904067178953307238e-01
7.028384675579525398e-01
5.198942096113012834e-01
4.669014560763788957e-01
7.311565148425410721e-01
9.277370480506048622e-01
6.115674237372230593e-01
1.269024028851936381e-01
4.627991533034929161e-01
-7.057091086397327961e-01
7.322675440876832420e-01
3.929272962953375137e-01
-8.877327971442031118e-02
-7.663533614388740034e-01
8.718687534253491966e-01
6.942472662286551799e-01
-7.623973703980061467e-01
-6.427410143594710634e-01
5.039629412094501770e-01
-6.687884773737663435e-01
-2.362265751125217639e-01
-7.446236507413209749e-01
4.761654362983800404e-01
-6.990368603972756389e-01
-4.358880100552598447e-01
6.529518930062544468e-01
-8.385450814989127144e-01
8.499373490322165159e-01
7.571123589084277627e-01
-4.125614889111380856e-01
-5.601738431860197043e-01
5.453902364186822282e-01
9.596905197915318597e-01
-6.720958122867954909e-01
6.686582033405731318e-01
2.760099199364144940e-01
-8.146477499062997341e-01
4.406057087255821902e-01
2.384952826025870387e-01
7.499798970221632777e-01
9.068031727848668844e-02
5.328458093045925770e-01
-6.494436685846333157e-01
-5.333416355506982454e-01
6.345101118615131819e-02
3.347373534556040142e-01
-4.886936752909252224e-01
1.580856316439528397e-01
9.202586586716845485e-01
-7.074984797129565406e-01
-3.442787923168349473e-01
6.296086871129386031e-01
6.767447283907711275e-02
7.366723044357360584e-01
1.483182279909424361e-01
-5.471676008867901730e-01
2.077770722558252847e-01
2.534476108844673226e-01
-1.771380101853745059e-01
3.443895807843910806e-01
8.818173466081626888e-01
-4.018146946016579180e-01
-8.476050985019000228e-01
-5.289252513091045049e-01
-7.903114050161760273e-01
8.770539760736817403e-01
-7.176464676001457210e-01
-9.021455789586001472e-01
-3.066702964866257694e-02
-3.885036535791963619e-01
2.486169772843419279e-01
6.364367060240286866e-01
-1.305268848245079161e-01
6.680873790647400279e-01
6.534996747119947713e-01
-8.930142557589687557e-01
-5.677794596045427911e-01
-3.117162171845389573e-01
6.040583176578658703e-02
-6.435828220688575296e-01
3.603886653937988238e-01
-3.982587008473979506e-01
-7.312597158586567891e-01
7.277959541735731785e-02
-3.955991358671406832e-01
-6.195273264901761390e-02
-5.791645899997204250e-01
-4.531505807552157483e-01
-9.082066555725488710e-01
-4.052789245977449495e-01
-7.829278560153368760e-01
-4.350473778825826310e-01
-4.858763014712486616e-01
-6.023357393044221908e-01
5.350100279120584279e-01
2.798031433890030284e-01
-3.810624956426155729e-01
-8.531634293698154847e-01
-5.748108011751468238e-01
-1.625795924738387133e-01
4.103070158382574606e-01
9.191566481568267388e-01
-8.397912542958073656e-01
-9.337576556017030960e-01
-3.435571902434619851e-01
7.897492342208221050e-01
4.000375195101810721e-01
-6.599995539330459904e-01
8.688032250529836853e-01
-3.099720236031041631e-01
8.890377370592084105e-01
-1.077532848321452463e-01
-5.633475336537822203e-02
2.542960096024901584e-01
-5.421562312749651502e-01
9.641709840220099581e-01
-2.600138651803697853e-01
-7.975555597146576359e-01
7.513897603328472119e-01
-8.971487827736664145e-03
2.997243373369222197e-01
7.507381564452967337e-01
-4.772731580417207131e-01
-5.418828055099493834e-01
-2.121472408423259459e-01
8.311093710183574679e-01
7.103214499976651108e-01
4.899159092580198660e-01
-8.955204640902461599e-02
4.339356793227705511e-01
6.258127807466039583e-01
1.391463076884541517e-01
7.818974145636471418e-01
-4.113211136013213420e-01
5.709597061286821873e-01
5.548157954779761036e-01
9.658743281308334039e-01
-9.673813170403129380e-01
4.256092801572093909e-01
-3.432691566837066111e-01
5.486314596243918595e-01
-4.717374971903793845e-01
-1.993786094451573954e-01
-5.577543851870263580e-01
2.803086110787208485e-01
-6.816881444274266455e-01
-4.229681792784765193e-01
-3.612860199339671397e-01
7.587399820254971949e-01
-3.722583633418730109e-01
-3.360500576859521416e-01
3.987895432994073008e-01
-2.703794251364867729e-01
-1.009682849678829597e-01
1.007345369341833274e+00
9.049886854775057721e-01
9.197596349884233635e-02
-1.241468520119809599e-01
6.562789253002220269e-01
-2.347505520155957273e-02
4.633296119824630022e-02
-7.840370100700589928e-01
9.800601428405784077e-01
-9.930024317153498536e-01
1.754907631414598379e-01
2.659240629718132715e-02
4.242015468111221543e-01
4.620059050241616672e-01
2.648416062963050432e-01
-4.029700681941025819e-01
7.175594414125237019e-01
-7.304762375382648498e-01
4.017363097983977505e-01
3.192934116783277543e-01
4.769931566131553891e-01
3.550481645027938615e-01
3.556438946549114188e-01
-8.950711182633303009e-01
-8.255523673539451046e-01
-7.660247233231862740e-01
-5.108508780368126168e-01
8.640446726897824670e-01
2.965711920397346435e-01
-4.648629806051406653e-03
-7.554027245679145741e-01
1.614061011950698454e-01
-9.785607017040957867e-02
-8.801798104614909635e-01
-6.239461705906471645e-01
4.450163671790803854e-01
-2.615331542317311797e-01
-6.949444579123088550e-01
-5.765616822822906551e-01
-5.043104411460594960e-01
4.209124787256571243e-01
-7.326994196884145660e-01
-1.644801161172164961e-01
-7.944639747526774931e-01
-9.388956039717027968e-01
8.656650087825636941e-01
-5.591218517812975852e-01
4.688762045262031553e-01
9.368442209889287220e-01
9.287168154368317108e-01
-9.611856075909578356e-01
-3.279542631278878351e-01
1.595484089872035299e-02
-1.303642387835120819e-01
-5.762500136952228846e-01
7.606117563576928475e-01
5.833188897571878195e-01
4.386283376949403068e-01
-2.477526259690302976e-02
-1.216331214241105768e-01
9.342392263780969763e-01
-3.115307650071127421e-01
-8.123954410465817899e-01
5.880629641188745982e-01
6.562870862582001474e-02
7.824784852433431803e-01
-2.949728924883465719e-01
-5.883103619554644892e-01
-6.551952778445313541e-01
6.829985862688449094e-01
1.903216554650712378e-01
-8.035712538223599433e-02
1.665045125327012099e-01
7.398503003270685829e-02
-3.244013865504399852e-01
-9.846023368307961210e-01
-1.585696154486061493e-01
-2.786218310958735178e-01
-8.845558836850995199e-01
-2.130642193153420988e-02
-9.341751493513942295e-01
-3.503156455898844002e-02
8.156949753124866920e-01
-2.411553366914186980e-01
7.280048666770161381e-01
5.129915636233093636e-03
4.334952678323004127e-01
-5.267296627860316161e-01
-6.103217505311099300e-01
-9.647970277234928504e-01
-4.783519059523383965e-01
-8.435411435382075829e-02
-4.114311159208861590e-01
2.440057052631624535e-01
8.786051195761134247e-01
-4.191029487137839515e-01
-2.114714362142392640e-02
7.285263427635427780e-01
-6.996543099066430127e-01
7.440753243157132157e-01
8.351343764244280043e-01
-6.198843715060577964e-01
-4.003674908534012866e-01
1.602049043308552412e-01
-1.117610867661554680e-01
-2.400687857223747779e-01
4.475872221152176200e-01
-1.607074810601525072e-01
-6.696092416821680660e-01
-5.880128977604642815e-01
6.948414229488156790e-01
-8.446041404281239284e-01
4.935595709224303851e-02
7.874947358772506067e-01
-7.307512445321426853e-01
-7.439162747568105472e-01
-7.893050485240319381e-01
-9.269099856604107179e-01
7.821852657645858020e-01
-6.111702365357617461e-01
5.262845340298486496e-01
1.701071124584437877e-01
7.062470345712491548e-01
7.581742697828968147e-01
4.845190100598885663e-01
-2.242561552885269649e-01
-5.736933392533342113e-01
-2.431948457835078348e-01
-4.618351367383085604e-01
6.156452259953021366e-01
-2.326994112490514133e-01
-6.661672459977742156e-01
5.763359358698174617e-01
-5.366234147642539032e-01
6.679475587302712292e-01
-8.768469751293822556e-02
9.404002600241709864e-01
-9.470520414958379929e-01
1.365914496795509435e-02
8.543110122963765152e-01
4.989884987378475079e-01
3.887529825635344660e-01
-5.648320031973586008e-01
9.348040223048322828e-01
2.176601276694853926e-01
9.435706922524439433e-01
-5.665411096449510797e-01
-8.734114748055987754e-01
-6.265261882676195215e-01
-1.730086994631489239e-01
9.861762475448005993e-01
-7.895828447556383356e-01
1.674762640885965603e-01
6.698140030941216461e-01
-9.906280203610792201e-01
-8.551197746095668961e-01
5.695396741629191739e-01
-2.578102566291934905e-01
-9.003419739941947997e-01
-8.886715817624146752e-01
1.596629115755336947e-01
8.648653614392770583e-02
-6.823867331902719879e-01
-1.320437482802248041e-01
3.295222648933896492e-01
6.103045943593721212e-01
7.279058046268060966e-01
-4.059303840046779577e-01
9.049313674842805744e-02
-8.042952090800306042e-01
-6.595955082632982691e-01
-1.090869833992619692e-01
-2.029492150059700184e-01
-1.881592268248862554e-01
-3.669256342087995337e-01
4.930517925850420591e-01
9.465975458093771611e-01
-7.450139731422061873e-01
1.728702729642481173e-01
-3.572387068331575044e-01
8.797708612526420335e-01
-7.247655694083350308e-01
7.916761243827860617e-02
7.630096550765421703e-01
-5.971985425769186229e-01
-1.470402683498951424e-01
-1.004781312762608625e+00
-1.069328545009604198e-01
4.512717186694033267e-02
6.176321356613857505e-01
8.892978352360244587e-01
7.927916750786256905e-02
-2.017623570868230798e-01
-7.916367336811036548e-01
-5.369439768875756691e-01
-8.262411060297645271e-01
3.348963291950481369e-01
1.456063492720613244e-02
-2.438686905504389713e-01
-4.209993051799298946e-01
1.494063755571028718e-01
9.401012749045721817e-01
-6.152676891387071079e-01
-3.616347561509339337e-01
9.579462696033478331e-01
1.364140142360807662e-01
1.421672630822243821e-01
-4.685898153806584143e-01
2.310067130817262671e-01
2.348742987624175271e-01
-1.824410186381960064e-01
-1.679160233129530500e-01
1.411981676185755374e-01
-9.335105153535534495e-01
-1.005881425055688005e+00
-2.688424675040410050e-01
9.057259007867196621e-01
7.515983752452247424e-02
-2.942572294670659644e-02
-1.420920173146958121e-01
-1.167802457425218821e-01
-4.454429430003334356e-01
-7.414051761548511310e-01
9.041809203079096413e-01
9.226591150616398895e-01
1.328839459984157978e-01
-2.590780570310903252e-01
2.545591895667358995e-01
4.224714470100228714e-01
-3.900411264261224864e-01
-8.654848268418360302e-01
2.201914473144602757e-01
-5.172397708744652656e-01
-1.265744740622974929e-01
-3.768422440603882290e-02
4.204389468275533392e-01
6.990124275830341682e-01
-3.015825802265824016e-02
-8.286822826446496038e-01
6.412505935694825521e-01
-6.259151979126530430e-01
-6.521414046956430788e-01
8.619397617765943431e-02
-7.528835468362149452e-01
-9.483825425581978719e-01
1.469618582415399832e-01
3.972640821791751375e-01
2.511795406732223457e-01
8.686794446898375988e-01
-5.352927247386141119e-01
-2.319066311982357353e-01
-2.264916120517452003e-01
8.999179417006217818e-01
-7.278591799749004609e-01
-7.299909167346703143e-01
6.935081847704527291e-01
-7.253083095399943669e-01
5.926982706842746917e-02
-1.215130492467260924e-02
-9.099708893008465749e-01
-4.338764942683787651e-01
-6.184799893371406565e-01
3.747779718360774170e-01
-7.538373150302490888e-01
3.260685555344816633e-01
-6.105285314701436317e-01
4.384426606776585522e-02
8.587209208251109227e-02
5.496012572695924137e-01
4.241645587226663960e-01
4.572103639781981976e-01
2.692709385238199471e-01
3.622636282439306021e-01
-3.134244984569077852e-01
-5.485084531888041459e-01
-8.922062362721279172e-01
-5.014929006616152263e-01
-1.033626488704230267e-01
-6.534966153131714917e-01
-5.834244857924711924e-01
-8.797022713115901227e-02
4.085804799859925618e-01
-3.951731703537673113e-01
6.874560508517147950e-01
5.191275162344864691e-02
1.560726206259905602e-01
4.226410612481384943e-01
5.413089941971965802e-01
7.289079527515900381e-01
6.289640914870602284e-01
-3.021144001433911375e-01
7.791986976743856541e-01
1.356102395547779116e-01
6.251504899710569330e-01
-7.237810835850498892e-01
-4.484969899277866934e-01
5.532737766454098871e-01
4.036314228121314907e-01
-9.975440573495641949e-01
4.110565077070064688e-01
-6.874259784809561014e-01
4.913212543039577329e-01
-1.018271962001412456e-01
4.596754844349433822e-01
5.209683874124814568e-02
-7.568873546133714214e-01
-1.016847645599319838e+00
2.798108069863579073e-01
7.465141460981319366e-01
2.637994866844418085e-01
-4.394953922113316591e-01
9.415149114194920621e-01
-6.573552904918675832e-01
-8.091228568920048048e-01
5.861079857047646335e-01
-3.061284271132670987e-01
5.119128221252892130e-01
-6.076545555363741524e-01
-4.096355322051883352e-01
-7.110978474083755607e-01
-1.945438266228372570e-01
-9.997997198167390964e-01
-7.163814797473392337e-01
9.969967242635928706e-01
-8.027751769007887006e-01
1.247949086268575758e-01
7.653031034939981048e-01
-6.039878987643990671e-01
-1.783442515834177677e-01
8.806390228870294434e-01
-5.244617041459957996e-01
6.304247543970629142e-01
-8.162126555812009299e-01
5.333638441380524897e-01
-1.749518799077974252e-01
-2.745071698152920514e-01
3.305629378672866880e-01
-6.373312849920544920e-01
7.996299350979897413e-01
-4.532528119406856182e-01
1.208256333507278651e-01
3.742061959731548537e-01
-3.286530867666080380e-01
9.850246116810958130e-02
-9.620534861725063003e-01
-2.176686985360579418e-01
8.289288501274261201e-01
-8.296144330763920161e-02
-8.286822589133283623e-01
-7.977298814171375485e-02
4.018230116292387799e-01
7.827191210700547019e-01
7.493115296573799045e-02
1.581785912384590931e-01
1.411779416365122330e-01
7.397637579271648667e-01
-2.650242244197643232e-02
-9.448112273093297597e-01
-2.678224949568060453e-01
8.454667814922740554e-01
4.140058160527186892e-01
-7.130782444869584458e-01
-6.260181423473419604e-02
-1.869381937312407649e-01
2.934111486329319396e-01
-5.164732042231056086e-01
-6.962708156599217713e-01
-1.783488107822827351e-01
-4.445313964461919953e-01
-1.006155314554135621e-01
-8.549647312719271808e-02
4.996126665377268461e-01
-1.000455140549940808e-01
6.152723167806126714e-01
7.678546054037537205e-01
-1.149761561239582841e-01
-1.109281133388593729e-02
-1.826976604920403924e-01
-3.496802707367566709e-01
3.679392191654551891e-01
-1.722171809968148226e-01
-6.397622927119936964e-01
7.150312377406968789e-01
2.447210593029476577e-01
7.839736341082402804e-01
8.335592659902970603e-01
-4.403159384233357176e-01
7.499614279372815995e-01
5.798601019339425511e-01
9.557137975524524487e-01
3.919115164743204593e-02
5.776805837448834025e-01
1.441812574673323466e-01
-4.558098256489710454e-01
1.640442274888372076e-01
-9.762987220278244171e-01
-9.562852099411652818e-01
8.700968326404816544e-01
-2.736855045806410244e-02
1.078720545935351605e-01
-4.342113666404834871e-01
7.642170541728415811e-01
-9.192998706319448488e-01
8.696426860437431183e-02
-1.224654290913504556e-01
2.834497471638552923e-01
1.548119539466568106e-01
-4.716423661570510184e-01
9.802958575325028123e-01
-1.934985811862486582e-01
4.415422993049191169e-01
1.411162533607430991e-01
-2.849989734797567231e-01
6.608007014553146652e-01
4.761296501917487989e-01
1.723882864306916785e-01
7.903724285137161409e-01
-9.340253415443355856e-01
-2.968426097807544406e-01
-6.597617781748745802e-01
8.385557081173053984e-01
-4.281049373882356290e-01
-8.308743630799652058e-01
-2.927556787554085327e-01
-7.654552978850797107e-01
9.840215040018907011e-01
-9.883317419306663076e-01
7.421581331046084307e-01
2.568265580988692842e-01
8.957565930190750647e-01
-9.711959477300227128e-01
1.449768747176474470e-01
2.293801612134714341e-01
-4.999852990915041873e-01
4.905798134965467239e-01
6.563997340294777105e-01
-3.033674704727890581e-01
1.271550822542077408e-01
9.919776420743871004e-01
-5.798396221166525200e-01
1.896942049623123738e-01
4.312022594313529855e-01
9.208182769108959054e-01
-6.697531938975146426e-01
1.427303331814549769e-01
-1.600031909695398824e-01
-1.664610461180794365e-01
-1.802570267006759208e-01
-5.998429060114949252e-01
9.457446819266399074e-02
7.254838567427964735e-01
-3.173948094289887889e-01
8.361225391979044685e-01
3.744115559718162456e-01
-6.585451561784295971e-02
8.374763041801553953e-01
7.766620641975489070e-01
4.516232409956318361e-01
6.716873502599636225e-01
-3.907725092510129228e-01
-8.186594623995883113e-01
5.516147421966940412e-01
-2.830799461705014175e-01
1.426730672341362804e-01
5.570548886420929602e-01
2.515682571310792759e-01
-1.570296694579484953e-01
-6.176405298575013969e-01
-3.352038180280254021e-01
-7.297942846299789732e-01
9.563803332315172767e-01
8.417079040665702561e-01
3.056276085878255160e-03
7.195940367158550899e-01
7.092760487205758135e-01
-7.219633152454970615e-01
-4.122214107719145981e-01
2.021999174510776820e-01
-8.663401927679829084e-01
9.033829081163768926e-01
2.929189574355519632e-01
-6.886648816988729660e-01
8.243334015623085542e-02
9.359970358807715440e-01
-3.892701926110058719e-01
4.263282276277512439e-01
6.425713888232119364e-02
-9.183136666648119562e-01
-4.816749678141530877e-01
-2.039553038769317539e-01
6.061866235865831509e-01
6.292502456888695583e-01
2.207907585172184106e-01
-3.998958117797166700e-01
-4.990213564773373633e-01
3.932711430818412457e-01
-4.945308919924081281e-01
-7.707265020904123798e-01
7.916950405108711397e-01
-2.608311330153618157e-01
-8.624885822451312523e-01
-4.248501924963116183e-01
3.881507043632678733e-01
-9.829301945789766792e-01
-8.092852569292433018e-02
2.589949761992170474e-02
-8.825647777373536451e-01
5.383789612589900964e-01
5.867295790152584622e-01
5.917717732846348166e-01
-8.129484213890493249e-01
8.532168014403540557e-01
-5.465903666806803951e-01
-1.130767730053122561e-01
3.400559134726415800e-01
3.309133938915476830e-02
7.268988479984842543e-01
7.147428321689814901e-01
9.199994859722104845e-01
8.542104223546559405e-01
2.877325724750242619e-01
9.119753197671425227e-01
8.107528198370755890e-01
-8.041139059602050443e-01
-1.526990892581931991e-01
-4.539539858856606602e-01
8.209058555529100687e-01
-5.472859629488747713e-01
1.564576210025245273e-01
9.655849471328973310e-01
-2.922588940313621264e-01
6.589728440386715125e-01
-5.446931330184463516e-01
1.337654040996157923e-01
-9.066914682368134581e-01
6.745833688753597457e-01
3.350399454211094863e-01
-5.685314314572250671e-01
6.863522680239012574e-01
-5.556791222265775737e-02
5.985014706903180048e-01
1.417815097856090223e-01
9.898425313873551179e-01
7.162931348964656220e-01
8.724755608564799259e-01
1.289106080731953485e-01
7.144492029621679619e-01
8.439852890662666862e-01
8.006061990412421947e-01
-8.707396156209701310e-01
3.487553709195268664e-02
4.385441278716403768e-01
1.705167376085638953e-01
2.772178111005566548e-01
2.366565729200867940e-01
7.524718330386678811e-02
3.052033284484214626e-01
8.515252817883753877e-01
9.108438401275338325e-01
-1.108366496523065237e-02
-5.467972535970682113e-01
1.780913071869155151e-01
9.121741561570970713e-01
-7.457324161111639205e-01
1.233281521020833105e-01
1.352737568631203202e-01
-1.658507326782230340e-01
-3.042721929755319854e-01
-6.678949746791124076e-01
-1.181592607546382290e-01
7.749809413130798186e-01
-7.468541476187041672e-01
-5.821013897210245425e-01
2.474238151230553906e-01
-5.060200562187248119e-01
-7.387890362678082301e-01
1.807477068767679787e-02
-4.597522471471286037e-02
7.621088091846638379e-01
-1.998561138199622944e-01
6.236795952281639493e-02
-9.056300078111618745e-01
-8.793266141133597724e-01
-9.182388755288950488e-02
2.580111239189608052e-01
-1.473877732047012279e-01
5.820848974575500989e-01
1.049437191406059344e-01
7.290126729602411926e-01
-4.666369393596742632e-01
8.341430770990631016e-01
-9.921664905836707904e-01
-8.561510816655201195e-01
2.887580750559899379e-01
7.365404856550775703e-01
-4.362460735820042901e-01
9.474882669733736273e-01
-8.242458652946338393e-01
-2.550831884459264440e-02
5.340173525483650208e-01
-6.122300553269329759e-01
-1.199087472297148543e-01
-1.093293151386027368e-01
5.504329271972041582e-01
-1.463438258888833388e-01
-6.283382853613052321e-02
1.057290500189509985e-01
-2.929923325476642137e-01
-2.901761386961752009e-01
-1.351975513280216368e-01
-2.338252712278636736e-01
6.346744935035242285e-01
6.268354369417730165e-01
3.345402104043850300e-01
3.066125978891181408e-02
1.031970591899042805e-01
6.321741478005360459e-01
-4.134197685744398498e-01
-2.976997630695439878e-01
-8.881571315411679324e-01
9.710857978439375593e-01
-8.138382266799427667e-01
7.620962466085700049e-01
5.793857625244652754e-01
-9.074864972374691030e-01
-1.868933159848807368e-01
4.579439476463048608e-01
2.323668218676546160e-01
4.756426042529296461e-01
2.905765648567782966e-01
4.696650753034036230e-01
7.373595211207151223e-01
1.356595735877667297e-01
-5.006435153351749406e-02
3.266530108143422817e-01
5.056669590385076685e-01
1.045559330497224521e-01
-6.560541264984867116e-01
-5.583218183845638505e-01
-3.619193243432580753e-01
-7.932586314079068668e-01
5.232761021266952861e-01
9.001305317018696295e-01
-8.667758413784749927e-02
-7.901552819499273461e-01
6.248243542200256906e-01
-9.858471865689023561e-01
4.192652467302515062e-01
-6.656358915683469046e-01
-4.929131471868932746e-01
