5.657208136005792420e-01
4.318951954671505500e-01
-1.271057212268474346e-01
-2.522945786901676923e-01
9.261811423492695428e-02
-4.946712588142760866e-03
2.809741572692945125e-02
2.487532922970905613e-01
-2.216066897317099382e-01
5.666068162250168516e-01
-5.292043230526016773e-01
3.491071306952444608e-01
8.633946576345763457e-01
-9.601333327805826601e-01
4.625931684203634098e-01
-7.827339031818724147e-01
9.639752682784288873e-02
2.422403075298484032e-01
-5.101253201743232157e-01
7.929851479934491021e-01
1.829368004888902166e-01
-5.640252093902384800e-01
6.505487895219953520e-01
-7.391950694279678657e-01
3.506105447660939900e-02
-7.756282880130532797e-01
1.440171684153073450e-01
-5.203727870083284524e-01
2.573265651905232154e-01
4.461674708591799043e-01
3.689615224355806411e-02
3.418019763749054474e-01
5.703240135918734577e-01
6.512479501891633715e-01
2.408574790890119777e-01
-7.541744767757160850e-02
-2.764990436863856704e-01
7.217141790128345225e-01
3.726330062001798615e-01
-5.978062515238233843e-01
1.049805671503732246e-01
9.037776595089180853e-01
-8.069962463780886441e-01
7.528771747308523610e-01
6.903959458552864081e-01
4.061643679474642721e-02
-9.087013514807896764e-01
-7.615983036675726403e-01
7.246218888281160675e-01
-8.796198836936839349e-01
-2.414946746845051673e-01
2.126647734467836670e-01
-5.153471025038230957e-01
9.231802804436846088e-01
-6.574578428897808191e-01
2.922156406656450239e-03
2.065522492269324384e-01
-5.206924548412973364e-01
-1.407175505778873181e-01
-4.721847477743319754e-02
4.674420971340886855e-01
1.633570143536647867e-01
-7.216898825238332593e-02
2.904014127961553338e-01
-1.030759304093480794e-01
8.717386010275195163e-02
3.233081498851694824e-01
-6.270619072148133633e-01
4.458516041736448332e-01
1.962406965969367423e-01
9.436047093829398325e-01
-5.553402896922190468e-01
-9.732365787640359645e-02
7.474400426882229498e-01
1.400818378583054344e-02
4.348099180908702732e-01
-1.835964051776824424e-01
3.481330047278260453e-01
1.002572415789815929e+00
-5.608940323357081148e-01
5.939375705620846269e-01
8.887312205514248387e-01
-1.011489069344186253e+00
-5.473870361146375707e-01
-6.622557555641659377e-01
5.193167678326467973e-01
-8.385801270079922265e-01
9.408354696166594255e-01
-1.980776974971325266e-01
7.648382394798585171e-01
-6.610822445294808336e-01
-9.970898035736258658e-02
6.864190897366450050e-01
1.909718386083028296e-01
-1.075300392897363261e-01
-1.223732058952295559e-01
1.743009422378515305e-01
-1.803482361209198803e-01
-6.745345730967803322e-01
-7.206471515263094263e-01
