-1.196277778437982303e-01 3.665114183832097194e-01 -1.086570346902852480e+00 -4.717438128217106841e-01 -5.347998104826684473e-01 -8.976159765911457811e-01 -5.788485703750316791e-01 -3.453079525430061691e-01 -2.411831973516055938e-01 6.216414592327335065e-02 -1.123118679007618775e-01 4.571621297270923034e-01 -4.888623909657455746e-01 8.009883926861265380e-01 -7.000845233671338930e-01 2.853413079899736471e-01 -1.772465658486687134e-01 1.544879675450124279e-01 -8.015261937641475765e-01 -6.047212884046514469e-01 6.387679218469627385e-01 9.549497144492342660e-01 -3.613458509884799885e-01 4.202487189038889293e-01 8.734245565004654654e-01 6.439401729720475309e-01 -6.939009412612310301e-01 -9.316720057359128004e-01 -8.103934422584281316e-01 6.576183000480937402e-01 -8.743804689242112849e-01 -1.713199538550199408e-01 9.422523694029116825e-01 5.220727021438095750e-02 4.004627605666457035e-01 -5.510378565692624075e-01 4.787828608605730341e-01 5.660527528384918794e-01 -9.463544430775001626e-01 4.471054153761048200e-01 9.267218230769443954e-01 3.792981580597555857e-01 -3.983025737505296315e-01 6.805834465523902255e-01 -6.569067593550732553e-01 -1.876929782811430081e-01 8.509483159346744596e-01 -3.217407857209537148e-01 -5.269109662276391104e-01 -7.491251826978168049e-01 -9.183289064323405526e-01 3.279162045367651768e-01 -7.358711951189926825e-01 -4.713951556537445131e-01 -9.781809564131639656e-02 -1.023699156950061750e+00 -1.678921134531826884e-02 -7.902917491189783705e-01 4.052046553259872064e-01 2.506329647925216730e-01 -7.694484787958496552e-01 -8.697019327754866580e-02 3.775278269788119312e-01 -1.158721698729630600e-01 -9.400966107317432208e-01 8.119730292790611204e-02 1.346736532035036626e-01 -3.321337538119414901e-02 9.984515506737829948e-01 1.705835869326135790e-01 7.769277243025378699e-01 -8.671651469945327317e-01 -7.516702857097711243e-01 7.272933934153100743e-01 -2.405708171786471450e-01 -7.113361881494245642e-01 9.009032805124234100e-01 -1.586142179426263399e-01 4.210355156503993168e-01 3.590181946688117964e-01 8.364781048947317332e-01 1.681222511618487570e-01 4.233756310105942222e-01 -2.518818564601807974e-01 -3.424662343953425725e-01 8.663920977915492427e-01 -9.624871875557508560e-02 8.638507605366423370e-01 2.893506200299378328e-01 2.645655859541286570e-01 -7.379325313365201477e-01 8.451755697655070065e-01 -2.610978688716222157e-02 1.541178513079123902e-01 -2.062599597396008733e-01 -4.022595942084956078e-01 8.985264751382058268e-01 1.069737559565893947e-01 -1.054130201018570689e+00 2.595381920908922946e-01
-2.108709441980192445e-01 -4.571019215516820139e-02 6.138917702220895167e-01 -3.894111147379095694e-01 9.539834235032237375e-01 7.324914088279631252e-02 -9.684292925394181184e-01 8.045921338893952113e-01 3.137895640457898927e-01 9.781207619327390024e-01 -6.132720814195448122e-01 -5.806986835671614777e-01 9.305145183210418169e-01 4.515251754077747592e-01 -5.564913922067877827e-01 4.343090132677250859e-01 5.270920625489117217e-01 9.142362008495006354e-01 3.104401233562423812e-01 -7.928261308930923956e-01 -9.335905696082997807e-01 -9.422093688264676636e-01 -7.999271853743936678e-01 -4.270528230586714269e-01 8.022078874019875627e-01 -6.872685933926918345e-02 2.339134329986467531e-01 6.619863666907621624e-01 -9.724290824134435018e-01 -5.355306374979011963e-01 5.813226801137381244e-02 9.350501565466221576e-01 1.057160749497990104e-01 -9.443889274857220073e-01 6.269226957210152218e-01 -7.373507692590994811e-01 6.451453621059166643e-01 -3.944399721702753214e-01 7.235614016677880400e-01 4.468908624548921793e-01 5.786682075884960752e-02 -8.024655450677912194e-01 -8.938027471728319240e-01 -5.617878135139978690e-01 -7.380592496026177063e-01 -8.512094139183449260e-01 -4.752893279230788748e-01 4.737763309528782441e-01 -1.347293335164938821e-01 -9.594309073872789861e-01 -7.624571813158180777e-01 8.517774115128347034e-01 2.141133430370752155e-02 -6.393241998289291850e-01 -5.721988740331103163e-01 2.328844461624151041e-01 -8.259340487168935763e-01 5.133887548671824119e-02 1.168532525634074171e+00 4.910834238561102016e-01 -5.524290233793897054e-01 1.679822996781235936e-02 1.874953206208130885e-01 7.144234119566617025e-01 -7.149212041929609018e-01 -9.544091708047648392e-01 -1.064680061055644833e+00 -1.017029336431217734e-01 2.550059282865488330e-01 1.068185987640833945e-01 -4.073937410934539982e-01 8.223113297664866872e-01 9.610323117236670154e-02 -1.345820976892932175e-01 -1.389457263231463902e-01 4.464669535750719342e-01 4.135043819881723537e-01 -3.536494070545724289e-01 -8.721784333235442777e-01 -3.640581065876618005e-01 3.497992356707562145e-01 -7.162605484195269101e-01 3.896710675356521714e-01 -7.808810265917220939e-01 -2.388083098064858467e-01 6.931315830748180362e-01 -5.417018570447226233e-01 1.489922500944491912e-01 -6.589682348546465479e-03 8.635630300144659932e-01 -4.318352284264108110e-01 -9.066820334678138416e-01 5.783408856884048044e-01 5.520602958891320799e-01 7.881491981160172466e-01 8.966736321629933393e-01 -8.420121761351049283e-01 -6.602771048971073364e-01 1.114855623094110210e-01 9.979233501640630832e-01
8.241312932196633856e-01 2.125922358015215896e-01 9.199019078451917686e-01 5.013125715045453346e-01 -6.101149517632098451e-01 2.677378787170319741e-01 1.225863477178611161e-01 1.616999679460590089e-01 9.367810415003930968e-01 8.382305067109874219e-01 -3.660515010857981477e-01 7.140570852767534893e-01 -9.477682446555312223e-01 -6.942907191792689892e-01 -9.766859824064109130e-01 1.251280981503030409e-01 -1.099646745766705402e+00 7.862611338586946719e-01 8.093541682108775781e-01 -8.964221472084620279e-01 -7.497610454423228044e-01 -3.744396473868276676e-01 -9.026564520948866521e-01 5.076770492746230934e-01 -6.750865330172101109e-01 1.297225633726355243e+00 -2.240595537790277536e-01 6.269411312645625234e-01 1.021354581506577652e+00 8.365177112472256260e-01 -1.292426178570409145e-02 1.237135257970035512e-01 6.005956713347979647e-01 -5.376512988603034948e-01 -5.237790386387340680e-02 5.401419795467772289e-01 -1.113674718311912004e+00 3.905773920476743322e-01 -2.033347528377486557e-01 8.054226779670821124e-01 -3.165690563552301939e-01 8.782457652292640082e-01 6.770980652983647416e-03 -8.707190785359758545e-01 2.969672733164214207e-01 3.995013410297656997e-01 -8.528993069066704846e-01 -2.815864264913817694e-01 5.228164325907066479e-01 8.380158099071313149e-01 -1.091626089567000690e+00 9.955349105093459494e-01 1.235842567431703343e-01 9.454809665039304312e-01 4.046141382702070355e-01 8.599020354559790968e-01 3.635003888934105754e-01 4.599676326518299385e-01 -9.389707454980544821e-01 3.840231932499736933e-01 5.629527359244917983e-01 6.052836427053254198e-01 5.886134189877123557e-01 2.483270329155124190e-01 7.970227344784635015e-01 -3.050613800868077208e-01 7.671906813913850209e-01 2.397265295866719825e-02 -4.940729829578222043e-01 -1.202278324772941276e-01 -1.184889972481995707e-01 -1.369726343050267636e-01 3.947023709869525998e-01 -3.854299253448579266e-01 1.108055547007354091e+00 2.940819376891113390e-01 -7.519318673193404745e-01 -3.337081340423877496e-01 -2.747272821425695288e-01 7.692034923874369046e-01 7.171730846067236875e-01 8.644429048656220305e-01 4.782760306971106101e-01 -5.091325849133921944e-01 -6.226578986141451111e-01 5.306855413616935468e-01 -1.561416725646674331e-01 5.776710257064984200e-01 2.142960640332396971e-01 3.918369331251356780e-01 -5.697253943734878479e-02 6.867474087528866455e-01 -6.731261884641619175e-02 1.271163695500294490e-02 -4.060015356983413537e-01 -1.078418778247461018e+00 -3.318379597571932682e-01 -6.736791948529092799e-01 1.071748386850799539e+00 -7.980439828318497408e-01
5.560434508999471115e-01 8.247113654413901207e-01 4.243910247032193217e-01 1.805302385196854431e-01 -8.692760291753748314e-01 2.891002070190240233e-02 -3.936221583001434099e-01 -5.362761626716884278e-01 1.853616478987882010e-01 -3.748027382408609109e-01 7.570360873992340034e-01 7.155605331323635632e-01 -6.180988156919189347e-01 -8.273556828632180338e-01 -8.418735122740318433e-01 7.802264810921694105e-02 5.178939324486140361e-01 -5.924833134297424753e-01 -4.320528549035986821e-01 6.777235369213626681e-01 -1.948150788123081401e-01 2.320887528746763129e-01 -5.167551659279719933e-01 -8.817267163561077759e-01 -1.275181942838557736e-01 1.323784107657410003e-01 -8.939985971144011057e-01 2.068616131121483181e-01 2.326456472588565860e-01 4.049340276328357580e-01 -6.907010194300323702e-01 5.223028278362193966e-01 -5.735825947486387077e-01 3.561856414950988203e-02 5.540550714456559112e-01 -7.184787416224326373e-01 -4.711557114765618226e-01 8.061105548700452372e-01 6.556393332355555659e-01 1.068143072019891865e-01 8.405320227761604590e-01 9.933674822594329434e-01 6.035346612278341683e-01 6.512969765585981952e-01 -9.784849936163965145e-01 3.828275703724787760e-01 4.190320228958396842e-01 1.354048595338781524e-01 6.592618157031409076e-01 -9.190998259797305003e-01 4.988743927674610390e-01 4.790156501962080648e-01 -2.422495652491765683e-01 -5.015449664715936340e-01 3.338173382859808691e-01 -1.920536166327042049e-01 7.019112021568484350e-01 -3.990362458641279197e-02 3.397050228024396934e-01 1.109327162880245909e+00 -4.509925622649893495e-01 -7.799831495259662573e-01 7.706473667721247534e-01 1.766017177961662701e-02 9.995980976282816677e-01 2.338167927723831807e-01 1.230323930335410987e+00 1.574318152865422649e-01 -4.746535715469173827e-02 -7.558445418115367076e-01 -2.124593678711022005e-01 -8.089042614801000841e-01 -6.271879939864358766e-01 3.822443197645696289e-01 -9.465407274205551724e-01 -2.476296887123840551e-01 7.256628098933165516e-01 2.183480077279456311e-01 4.580030601237213284e-01 -5.551798254521824738e-01 -1.478674241415095791e-01 2.404895320431355843e-01 1.068897201185115220e+00 -6.522489274747661492e-01 -6.416807812183619175e-01 -5.707582929636261238e-01 4.150656671372771611e-01 -7.044149181483509714e-02 -8.870809599586105820e-01 3.305414324927287558e-04 -5.876768195382074955e-01 6.679857457518987296e-01 -4.633096611774834561e-01 -9.060264278269921645e-01 2.226055550685372975e-01 5.288905982418553586e-01 -2.986594020292565599e-01 5.092363408995468355e-01 4.657830076884163922e-02 9.136852436720403758e-02
8.712555995468034276e-01 5.517260176130398541e-01 -1.029429824849066755e+00 4.748742355427381101e-01 -8.379429338343691303e-02 1.032411455307002068e+00 -5.279585144468513791e-01 -4.896538134769237716e-01 -8.795431639539010860e-01 -2.021535450714737059e-01 -8.791703799457631918e-01 2.210170649101231566e-01 5.592118301356797661e-01 4.640386783282540728e-01 7.690504942752900419e-01 -2.111050347716754982e-01 5.385521519678990732e-01 -1.257763256998173373e-01 5.747843727572869987e-01 3.090618239003858903e-01 -6.971281737119134903e-01 -7.704367748579517006e-01 -1.102992128418672113e+00 -9.611639481244910188e-01 -2.893863136078982379e-01 -6.236638301091230741e-01 -1.119224996392669702e+00 3.644505852796368073e-01 -7.968984715277525888e-02 3.800186636931525697e-01 -2.578306297202641040e-01 -1.301830060008129786e-01 -7.322027483908205570e-02 -1.808403915031030762e-01 5.578187636530912430e-01 -1.795368273559696803e-01 7.561679463369642695e-01 -9.252274310832441229e-01 5.370276948897014790e-01 -7.477801525326006615e-01 2.388283793941365918e-01 -1.062896505097682409e+00 8.596699707412920610e-02 -9.558485181665071773e-01 9.777207384010039304e-01 7.337511459936780778e-01 7.243558590815385445e-01 9.996192512369219685e-01 -6.762603573217912389e-01 -7.153257201879958949e-01 -6.946851129886092435e-01 2.054175449032648038e-01 8.801721183515119895e-01 1.004430211875575019e+00 3.969741716614737514e-01 5.136153699473553491e-01 5.938701072300042183e-01 -1.921908834963836632e-01 -3.639770463335031958e-01 -9.017032784130767364e-01 -6.749261715456013055e-01 6.209504057235439856e-01 -6.860856754650628275e-01 -4.702992753729666742e-01 6.253907843647623643e-01 -3.366886627719057334e-01 1.108782245126411325e+00 -4.833755132283082401e-01 1.795945833718942675e-02 -3.737412675774718918e-01 9.182825392743307891e-01 -4.741338892326214527e-01 -3.321274868915161105e-02 1.188047239065127131e-01 1.015664344790914608e+00 -1.127802931850878432e+00 4.537118797387630909e-01 9.944297457239333893e-01 -1.052262422201549308e+00 -2.028131013083646003e-02 -2.355388618958231817e-01 7.688805898270758554e-01 1.195869031113118569e-01 4.312338241419660378e-01 -1.136641380030181531e-01 2.011745356610638857e-01 -5.302845739818758952e-01 -1.229688326934782916e+00 8.025724558387502261e-02 -4.560099542844842646e-01 1.334768181110994670e-02 8.419191952324269757e-01 -2.252980616781470879e-01 -4.637054371487299154e-01 -3.697039860222784413e-01 8.154048865272326418e-01 1.099714384001551082e+00 7.276144379726782185e-01 8.065744566612810251e-01 -6.835727263125557229e-01
-8.000546576711224933e-01 -5.649188427531981471e-01 -4.019377238270199770e-01 -6.421460777057630409e-01 2.284580427819929427e-01 -1.532685057323484867e-01 6.425696643323894897e-01 -6.301502041574564839e-01 4.191168147297822388e-01 -5.243051208336206859e-01 1.448536343333017007e-01 -2.899358033921653477e-01 -9.066976117706231353e-01 -4.874991456224623265e-01 4.247272850375521380e-01 -3.082852830881271239e-02 -2.724131145030013468e-02 -6.655485804561003249e-01 1.378741058828931998e-01 1.019935772750854008e+00 6.221342486129377569e-01 1.815284944331751749e-01 9.112208115280078236e-01 8.070644908961212005e-01 1.865261716507977119e-01 -9.196434804183344358e-01 -8.056842684949889755e-01 -9.090389507011081838e-01 -1.206145395022084899e-01 -3.186480815687174895e-01 9.295148548384675191e-01 -6.576443541990202313e-01 9.723279208255769523e-01 4.998882826256022538e-01 6.508695396663565225e-01 2.163710514432660714e-01 3.682963070313073350e-01 -6.118401260901421695e-02 -9.854443362954460328e-01 -2.530017516665574728e-01 -5.961604418396630051e-02 4.125505170341634553e-01 -8.448195676930812803e-02 -9.383723092184699521e-02 -6.869272452790685657e-01 -9.841853535506184247e-01 5.391163361124813314e-01 -3.453559926207440123e-01 9.393766039377446919e-01 -5.688901250792595121e-01 -3.109446317346280519e-01 4.059331177880140529e-02 4.883503192332063203e-01 -7.918270059671145278e-02 -7.530561064852370201e-01 -4.290955460646168618e-01 -3.540154818920638463e-02 3.509255697090946646e-01 5.507435874241283225e-01 -7.687050921002944737e-01 -9.069737401568183088e-01 5.774913618334655274e-02 6.459607998994398859e-01 -9.778238185103047542e-01 3.337792644262204678e-01 4.094628845054765764e-01 -1.274337872618611922e-01 8.191028517789031849e-01 2.877324804587871876e-01 -9.639262058979162218e-01 -4.955011804881965382e-02 6.916297038405233577e-01 6.700300383999320264e-01 2.952885751312771534e-01 3.550598888637157002e-01 1.215508187703225607e-01 -4.812158703489139433e-01 1.658626318797388477e-01 3.033702866788977603e-01 -3.058891219577549170e-01 7.444078195611217863e-01 -6.648830907336813478e-01 4.709050542145427065e-01 -3.928009556787063206e-01 6.175488966992568329e-01 -1.339453622215390216e-01 5.944353763876210062e-01 -3.355359201265415980e-01 -5.642215014544398333e-01 5.281599489844528428e-01 -3.955331163411263673e-01 4.697772755896221786e-01 4.925931972266271996e-01 -5.457326172557431798e-01 -6.171971175689096034e-01 -5.761868446653950482e-01 -6.817907718482831836e-01 -2.262280891229105084e-01 -9.592228225387241514e-01 -8.063394146192435219e-01
3.502977377756115729e-01 5.978598842792729462e-01 -8.406779841667550990e-01 -5.386087981242462241e-01 -5.803119573315010937e-01 8.325904037989808604e-01 4.237946559641337929e-01 1.072948000086613590e-01 -3.914191313841405839e-01 6.691011466589387169e-01 -1.280072205762080306e-01 8.491108386115128193e-01 4.143867136327435419e-01 -4.282492633628575546e-02 -7.414410852103532346e-01 9.508421730298109997e-01 -6.810599431488888467e-01 -5.939558813276265559e-01 -1.395451946897465767e-01 -1.914350877343641288e-01 -7.054441030055147444e-01 4.593767909014281337e-01 -6.225545837859188802e-01 2.885822360094476569e-01 5.112941903349030870e-01 -5.819299785901174138e-01 2.054206390444376640e-01 4.969251565584736352e-01 2.725938790735357165e-01 1.908227723643094453e-01 -4.112611714002185614e-01 4.632308746254510945e-01 8.918697987356410950e-01 -1.493911941020626688e-01 5.647162735993296323e-01 -8.922835041241106158e-01 6.736516586705881826e-01 -6.179782301482119600e-01 -2.095246765602578887e-01 -4.006704653889927026e-01 -8.412282837953561909e-01 8.064744105209947778e-01 -2.585016100557679386e-01 6.396927265747934244e-02 -8.626181011376132801e-03 -7.381921049839779148e-01 -5.863754110842587242e-01 -8.453587601051718581e-01 1.343776471811705328e-02 -4.774258785753940915e-01 -2.841574903753645853e-01 -7.847153269838234024e-01 5.709558385546433801e-01 -7.868638424102168960e-01 9.690453871355949600e-01 -6.495382171388406345e-01 1.400578638974331047e-01 -9.119905252561794073e-01 5.797510168916338857e-01 -6.242375576251257829e-01 5.669935788083103195e-02 4.828410007429659312e-01 -7.002556552359570086e-01 1.032563051305918356e-01 -5.682294834021721641e-01 5.190094139258278894e-01 4.410663272692837422e-01 -6.485330707098131420e-01 7.270012477728501343e-01 -9.602429513786715498e-01 7.197214880091993283e-01 1.141689975876798713e-01 -1.945797196198235379e-01 5.201929597108503334e-01 4.326785705035084417e-01 9.730770734021833013e-01 -4.430306229170296040e-01 -9.885672755327158390e-01 8.653929014089074556e-01 7.133925397664833135e-01 4.598700128353763183e-01 3.118604414503968469e-02 4.114676319576401342e-01 5.623907626997528553e-01 -2.471845989586601011e-01 5.430538683781737097e-01 5.022402255870799248e-01 2.241346007398744011e-01 -1.968544383623596072e-01 3.948879260659656776e-01 -9.932295446242943582e-01 5.486803596323732712e-01 7.952185822061524911e-01 -5.217317173527811214e-01 -7.591714170081257373e-01 -5.562113458250347309e-01 -3.938417482781689793e-01 7.650694630013774589e-01 8.423460766100855646e-02 -4.261928992817434758e-01
-6.664117847962199859e-01 -5.138160460905526472e-01 8.226888729161094260e-02 -4.834421908017951242e-01 1.183978123679458178e-01 -2.103280290380628026e-01 7.055363283464212154e-01 -2.163348422969246510e-01 -3.773632594582643773e-01 3.114635437995888489e-01 -5.144066298358117573e-01 5.464748075098791597e-02 -2.779520860314387276e-01 3.082685425179398364e-01 1.099137595613923990e+00 -1.719798738054092446e-01 5.745950894045819268e-01 -1.094289422618111018e-02 1.923753252242094425e-01 -7.538295141646690345e-01 -7.007645153520494774e-02 8.556864925128038202e-01 2.462032421421010975e-01 5.487222737505559333e-01 1.361349222432108041e-01 -1.635536865578818555e-01 8.037163230403787662e-01 -9.052475511424321608e-01 -6.147793725228847123e-02 7.432528846609697259e-01 -1.058986776065171109e-01 -6.270053774741204400e-01 7.397814622559463205e-01 -5.311891909834429715e-01 4.260532216746703016e-01 -1.448247710292988877e-01 1.015963801768079877e+00 6.483800847621198904e-02 6.855227095550360250e-01 -1.060815985473519962e+00 9.422980277836801033e-01 -1.031532069896948123e+00 -2.989776313640461480e-01 1.058203984588387048e+00 -8.223318829887754644e-01 5.336864371540643859e-01 8.060253735127749231e-01 5.359282477558229875e-03 -6.835332966953562295e-01 5.902878188198473763e-01 3.124062768072040364e-02 -7.951434899821636648e-01 6.936203357503467615e-01 7.733166988782861351e-01 -1.375333059741564445e-01 5.228461757701835522e-01 -4.165136824138713223e-01 2.311871295407954829e-01 1.141436502030342415e-01 -2.092345733012127840e-01 -5.934702734618793052e-01 1.054130901690865985e+00 -4.642088940369225036e-01 -7.127782723779672036e-01 -7.397102710320141439e-01 -9.815552019157283148e-01 2.296002128515145513e-01 4.450776865199307375e-02 7.489823232474358550e-01 -1.155608315381123977e-02 5.713134385918955394e-01 2.045009542942487768e-01 5.307800158044464478e-01 -2.915006107169649738e-02 2.011714949183285583e-01 -7.045919635177469997e-01 -2.604099148897749960e-01 -4.885223160644674434e-01 -2.990321512071772991e-01 -6.688634370691647346e-01 -4.833832837604822019e-02 8.419312306648196742e-01 -4.525370588238297742e-01 1.038046272436807804e+00 4.350596957649573437e-01 -1.589676258506984574e-01 7.448454900957004465e-01 1.047277909982876898e-01 -5.849569391446993727e-01 6.208085339881229681e-01 -6.567846641530857010e-02 -3.349513126256212781e-01 -2.194877030745528423e-01 4.219655681410342529e-01 -4.841020130192064674e-01 7.653268430942211653e-01 -2.616633299317603911e-01 3.571585130857734755e-03 -1.229965899415073893e-01 7.697547113487538395e-01
