-1.893388090168178772e-01 4.704035543999008362e-01 -1.013091578183965336e+00 -4.088780116400106968e-01 -6.744419654879508785e-01 -7.936353707673563518e-01 -6.044780134647512737e-01 -3.483577679865216825e-01 -2.118809524594404969e-01 1.043996872887916066e-01 -1.718562298159553581e-01 3.554873716925393001e-01 -5.778085605728238150e-01 7.607714407451282579e-01 -9.924796209913957501e-01 3.101876062272102552e-01 -1.544297075948159181e-01 1.103630777240447169e-01 -7.328926951495093878e-01 -6.022079217313121013e-01 5.749311349181913666e-01 9.408151870117920090e-01 -3.457236191095600097e-01 3.838750957437587208e-01 7.438277446601252452e-01 7.878347348088150515e-01 -8.514466232973988413e-01 -9.302415627269675635e-01 -6.420275862979549775e-01 7.936809810682748934e-01 -8.029385266727829817e-01 -1.702375878693843381e-01 9.026313086080632875e-01 4.910264761212295576e-02 3.740412873010416361e-01 -3.721866609231642142e-01 3.735191513092607218e-01 6.619029649619245781e-01 -9.298307314394360645e-01 4.920924691907925808e-01 9.803500843609622706e-01 4.781943850188887235e-01 -4.436225835118059457e-01 5.860409205432421942e-01 -7.942378032518917497e-01 -1.079594294428082718e-01 7.963760650179109168e-01 -3.664974598978195663e-01 -4.162120939965502364e-01 -7.477020353635006611e-01 -9.513446956771699492e-01 3.200509528127943870e-01 -5.805363564518785102e-01 -4.997486243463730160e-01 -2.001515514301470400e-02 -8.768279154116327412e-01 1.416248657618490725e-01 -6.987402542795331239e-01 1.728358173149149857e-01 3.850270522188871669e-01 -8.104162220903892155e-01 -1.516228785756578712e-01 3.748601186089519643e-01 -1.863048854250363706e-01 -8.924869841458782371e-01 6.266128349094537975e-02 3.114463870062060824e-01 -4.414349560893179696e-03 8.827559051130134948e-01 2.135844703851237925e-01 7.581344071364624071e-01 -7.411512156284748576e-01 -6.852426818710444234e-01 6.453374573085568500e-01 -1.908131889671547954e-01 -6.653707182514666529e-01 8.458192884390119959e-01 -3.082943361315272912e-01 5.113986444466364079e-01 4.244035280307693614e-01 7.549199179412428018e-01 2.558402519522858798e-01 4.984213293341117623e-01 -3.084553577703586513e-01 -4.532175496306143914e-01 7.866763746850069516e-01 -1.255182946573598080e-01 9.537814660885962637e-01 3.562130952964510655e-01 2.925112024735225802e-01 -7.624657632408010643e-01 8.823540736185337963e-01 -1.121929259412530466e-01 1.328561135232682877e-01 -1.769742132886397701e-01 -5.438770926649980630e-01 8.292318296560658997e-01 1.620706069130964933e-01 -9.598161832335846411e-01 2.240744050406708043e-01 -3.710532113903954321e-01 4.813860905853548783e-02 7.692426699563728043e-01 -2.717097215176880187e-01 8.439012049294576379e-01 2.064441922129617302e-01 -9.714384537629880967e-01 8.502991065308704854e-01 3.519975700675270214e-01 9.928093188806114133e-01 -6.353943803159444181e-01 -7.226563502535896522e-01 8.678446254429810214e-01 3.953809324282064330e-01 -9.026055303807459795e-01 4.926787033195164645e-01 4.985500169347764632e-01 8.405192208905233331e-01 4.314148566249410566e-01 -7.723196733504000822e-01 -9.532649323621680271e-01 -9.353502163402541703e-01 -9.349920659048367444e-01 -5.126898237826645888e-01 7.208588765352744732e-01 8.799577014232896899e-02 1.161279632367406556e-01 6.784675057916228491e-01 -7.637121065682962451e-01 -4.127348491322214707e-01 1.625669188485562300e-01 9.438631104206430811e-01 1.420680999598663563e-01 -9.621703369068168588e-01 6.214701350511671052e-01 -5.544045814528060223e-01 5.990299271184150731e-01 -2.640835671551667319e-01 7.772193404400568051e-01 5.096568107255451396e-01 1.232865706295546010e-01 -7.484022422142155850e-01 -8.587573470316011148e-01 -7.927979092692276630e-01 -9.241402401154119595e-01 -7.997101007414505469e-01 -5.503821695835642291e-01 4.280069232586182215e-01 1.283505105164168825e-01 -9.688043221600624033e-01 -8.697009491974442286e-01 9.100949087045678843e-01 1.478380475696657315e-01 -6.193929499118370208e-01 -5.354537680160922353e-01 4.857898782804695448e-01 -6.298299375517387722e-01 1.391851994975162599e-01 9.682688900263202170e-01 7.187613077360277547e-01 -5.262955856570136204e-01 1.654307515465198303e-02 2.175416367101538073e-01 6.898286458676599064e-01 -6.888587022802115101e-01 -9.616512402719530339e-01 -8.743108833855139927e-01 -6.439350302671802140e-02 2.597443390303406097e-01 1.170966055887677632e-01 -3.808095221132914987e-01 9.516555279863934125e-01 1.861426106230684441e-01 -2.189959099039622270e-01 1.275806155604579106e-01 5.046998356170900868e-01 3.318850030323470812e-01 -4.723278262695813079e-01 -8.668297328246964417e-01 -2.863692782166527007e-01 2.666051493274828599e-01 -5.724433478795494246e-01 5.318906261084438425e-01 -8.543837327699161932e-01 -4.789629181094050003e-01 6.161963754702698415e-01 -6.042622142922170481e-01 2.343107612613103963e-01 5.186243655375543521e-02 8.688035635703674764e-01 -4.915118801930126180e-01 -8.672497368521039363e-01 4.711585421071395330e-01 5.530264710577210696e-01 8.170764466947676441e-01 8.776989139646784732e-01 -9.894155569390317151e-01 -5.318727672053614741e-01 2.287191829134500864e-01 9.000627296324876792e-01 8.731682458020179061e-01 1.139472476351080371e-01 8.060716723978221809e-01 2.565690678219983423e-01 -2.299653502289617513e-01 1.095916701690427021e-02 2.095580481936615558e-01 8.833581960880357298e-02 8.059204405118483017e-01 8.748682100856690624e-01 -1.969778910445382503e-01 9.429210244317935974e-01 -6.427211426599621635e-01 -7.483053952483690319e-01 -7.658399476623470870e-01 4.874789349165797869e-02 -9.250548123220933006e-01 9.070326198365380455e-01 6.633888312628279937e-01 -9.676622674134717217e-01 -6.613090292256024183e-01 -3.400039556131371210e-01 -7.449409579655337232e-01 6.234181565895547950e-01 -3.108908265337453347e-01 8.794224824783724026e-01 1.915934850945664181e-01 7.630794467410765280e-01 6.932654852239791277e-01 7.500147891660000621e-01 -1.162291266038104065e-01 7.617210407424358787e-02 6.338524597603845123e-01 -4.340361964090982405e-01 2.910218935272907304e-03 2.116502764062198061e-01 -9.592522419906068798e-01 1.822319366960343523e-01 -1.916224414864856618e-01 6.220546439369667446e-01 -3.838148840215859781e-01 7.820395445322581018e-01 1.546408952649092616e-01 -6.463315412678913852e-01 5.566263234790955750e-01 2.304053872616017018e-01 -8.833120418585954647e-01 -1.546181147488851493e-01 3.544758443039751628e-01 8.547998262774443301e-01 -1.004352218828993948e+00 9.591649081334228111e-01 -2.201080239775279612e-01 9.517124312395438546e-01 2.673012911001235170e-01 6.715527006255646025e-01 1.319127673286823732e-01 2.504571663130153447e-01 -4.586495840546386260e-01 1.609391450149488534e-01 5.197751218556546648e-01 6.801834582184355105e-01 5.007946219625902806e-01 3.793017916539034307e-01 7.175698060088755437e-01 -3.810643975175788123e-01 3.172849356444042423e-01 -1.014387305284902285e-01 -2.607582573270532111e-01 -2.109843150708924642e-01 -2.143301204270024185e-01 -3.810278372100632249e-01 2.381287395817864305e-01 -1.348526385543464268e-01 9.621699685435284310e-01 3.488466105622468616e-01 -5.840893371553286251e-01 -1.732906164779147995e-01 -3.092548561900293480e-01 5.918798499140668357e-01 7.717114711264770888e-01 8.041150053787500251e-01 3.328112887761334182e-01 -4.751361314217399934e-01 -5.135590918318038156e-01 7.077402444181229990e-01 7.224589048957678894e-02 6.413936588393990279e-01 1.646610619514184692e-01 4.605005092195066374e-01 5.684045500477122315e-02 5.469499413927437770e-01 1.354001242810449757e-01 -7.180806738220622820e-02 -3.231397177436094448e-01 -8.515586564101941258e-01 -2.464958220073299455e-01 -8.899422727638551800e-01 9.724367234470429056e-01 -6.401361037017344602e-01 6.636226782643858124e-01 7.777001565707739594e-01 3.725707454130779972e-01 1.544924088198983414e-01 -6.807171488535446180e-01 -6.667207342479430920e-02 -3.099244345124308464e-01 -5.568443405398249002e-01 1.764336820982133625e-01 -4.261514713028342061e-01 8.452909946460084312e-01 8.294054689439295247e-01 -4.771990521843637034e-01 -8.013380416025055464e-01 -5.891304509641318576e-01 2.843903019190932926e-02 4.529212412688048417e-01 -5.763291902236374886e-01 -5.054024176458515871e-01 6.652110707831678793e-01 -1.806013435896864916e-01 2.829138969595696440e-01 -5.256702888243787175e-01 -7.999801830745135733e-01 1.605101466496437236e-03 -5.607318738956079684e-02 -6.834282926050102569e-01 2.456125918545897235e-01 1.134531731980837760e-01 2.970200966264451847e-01 -7.076118536251622126e-01 5.148742291405218330e-01 -5.645367666575709098e-01 4.751935701886566416e-02 5.747954154537482374e-01 -9.372467354715504628e-01 -3.305986518519632988e-01 7.711786997400499333e-01 6.838368297277965802e-01 7.438282276065459608e-02 7.351291104713911784e-01 9.474720576489281676e-01 6.058186603583248786e-01 7.120984910013808955e-01 -7.986458747990901053e-01 3.197283832041014073e-01 4.001987066191940445e-01 2.394856622722348616e-01 5.967769528221252839e-01 -9.198627786282889129e-01 5.167939905053086092e-01 4.524603882382202680e-01 -5.074242615634197984e-01 -4.634692929984232102e-01 2.512923819647901458e-01 -3.135279618281393010e-01 5.592729926911227389e-01 -8.904566078696128650e-02 6.064418478714289629e-01 9.621684826925638312e-01 -4.227583572308323268e-01 -7.159533697548108311e-01 8.159986371999082833e-01 6.943323118491469270e-02 9.383467752584024879e-01 3.163968655174378419e-01 9.593726695482827083e-01 4.843091377034244860e-02 1.552886085949437868e-02 -7.442987839485823987e-01 -3.129725555214128985e-01 -9.522546754192322549e-01 -6.948627659985507909e-01 4.695767941985106719e-01 -9.220813390348721050e-01 -2.712308247841730413e-01 7.184617952508441929e-01 4.143100318758527467e-01 4.060020310197716142e-01 -6.751803068800780183e-01 -9.576767655987150629e-02 1.157589238125276004e-01 9.654944785000136864e-01 -5.944138628849438000e-01 -4.954034280337697438e-01 -4.632823894054215463e-01 5.211347933703567303e-01 -6.943583074211495676e-02 -9.105326859376796644e-01 1.785850047082596787e-02 -5.982314490488631620e-01 5.981732127294178136e-01 -4.053873834081401784e-01 -9.650478565666510411e-01 2.136888652833884572e-01 6.741442463353042314e-01 -2.377557649208733581e-01 5.188036699667610829e-01 7.522664652741766975e-03 7.972912025576968376e-02 9.130071210356144329e-01 5.901604763553918165e-01 -9.736087031259219593e-01 4.125844798196969254e-01 -7.524759428251122373e-02 8.714081192522115105e-01 -5.447625509291214030e-01 -4.847001955338743895e-01 -8.678165587694955940e-01 -1.454593468274382462e-01 -8.214290116948302911e-01 2.519257421143859532e-01 6.371487548800909284e-01 4.029784934181586120e-01 5.336095144261711054e-01 -3.451691876053228358e-01 6.872437630736056846e-01 -1.422186149890085072e-01 6.510301751388655189e-01 2.608145407705600438e-01 -7.233738026302426460e-01 -8.299839021444469500e-01 -9.597582970099193256e-01 -8.984366776184938841e-01 -9.116029076906233264e-02 -7.722717341978516670e-01 -9.275176126166579937e-01 5.259038664982313982e-01 -2.283047902160916520e-01 4.720402955853350013e-01 -1.179405600200348486e-01 -9.259971452963783323e-02 -2.229706352824596324e-02 -6.349368465581312071e-02 5.762049528777746232e-01 -1.842389175992130423e-01 7.873139692754732577e-01 -9.315663883730193051e-01 5.533371083073932439e-01 -7.562232036002090041e-01 2.343038490702816223e-01 -9.745242859453324691e-01 6.846167251544228727e-02 -9.676397778934624494e-01 9.288875989925523546e-01 8.089869784784620155e-01 6.219943193733065145e-01 8.204146235708943413e-01 -7.030358929719209282e-01 -6.830133542278917780e-01 -6.281899834850892539e-01 2.202878344415566958e-01 8.388005536169425014e-01 1.002399067625300511e+00 4.109365363265512494e-01 4.886806694493858183e-01 8.264121723209872927e-01 -1.874648122791100768e-01 -4.844763484711229196e-01 -6.639578995353622171e-01 -7.611308813727812872e-01 6.065430352090560584e-01 -6.804168678673268023e-01 -4.794680172957187514e-01 6.539377720625809687e-01 -3.892634467314116664e-01 9.947475082527131862e-01 -4.811810639283972679e-01 3.533932242929904016e-02 -3.672041079013093623e-01 8.163044465463575872e-01 -2.762314507668419683e-01 -1.085724863157222081e-01 2.027743445392726426e-02 8.473419590790636224e-01 -9.324891551873382145e-01 4.052075502409023255e-01 7.985704403849407385e-01 -9.299891139316127653e-01 5.562093392453491825e-02 -3.386644284279791139e-01 7.242451363995465741e-01 9.885159771119758632e-02 3.905823983638884722e-01 -8.158656558326643493e-02 2.644980962865320917e-01 -4.197614183583126546e-01 -9.488367902440605350e-01 1.322386660517110846e-01 -3.890450392767734744e-01 5.212564320001641244e-02 8.393912773741035727e-01 -1.185006710266039709e-01 -5.089789855116380046e-01 -2.448672547975610791e-01 8.999781283896957085e-01 8.761591017622311073e-01 6.834091163721386364e-01 8.165124909575994794e-01 -5.393663116262851220e-01 -8.471195208329593829e-01 -5.375975470614784424e-01 -3.741030781646023651e-01 -6.425288101138673102e-01 2.121406496490744753e-01 -1.992342006484624783e-01 6.348502232376689314e-01 -6.110472842104200941e-01 4.385137421324484253e-01 -4.976807355319887716e-01 1.319642414072453585e-01 -2.860264633819996072e-01 -8.833735801542800248e-01 -5.063197384109959787e-01 3.316022963947684032e-01 -5.120146157300953411e-03 7.330260455855412693e-02 -6.744216548431302138e-01 1.630684887836816033e-01 9.896349353207504196e-01 6.169558973063059559e-01 1.831195015202074783e-01 9.783794559461094220e-01 8.113672069614726867e-01 1.850515301143658975e-01 -9.237161825866083698e-01 -8.264676760977073267e-01 -8.666792553951290223e-01 -9.512635241324179924e-02 -2.603846755657671097e-01 9.588357440992730796e-01 -6.391036763504649443e-01 9.306643351066177239e-01 5.329709068328294386e-01 6.292468160631160545e-01 2.494127050351941099e-01 2.983230670427295950e-01 -4.525022057821186106e-02 -1.008838794261316396e+00 -3.029892751351416225e-01 -6.403018482683710266e-02 4.691914838813696642e-01 -4.295528403463481915e-02 -7.903956333428122094e-02 -7.223281912795266324e-01 -9.919322688110924213e-01 5.354553655294622683e-01 -4.052625507753094825e-01 9.820967721596022271e-01 -5.675616370537676092e-01 -3.388453680299619575e-01 7.469217359002496004e-02 5.112816003687931099e-01 -8.119736472235014602e-02 -7.641826617474685168e-01 -4.033666488494696001e-01 -1.083390709343370027e-02 3.160095138912869528e-01 5.431216666504888879e-01 -7.673791296548000407e-01 -9.687480906192590391e-01 3.714240227929840182e-02 6.670715854262924127e-01 -9.717413932837262180e-01 3.582840949851691104e-01 3.803936931705491631e-01 -7.419641411540961462e-02 8.537691718755705539e-01 2.781647393669056112e-01 -9.873744101947535823e-01 -1.804021568840492862e-02 7.121961749808095599e-01 6.678989216430253339e-01 2.970434920396662903e-01 3.420167560507239579e-01 1.708929157966453394e-01 -4.796150372983564170e-01 1.688900764079739325e-01 3.550040389550062625e-01 -2.652982032145934088e-01 6.927030508505658268e-01 -6.078015807477690213e-01 4.912716451141213581e-01 -3.865298999353636855e-01 5.300227392410740146e-01 -1.533298360369276525e-01 6.263987149153611433e-01 -3.317568123431505756e-01 -6.031047653331514935e-01 5.435958681080189647e-01 -3.700184906456676637e-01 4.738592135332670430e-01 4.529235051518057942e-01 -5.404186638894622474e-01 -5.584166602610434182e-01 -5.931060416809070812e-01 -6.890391691611952307e-01 -2.566490264581903769e-01 -9.614848220498485309e-01 -7.781543361609148945e-01 3.094961356676068642e-01 6.293819443804608005e-01 -8.199758407054644760e-01 -5.694918585296759872e-01 -5.676927625980922043e-01 8.335276586504261065e-01 4.395344345075846704e-01 8.668769680885002327e-02 -4.227800908457950979e-01 6.714398619284379643e-01 -1.275266200795544536e-01 8.717559513304087293e-01 4.265614016722313329e-01 -8.257220474673287666e-03 -7.344400645128205118e-01 9.520477421013686659e-01 -6.610816587398425925e-01 -5.939950602036664362e-01 -1.470512998751876133e-01 -2.070551649866118338e-01 -7.240393700605043392e-01 4.594677722597656500e-01 -6.263641838915243731e-01 2.963126244974292889e-01 5.126559085365721691e-01 -5.831409942787172396e-01 1.973261031409479782e-01 5.275458321352954894e-01 2.643263276551788277e-01 1.933856779012877447e-01 -4.093700655691657198e-01 4.567501036495705269e-01 8.800502371201809337e-01 -1.204652546327808910e-01 5.672159792509071652e-01 -8.561056094039480868e-01 6.665620467279862460e-01 -6.417173928807358152e-01 -2.060553885602565416e-01 -4.113928827430635149e-01 -8.347026815582628823e-01 7.700685409769802980e-01 -2.906551683324367086e-01 2.725981481075926555e-02 2.394799924809589559e-02 -7.381317776363611749e-01 -5.872860833167672379e-01 -8.787172849994387969e-01 1.419277722644816248e-02 -4.962875443035744683e-01 -2.768015707812976900e-01 -7.920442238613805142e-01 5.442046846413879368e-01 -8.157872848440006486e-01 9.270641139075611603e-01 -6.606166960637612773e-01 1.506969062106447155e-01 -8.930054988233787627e-01 5.773130589536141777e-01 -6.323692507888810654e-01 9.643825175802485383e-02 4.843487101782164572e-01 -7.027664808401640206e-01 1.163915313479644692e-01 -5.998846965494526451e-01 5.261395205375182238e-01 4.510613603379947656e-01 -6.366438199668497111e-01 7.387343329957871685e-01 -9.792301869167495676e-01 7.106431105302268847e-01 1.190073564039012682e-01 -2.242489527518446157e-01 5.167743665369564088e-01 4.387148250840287034e-01 9.994734105206546371e-01 -4.312053455399394442e-01 -9.914821806753183475e-01 9.022585629128845319e-01 7.069626138822909800e-01 4.745844858685204781e-01 2.229913307987177115e-02 3.817930124315016549e-01 5.898014074232323933e-01 -2.428794232652327634e-01 5.299556492573842537e-01 4.789240659651284315e-01 2.120305670716069180e-01 -2.024955525426290759e-01 4.029102633812549072e-01 -9.941249025576867071e-01 5.939838428931522030e-01 7.968549336591996823e-01 -5.006921865555917783e-01 -7.752492686435784597e-01 -5.700618879821688356e-01 -3.995297042814885957e-01 7.542821830752336476e-01 9.674159672378977726e-02 -4.235516865700704736e-01 -7.276824648529465200e-01 -3.979909253445437223e-01 2.129727069931289518e-01 -3.645063499471754564e-01 -7.015341008249961763e-02 -1.613773461752818494e-01 6.592161638954817660e-01 -1.859585875335187100e-01 -3.175461835324672188e-01 3.345920427254531759e-01 -5.490084624512654443e-01 -6.827095235789677752e-02 -3.928262792968415518e-01 3.081928166751650155e-01 7.868663653885240583e-01 -1.061454189079272803e-01 5.760668528484111928e-01 -6.851329560912888805e-02 3.413204767709606124e-01 -7.205626777703850738e-01 -9.731638599953629232e-02 8.202180338751449140e-01 1.923971126374431073e-01 5.802998638340716164e-01 1.239042238643835690e-02 -7.243750699858489926e-03 7.099933762662581360e-01 -8.666130919683664446e-01 1.525275398533343096e-01 8.612632483523408045e-01 1.334448784611872406e-02 -6.206282823796847037e-01 6.838564487911638068e-01 -5.176815684346358637e-01 3.910168427311256356e-01 9.967157878543930760e-02 8.957152038540483474e-01 2.275137401467309251e-01 6.855710856150241117e-01 -9.816715049621391742e-01 9.938981260845635157e-01 -8.505160185716778010e-01 -3.449581614720124145e-01 8.807961753938255978e-01 -9.678690086071469745e-01 6.293679047897652312e-01 6.956822321764177808e-01 -1.772339370093883870e-01 -5.081298212128209091e-01 6.198658285840051851e-01 -4.353321826772079545e-02 -7.222492530134817512e-01 8.107428458735577159e-01 7.811642487434118376e-01 6.439752436757918382e-05 6.814188652561471438e-01 -1.844913182132248142e-01 3.218504169528643155e-01 -2.195090696200007185e-01 2.584474544621568823e-02 -5.939137068677986520e-01 9.300861154273670772e-01 -4.172656449063654738e-01 -7.814416150090018887e-01 -6.988051649349364958e-01 -9.683298024313645724e-01 4.037392227183594362e-01 1.388022268882943833e-01 5.878955294741164961e-01 3.770246291377538778e-02 5.670609100266539304e-01 4.242126163187870391e-01 5.614805303112451185e-01 -2.090263508054915065e-01 2.597092361413542716e-01 -6.348565834710478972e-01 -3.496503715200011686e-01 -6.902622924455895648e-01 -1.588452891317830573e-01 -5.434803251644142463e-01 -1.992777325490019125e-01 9.427884406895722380e-01 -3.897576055713782295e-01 9.752319236758724141e-01 3.103944657089206527e-01 -2.459445645481867226e-01 7.373913389059594259e-01 2.284967014535037311e-01 -4.901563490843891535e-01 5.977585980291224566e-01 -1.519367462151317016e-01 -2.688867870609785715e-01 -3.277555422570902488e-01 4.260762532578030726e-01 -4.388672044612556000e-01 6.395948922811314219e-01 -3.915184216672548678e-01 8.603073602711988621e-02 -4.184211319203141877e-02 6.969324945131668558e-01 7.632970712500962707e-01 -6.302645385315337467e-01 1.380725938816506904e-01 8.001557790335616094e-01 -1.070890138809145187e-01 8.326826597764430682e-01 -4.506626512501068493e-01 2.178772197425297708e-01 3.737828552672415316e-01 -5.372647390969131909e-01 -9.876582391973444119e-01 -1.464627633538942708e-01 8.581543661416025648e-01 -3.030728175809817571e-01 5.724227697674404425e-01 -6.997750121350424513e-01 -3.781600342053294539e-01 -7.345770978361768622e-01 4.690708012608716948e-01 4.144552819160111090e-01 3.873177169429123379e-01 -4.962655800541115880e-01 4.350456832127485574e-01 -5.530729598541926917e-01 -1.625559260549617746e-01 -2.760771001935186097e-01 -2.969039094143869351e-01 -8.963979134698020212e-01 2.221376721660862363e-01 4.193077639254653710e-01 2.123902096522449490e-01 3.039127724811003795e-01 -6.504034311349524700e-01 -7.011507539596988359e-01 4.236649942651294493e-02 6.978186838972489925e-01 -5.886528446711201124e-01 -8.351761613986440069e-02 -1.613067062786338601e-01 -1.822282478476111231e-02 -6.607595224033204762e-01 -3.133670944230700917e-01 -4.756248881778402104e-01 6.893905053318951648e-01 6.593228391963168455e-01 -1.999741774458488330e-01 2.078990441131352562e-01 -7.491390326087170592e-01 -8.194026741369804176e-03 -3.956110672621782065e-01 7.124471395301248400e-01 3.440290067800401141e-01 2.874345938462183891e-01 -7.640802654985003883e-01 -5.609808786811166376e-02 9.820966848203535049e-01 8.789303129813230697e-01 2.739198324247490990e-01 -6.905745144269730407e-01 3.162531503509478092e-01 1.302890176523089361e-01 -7.993718847452417620e-02 -1.101027634290138724e-01 2.026345116018239967e-01 7.136345273336306416e-01 5.135601611916819076e-01 1.780906899658162568e-01 8.443005921802595459e-01 -8.636571418987545323e-01 9.607509157777055497e-01 -8.804383326872030624e-01 -6.205394371044272717e-01 -1.559144074256330337e-01 -7.570035410969431222e-01 2.400091199670372766e-01 -9.218874008347061055e-01 -4.131981987670212964e-01 -8.633073477808099749e-01 3.724376119143619213e-01 3.092861351370217449e-01 -2.607397997475957019e-01 -6.133901976246373122e-01 4.772495661228333685e-01 -3.367433179655305864e-01 6.203326462956642029e-01 -4.159104344392917929e-02 7.259867778629394697e-02 -9.508807439611965950e-01 3.005575659563494706e-01 -3.026664809895993624e-01 -5.710400518489812116e-01 -1.514372349161485776e-01 -2.211881810956075889e-01 -5.257111226429267425e-02 9.705222746021293645e-01 -2.736843024737811159e-01 5.451100655430982656e-01 8.426045593499792430e-02 7.371534284827583328e-01 -2.584926848471718608e-01 -5.143974425908132142e-01 8.205724994195590094e-01 -8.854219333120457724e-01 8.973581788499196410e-01 1.206474414049849286e-01 -2.548714927611334669e-01 1.024200509864667596e+00 -8.939681571498615531e-01 1.834136192489862691e-02 -9.258380319955786808e-01 1.359716964642766479e-01 -6.247743341684935947e-01 2.636331037711095449e-01 9.920787427400004077e-01 7.528876444371612742e-01 -1.054437064307906097e-01 4.343250354163237792e-01 5.883568035424491249e-01 5.317441310455522409e-03 6.803328993133449243e-02 -7.091551257976430600e-01 -2.889566675437156840e-01 -6.659997979895625475e-01 4.711260757284148615e-01 -3.606575293169815566e-02 -1.358746650483755591e-01 7.565657141370807359e-01 4.678515361229960284e-02 -1.742980204152886348e-01 -4.595590810837663076e-01 -8.539230650250928534e-01 -1.513280920755973036e-01 -9.246747586208887704e-01 -4.161754826662869555e-01 4.341894318974130751e-02 9.751505496216452684e-01 -7.962010837898819693e-01 3.609476771582345589e-01 -2.121248476853777182e-02 5.702297395873959784e-01 -7.205006905969705278e-01 -8.413718540355169528e-01 -2.162264390788536939e-01 6.116190061810957701e-01 -6.194364256142609326e-01 5.403398916745034697e-01 -4.106122989537002166e-01 -5.803833439226510071e-01 -9.634435689077834875e-01 -1.782744995702253143e-01 -2.350819291112411502e-01 3.201920929919515046e-01 -8.561105157755277695e-01 -6.973444244586362029e-01 -9.950312656443400794e-01 -7.433455374012398753e-01 3.009878579201300530e-01 -1.869508704235481600e-01 -4.126474345944055599e-01 1.038431414832601957e-01 9.844832774763712102e-01 6.655827276236279122e-01 4.094438594852761182e-01 8.240876499322555837e-01 -9.048820270690463019e-01 -8.634743890886152906e-01 -3.497753680364375922e-02 -2.854080431211689084e-01 8.674004434493733928e-01 -2.701608283390165635e-02 7.106560285836134583e-02 7.895810171764626739e-01 -1.349500937937837541e-01 7.829855275392283431e-01 -4.725916060226542093e-01 -4.719441008388745029e-01 -3.744406252862696460e-01 8.369471921557185279e-02 -5.561516291425807612e-01 3.408982331878109284e-01 -7.174423520090082995e-01 -8.131688329486543854e-01 7.261779033672370876e-01 -5.163478649321293634e-01 -2.226588541103002583e-01 1.347146973586980379e-01 5.099180500987782888e-02 -8.502758199187265831e-01 7.466189447027302695e-01 9.264291240994395604e-01 6.624912894856550549e-01 -4.451190406590296300e-01 7.931725283941713778e-02 -3.064972198870040132e-01 1.131419507314762873e-01 9.545229606677465561e-01 -4.183782186697850847e-01 3.531635192208433804e-01 -3.387871383641459788e-01 5.536121869496053449e-01 -3.896172784637542130e-01 8.119412791640526761e-01 4.960133058191943944e-01 5.516931229856532060e-01 -3.234212336479647121e-02 -5.992269213735350597e-01 -9.133578567062173859e-01 -3.509917758327348869e-01 -9.498241609330088098e-01 3.868525290472558664e-01 3.536817405873486919e-01 -1.481105265470983035e-01 5.243875015952050855e-01 7.331783534716868056e-02 -9.093200236478348186e-01 -7.426655387531354569e-01 -5.984437310907444463e-01 -2.983099661854231588e-01 -9.312427430752946433e-01 2.287677543304460215e-01 1.731850475638122000e-02 2.313115610773028574e-01 -1.237282312014835184e-01 6.892479168602566597e-01 -6.787392071346748379e-02 -9.738922330130889149e-01 7.365610455597327855e-01 3.317981504818992011e-01 6.330130727576012140e-01 8.626188492520885376e-01 -8.862863971627675808e-01 -5.589373262641379458e-01 -8.897101202267980735e-01 -1.526702418525283655e-01 7.219706023754668411e-01 -8.290877419757985978e-01 -4.421732475509622395e-02 -7.359412934222689939e-01 5.571049519038648867e-01 6.735535406507302536e-01 -9.081524039658128711e-01 -3.129139038060463340e-02 -5.184797477872429283e-01 9.085217745076394902e-01 8.680306278092490002e-01 2.113028838833907186e-01 9.389453254565991447e-01 -3.030051487472097405e-01 7.815814500981600466e-01 -1.483588983928308958e-01 -5.025561256875514804e-01 8.714800837643932319e-01 3.758559198925546796e-01 -9.137506829470891656e-01 7.340160807500555329e-01 4.262049946021219671e-01 2.250820239773863030e-01 4.764698606242286361e-01 -5.094022984125896603e-01 2.048655936064875116e-01 5.826915581364202623e-01 -8.970972002827704017e-01 -7.368726247831279830e-01 6.779416113424124868e-01 2.803788353691358815e-01 2.877167621059852770e-02 -5.017895965364745914e-01 -4.210177255489939152e-01 7.710066675147724258e-01 -1.393723792683273233e-01 -8.917867254611175909e-01 7.609741212772189733e-01 -6.040109807836402389e-01 6.736566266799562941e-01 7.786482483661875120e-01 -5.094125758463481646e-02 2.030287071601636073e-01 8.897569371423962037e-03 2.263320388206548905e-01 6.967025140568677832e-01 -4.398179074879904893e-01 7.953533248296188463e-01 1.524748162536120888e-01 -7.696714065949115113e-01 -5.252816589320934426e-01 2.317260861640869918e-01 -5.355842337964104027e-01 -7.254235965908359951e-01 -6.546673165574021791e-01 6.834411182102207993e-01 1.839551211883535820e-01 9.786382102897164259e-01 -2.991394958486443545e-01 2.148918738170916276e-01 1.888793039523345429e-01 1.880174639136855674e-01 -8.840061546018519456e-01 5.025883015897236739e-01 9.224435579912829697e-01 7.832281796593944245e-02 -5.759968274750426609e-01 4.954381134153812982e-01 -9.826131805941751285e-01 -3.331444370125064558e-01 8.615770565300908679e-01 1.751119247285335134e-01 7.038521437867870656e-01 2.095278347514382411e-01 6.274421564677965524e-01 7.849163715357818649e-01 -3.668232067117109252e-01 -7.869195463262103063e-01 4.317287363571001846e-01 -1.180885029379446088e-01 -7.646393883677865544e-01 2.264949201859108863e-01 -9.283603378371915182e-01 -5.959763134230945392e-01 5.891764951268374517e-01 -9.968569034806304963e-01 -3.920042246076380632e-01 -9.678284070720080123e-01 9.888909991918848341e-01 1.749040401108516163e-01 -4.089412375513675757e-01 8.527441263388544357e-01 3.397398858591882398e-02 -1.342336366993861219e-01 1.628725334164811134e-01 -4.770142424228597244e-01 -4.314875472128543166e-01 -2.853010645278184487e-01 -4.469514080351116858e-01 1.619413398473049381e-01 4.391478131924843042e-01 -8.818258516076844522e-01 9.299458013597988737e-01 5.177286116287108664e-01 5.949852972276002960e-01 5.268642883936964783e-01 -8.550170338802057790e-01 -1.390808731165962125e-02 -1.177350531739835698e-01 3.391712781958721723e-01 -1.127232979604505803e-01 4.405457325911974475e-01 3.625648853865249821e-01 4.060997496904222293e-01 2.678021321204744343e-01 -7.004049279360355929e-01 5.519073251044663841e-01 5.523057682224044029e-01 7.997169462852863342e-01 -5.283817324202534360e-01 -6.259836881406682929e-01 -2.417958258664340832e-01 -3.255536340622416924e-01 6.270956841305744822e-01 2.327134949550402065e-01 4.854971450837787805e-01 -1.666062843346701738e-01 -7.971844792313260708e-01 -7.402472399126168723e-01 -2.090594667508006155e-01 -6.168752751941416479e-01 6.285011817205767848e-01 2.196550032962682475e-01 3.747365224807011064e-01 -3.962373933675389370e-02 -7.993327788787550903e-01 -4.831298804338116093e-01 -9.776647084800201004e-02 -6.706963223476370972e-01 -9.388259850634593784e-01 4.705724941162550690e-01 4.441359199905995370e-01 -3.194298457393295321e-01 6.738738231815762925e-01 -1.362575973491642611e-01 7.618162428755130833e-01 3.214918643961617861e-01 1.864170402369885737e-01 -6.317190831503187720e-01 5.094210388577134763e-02 8.129543418163318602e-01 -4.057634514395251357e-01 7.135659316608988778e-01 8.207176855668747439e-01 -3.373034208037115622e-01 3.486008429946720333e-01 7.790279551381567025e-01 -8.412489832674487911e-01 7.377894271323690578e-01 -5.863814863819999390e-01 7.174411332406345210e-01 3.264108987390716421e-01 -3.148449490830783071e-01 -6.971998878862588622e-01 3.043815665848008667e-01 6.993916560294046736e-01 6.702611532253499593e-01 2.320047051750333822e-01 9.123702476133094263e-01 1.738506875266312424e-01 -6.071732480679578048e-01 -1.387226814564969102e-01 -3.190508661615923947e-01 9.860909362286591762e-01 -2.787730687008718733e-01 1.031091765179320330e+00 3.338693796067865316e-02 -6.544368142906445973e-01 -8.364621258322878505e-01 -2.561981434862322660e-01 -7.571007294887761585e-01 2.625891694953276789e-01 -1.631439757700250404e-01 9.645687025654076097e-01 8.609314425882933497e-01 -7.088029232478697539e-01 -2.211916102302682874e-01 -5.255951901828294359e-02 1.263025011505914952e-01 5.558671874605082275e-01 -1.894683786008114629e-02 -1.901028888110511406e-01 -4.683586931755175375e-01 8.412911539789106330e-01 -9.897867974795356849e-01 6.496173948941207366e-01 -6.207003369462398279e-01 3.656745066336177241e-01 -2.722708624514607600e-01 9.624611687339755806e-01 -7.276397421033422575e-01 -6.487950088708674956e-01 7.956436708118307388e-01 1.864925543343568803e-01 -3.763819917016342775e-01 -9.758286167077280249e-01 -5.282222966501383121e-01 -6.816652190178124071e-01 -5.995557397413909806e-01 7.929202826051765518e-01 7.258465523321105950e-01 4.071276086435207664e-01 -5.202591230359362301e-02 6.655450582380705304e-01 -1.133332554515202595e-02 -2.790084812328832431e-01 -4.588346016505133740e-01 8.560518324906247756e-01 -2.215129954568709203e-01 -6.852381511538949144e-02 -4.943951642411160696e-01 7.719661376681784537e-01 -1.927642703522312595e-01 -4.021159486097173885e-01 4.037269376401643184e-01 -6.103891172693248768e-01 -7.650923446336979072e-01 6.961370005323079813e-01 4.886417779574111497e-01 1.470887624328526544e-01 -4.927362732394975353e-01 2.485656364231080273e-01 2.735430411627488567e-01 -3.507250901387987119e-01 -8.653551852408455369e-01 7.839861297933482520e-01 -1.014498352020082039e-01 5.666481316819179659e-01 -5.275363687637651955e-01 2.299292393380197030e-01 -1.430488628495890924e-01 -2.902161801528024831e-01 -7.462089998973809868e-01 -5.144015251284707047e-01 -8.694737390243157948e-01 -4.008923434782001305e-01 4.959592235931133408e-01 2.672404008367283978e-01 3.792026540616790786e-01 -9.871301803437397826e-01 3.326135244866209040e-01 2.965426393440794353e-02 -5.488408473907966378e-01 -6.571676333620772859e-01 -6.086830316872724467e-01 6.847126204841817998e-01 9.865937558864714685e-01 8.427873249154248514e-01 -3.214308737357602364e-01 5.556520633186241565e-01 9.776472203074855483e-02 6.646542408352961173e-01 -3.248937169275512710e-02 1.658690563343364066e-01 5.868308302608964411e-01 -8.020949994596884292e-01 7.199795110936203779e-02 -2.951269852315881459e-01 2.207145091699630746e-01 8.985568045805577553e-01 -2.241927468529594791e-01 -2.063013322950609241e-01 5.560780705577532679e-01 2.810696406301421701e-01 -2.127532468652313380e-01 3.560573921612421588e-01 -2.018297407963196566e-01 -7.257809351383098795e-01 -1.162909392665610608e-01 -3.469451838594567739e-01 -5.240098111473192599e-01 8.658561151881688511e-01 3.887108129421496527e-01 1.817541817931895842e-01 5.058763520675216840e-01 1.270364901105949240e-01 3.859403444970840313e-01 8.512165477003015290e-01 7.426078785902618939e-01 -6.637628013745052735e-01 -4.589585067682394603e-01 -8.498830703871925740e-01 9.619142191836699274e-01 -5.272449354172142888e-01 3.129589580388772996e-01 -8.254915040676632509e-01 -5.938896677944075497e-01 1.259053254225101295e-02 -8.014719399593314142e-01 -2.011640600921114630e-01 7.099794059384763323e-02 -2.974921802482701771e-01 1.084505717899800770e-01 8.007280656064981461e-02 -2.138278161916803699e-01 4.167329122515840978e-01 3.483836250803417078e-01 3.875301309013345907e-01 1.056855268004162629e-01 -2.852809293784211997e-01 1.883823309190205963e-01 8.929252346343581337e-01 1.858387568447832372e-01 9.442220247527497445e-01 -1.380759715120463138e-01 5.085188105876631282e-01 -9.151060567881473817e-01 5.330023924275004710e-01 6.801786531299723604e-02 -9.765113379797770721e-01 -4.581869446077186936e-01 5.490346293201014277e-02 5.261568378995634676e-01 -9.414281942589444174e-01 1.177080375863890360e-01 6.019258090488041057e-01 3.021554679155252221e-01 8.592066625087493303e-01 -8.380179817100765760e-01 -4.549017123754713343e-01 8.486317666257450210e-01 5.520129839929223126e-01 2.173369064840055265e-01 6.750646388742104209e-01 8.033606524176568620e-01 9.692489494622092971e-01 1.015841014105955731e+00 -6.968047275911831706e-01 -8.570497811894806084e-01 -8.704412447750793369e-01 -9.635092047139700577e-01 9.418824475998723855e-01 -7.888633517571844722e-01 7.010618985455189245e-01 3.633104486948423029e-01 -4.601090980347190967e-02 -3.066923116209789302e-01 -3.078245328756645249e-01 -5.021280065538944459e-01 8.143274429352650445e-01 4.588991307710252321e-01 -9.889571093680720182e-01 -1.014051555783248154e-01 -4.201004269038880468e-01 -9.862456482041641603e-01 7.874773260562977217e-01 4.878343786847941788e-01 -3.184302334613425267e-01 5.928286342852933100e-01 -3.421666143375950431e-01 -3.937828380335730016e-01 8.722202174200741620e-01 9.751918287241517769e-01 5.778598729240062154e-02 8.531674577989094566e-01 7.797204992264988865e-01 5.110781327611701313e-02 -2.553861777305972414e-01 4.181900958199133989e-01 -6.730536523963318030e-02 2.243454841990511206e-01 1.016233522327404160e+00 5.541580319501930862e-01 -3.201704007145942388e-01 -8.142626728797729418e-01 -6.460027767881011407e-01 4.972406392706706091e-02 -1.600277171411317867e-01 5.398992575517274073e-01 8.468587339302287020e-01 -6.261260241996227105e-01 7.034341337420566553e-01 9.191554508466461826e-01 9.134592884851714389e-01 -9.085393591232197030e-01 -8.662170321882172175e-01 -9.843070594054214029e-01 -3.947747167378201083e-01 -8.927860517800553231e-01 -3.997315105866043328e-01 -2.987954716879530070e-01 9.137700758599656137e-01 -6.300566914006504315e-02 -4.547919488378527886e-01 6.019949673009600440e-03 2.607522899255375615e-01 -7.691785981316376919e-01 5.410541295762216762e-01 7.250563066907405041e-01 6.754501618690772480e-01 8.005266603485519106e-01 -2.552735726375559011e-01 -9.891596918070112709e-02 -8.009277085399694185e-01 -5.648746808723430490e-01 9.165673144816557372e-01 -4.316030862595351958e-01 8.087012337799976969e-01 8.196457912250232347e-01 8.493013990874572761e-01 -6.591557062500723596e-01 7.522385845187314901e-01 2.585995647594500624e-01 -5.358551986947118762e-01 -2.814223014719827720e-01 -6.830749149336092785e-01 -1.065509290223111555e-01 -8.482147743004555540e-01 -6.493357615462619359e-01 -6.046221579166600746e-01 3.545084363122917304e-01 1.524160043295165468e-01 7.406095545382073153e-01 -5.066291134262447260e-01 2.421914550252805554e-01 -9.575820211277464855e-01 3.273926364204980677e-02 7.103794275536047254e-01 9.707576286093786422e-01 -1.012377645178727192e+00 -5.008866891906199603e-01 -5.633236880583889494e-01 -9.155557618333296510e-01 -9.903291263685665147e-01 4.605606536988382516e-03 -9.262936759164089873e-01 -4.557217953020074597e-01 3.025910581214822925e-01 -4.123422309097595773e-01 -4.774651404871449456e-01 1.775249617008157477e-01 -2.674098898834068039e-01 4.031659006440806992e-01 -1.075244289560261385e-02 2.805872707034589575e-01 -3.008532886434467923e-01 -4.138093269104169969e-01 -7.124507130148158840e-01 8.729174304281692720e-01 6.107021499170794954e-01 8.967088382649280875e-01 -6.301349899067351101e-01 8.623692791022949944e-01 8.890761521933305822e-01 -4.127490757947941402e-01 -4.775796981739921510e-01 1.279842367316467167e-01 -6.473182556576474456e-01 -1.034360852819367349e-01 -6.188648481358118847e-01 8.881738552040805423e-01 5.713528030507689960e-03 9.022932603715175803e-01 3.307995714738549697e-01 1.758467895610434876e-03 9.358363648854415295e-01 -7.019071662993153771e-01 2.812679174600340448e-01 3.498560474618055416e-01 -1.047954954022213281e-01 -9.186946823596681133e-01 -1.610944173797231385e-02 -8.217549083009965949e-02 6.150796373257707561e-01 -5.377867575783044085e-01 -2.400301393044663445e-01 -5.320106606063764731e-01 3.908944474826225313e-01 9.893066013976482553e-01 -6.299047532829546991e-01 6.426072554102492118e-01 -5.135477023764997151e-01 -8.848644949882922273e-01 -7.118180812383219092e-01 8.759129136679228989e-01 8.062532084449791636e-01 -3.964549437040889579e-01 9.320607664965613326e-01 7.105366706256600606e-01 -1.281262470662870856e-01 -4.546478353024784730e-02 2.810676158633607646e-01 -6.825487401723047132e-01 -9.738262254667009454e-01 -4.572179024577805451e-01 -9.866765199199512004e-01 3.169472231607717849e-01 7.984067966673057126e-02 -3.323290632074981099e-01 5.590069732406978131e-01 -7.137068088896848517e-01 -5.137488659556026516e-01 -4.031357504446494433e-01 -5.935263374893620103e-01 -8.292303708940608198e-01 7.025704862633784797e-01 -8.272153894149056885e-01 4.148528198537161371e-01 -7.662301769084374214e-01 -1.013394190398152928e+00 1.290031482322888945e-01 8.316784156494668734e-01 7.222103218385521606e-01 -3.544061022382168913e-01 -9.084591443840615010e-01 6.114871249597011449e-01 6.167123692030150872e-01 7.279839372858871727e-01 3.676946162541988028e-01 6.003776206071074206e-01 8.249230247236745139e-01 -7.373527272446740721e-02 1.771045360734771479e-01 2.073485997970794803e-02 3.840030698972497492e-01 3.525480154268005872e-01 4.127800457355059599e-02 6.405829858886313843e-01 -1.584197924051924944e-02 6.349502054768733084e-01 -4.251755081942196202e-01 -6.690644315039063761e-01 9.403524930097513224e-01 4.992504427048835569e-01 -4.662269981964045074e-01 1.745252558120135578e-01 8.831849288561072209e-01 -8.567432640747862926e-01 -8.390656348939057319e-01 2.390814219353519787e-01 -5.371227411059160683e-01 5.434993624409379942e-01 1.256699342744481418e-01 3.436112237285810500e-01 -7.837715848231413540e-01 -8.238039183404652910e-01 2.124345497824827733e-01 -1.424426716945837723e-01 -8.153186027504198963e-01 -2.843707396825336797e-01 3.306585279878803130e-01 -5.653289347218429794e-01 7.892860187574366471e-01 9.066989793920733343e-01 9.271980204268461812e-01 4.638752088662460582e-01 -1.537289891658253638e-01 4.496666389936147534e-01 -4.155281820359348344e-01 -3.901653826831830707e-01 2.136747978939841086e-01 1.815936272955045450e-01 7.589876996302800105e-01 -4.965296840764679698e-01 5.431199774174035877e-01 8.990369747846842507e-01 -1.020516179228473819e+00 -4.003257863885438528e-02 3.058978443863836216e-01 7.157311931219506596e-01 -6.326111791283661745e-01 6.950645203977808828e-01 -2.868543923762864045e-01 8.136021278274100377e-01 -9.539226794602686521e-01 -8.137381070560567586e-01 9.703242212695915025e-01 2.593121690127233592e-01 -1.759398319578918679e-01 -6.278155544932148002e-01 2.936840010730357164e-01 -9.032297970695973843e-01 -3.756993354043329236e-01 -3.947064503930204360e-01 2.021866450045166352e-01 3.141795763606112790e-01 6.497029957257905997e-01 8.155304561070544356e-01 3.013232858238618639e-01 1.674843557698944552e-01 -2.051864586516925493e-01 9.420502747353588502e-01 -6.864637123728930534e-01 8.132120358162617801e-01 -3.710464354360596406e-01 9.283078696952855313e-02 3.933909766223783744e-01 -5.144867964582220399e-01 -7.054245259066638241e-01 4.564643538505959441e-02 5.940673904953972517e-01 3.884052202489304828e-01 -7.526511322496806100e-01 8.051688074582908916e-01 -5.301804446798134840e-02 8.907201410585383616e-01 1.155099932630247739e-01 -8.003308627134968489e-01 -6.081418728198005885e-01 7.350470370573763956e-01 4.061488101533255457e-01 7.515343591046999006e-01 -2.958365537376972387e-01 3.867124333103746925e-02 3.486498649447548059e-01 1.890986049132867275e-01 -5.598626537659517899e-01 -1.147655296817463449e-01 -4.813373372313052845e-01 7.144135333743557581e-01 9.772369777926914747e-01 -8.520416544143011306e-01 4.194649306477680195e-01 -3.227471009421962189e-01 2.708476210160127851e-01 -4.877804978318884821e-01 2.617196094337190249e-01 -2.903492486549641427e-01 -3.722769572191560461e-01 7.949473231567062426e-01 8.964323439618058220e-01 2.313588061459643797e-01 -5.799602654108440003e-01 8.819001678170338421e-01 5.067204315704474382e-01 5.089991246100581401e-01 -5.639738061837148431e-01 7.012937119935210850e-01 -5.362808966073530081e-01 2.608782833062571749e-01 4.352821906088051862e-01 4.786945753651474234e-01 -2.307074937419234806e-01 5.174473687510207087e-01 7.997737556857665853e-01 1.676290137356281351e-01 -8.018156195987958812e-01 -7.313633094370679544e-01 -7.962536275629261695e-01 -6.708928067646011684e-01 -7.620790287716526779e-01 5.719712032225833243e-01 -9.060779154287270654e-01 -5.061257893165747035e-01 7.356218623286812086e-01 9.296189486320323159e-01 2.157847178038675984e-01 9.430661129812415444e-01 -9.136300871075372365e-01 8.836867919978961261e-01 -3.815293360228673158e-01 6.105812155985723688e-01 6.209764425342944039e-01 7.315087431333662238e-01 -7.645768511747440266e-02 8.783243750024664065e-01 -5.088474336455670599e-01 9.047794378824268735e-01 2.414637436413266947e-01 9.804124058552184939e-01 -9.065784069999198724e-01 4.170883788752836607e-01 1.121328160279176367e-01 -7.940735780310048328e-03 -4.747562321340047520e-01 -3.472983188534700116e-01 -4.939856008178737379e-01 -5.572525753043371388e-01 5.921980989142899832e-01 4.928423990871697545e-03 -8.411417126024642865e-01 5.141297079473208242e-01 4.051118515130483488e-02 4.768221223038323076e-01 4.663679306239607025e-02 -2.097992845209434576e-01 9.790163406709073701e-01 -9.455911886549552836e-01 8.438233043883378581e-01 8.623352263920355254e-01 -2.020745955124137738e-01 -5.532942067627759641e-01 2.143805245278234406e-01 -6.322315633718699202e-01 6.152000054897174275e-01 -5.045945906922827406e-01 -4.096559886258752670e-01 7.975791682212248768e-01 8.002456640679147526e-01 7.966232842279144521e-02 7.044465573936423697e-01 -2.975487142176824196e-01 1.039008768909045255e+00 -1.461120896115480072e-01 -4.006011466805592391e-01 -9.568568573697775470e-01 9.737880861267785848e-01 -3.021076901626741987e-02 4.655037826479377361e-01 2.697347680823639626e-01 4.592172670618563379e-01 -8.626526946398483942e-01 8.489908330395737890e-01 8.370828326513188866e-01 1.083255407236191903e-01 9.125282501534184298e-01 -4.214064367492663110e-01 2.034939217462424232e-01 -2.305882735707828757e-01 2.603803971148606067e-01 -3.836533826919553136e-01 6.897935647883235433e-01 -8.650500230875077801e-01 -8.974491469566858726e-01 -8.880314774602805494e-01 -6.977887795169167573e-01 -2.322546434478679478e-01 9.232243575237647493e-01 -8.067786097281718360e-01 2.959540586186165112e-01 4.839326006289946386e-02 -2.800627459351969772e-01 -6.122769837365217294e-01 -5.570460599727345974e-01 -9.174019575194981568e-01 4.187105909589600716e-01 2.883993983315896181e-01 -1.305026700121964811e-01 4.650042344288720653e-01 -7.813129696281545522e-01 8.672396219567138909e-01 7.014851293003763200e-01 3.123497302800757325e-01 -2.593192234436196841e-01 -2.166644687272851200e-01 -3.978955178497572964e-02 8.567181853823458981e-01 7.449630994674600881e-01 -5.217779335050198863e-02 1.256433104685342750e-01 7.641483716084473965e-01 9.549478527314120280e-01 2.790580841895373698e-01 5.016831494611331266e-01 -2.931521287984062973e-01 8.434772797419302082e-01 6.759485262224576019e-01 5.634492176714179373e-02 7.156936412709710149e-01 6.989958315554192225e-01 5.983308480699077725e-01 -7.497793425886438712e-01 6.834054847506068620e-02 7.997464441138090185e-01 5.452470467010381849e-01 -1.614975984473361603e-01 9.545327250257316098e-01 -5.130442331543683121e-01 -3.218251861863914431e-01 9.410946749133819456e-01 5.745993536273755753e-01 8.408359040868758072e-01 -9.763572055049800635e-01 -2.322760241137524218e-01 -5.429114218571018391e-01 -4.080765807315391291e-01 4.541699531369893794e-01 4.545073002798638018e-01 -8.297910224320359518e-02 -2.552811124371597851e-01 1.540022530240216792e-01 7.880488347758597689e-02 8.717552599428068927e-02 2.533636552873674841e-01 -1.972054457637804348e-01 5.329422114883141104e-01 -5.045474750352795246e-01 3.055823245713973346e-01 9.351215023818296723e-01 -9.855276307948523939e-01 4.537853565232216058e-01 -7.819070260102222170e-01 6.008995917025778538e-02 2.440250980844042850e-01 -5.406933471528952984e-01 8.043453658284639429e-01 2.502614327716692899e-01 -4.943978035531142456e-01 5.570713444793582436e-01 -7.601923308282600988e-01 1.053260722564601098e-01 -8.267043010937493719e-01 1.793675974728142219e-01 -4.880513017565489275e-01 3.153226883202016606e-01 4.707684540570059029e-01 3.344828092035058431e-02 3.736910135733284011e-01 6.049577418479615831e-01 6.180868874107575683e-01 2.067982587365934655e-01 -1.117940770446399085e-01 -2.036148528205184716e-01 7.482500164436987067e-01 4.536805372874374576e-01 -6.386135889335728955e-01 1.352479379969724893e-01 8.265424950515780633e-01 -6.905948034471055541e-01 6.949645300335994813e-01 5.946172062909016454e-01 1.956095563610426094e-02 -9.204247674816177227e-01 -7.215625608739857366e-01 8.410756248149098280e-01 -9.192254539818234260e-01 -2.903893841790782804e-01 2.885078518479358700e-01 -5.772710158762339727e-01 9.815190711481691643e-01 -6.879943005774320497e-01 7.992740967039553557e-02 2.646374183099678423e-01 -5.323491466820944318e-01 -9.388023830247166357e-02 -1.108400591042041014e-02 5.208092584107675282e-01 2.570098119817718629e-01 -7.130604291599795808e-02 3.382807798625556694e-01 -8.680904758641447283e-02 2.428159982774630993e-02 3.141776101658950715e-01 -6.469390935435292977e-01 5.525221499230305033e-01 2.011106018012258911e-01 9.760546917050304527e-01 -5.660216955470425138e-01 -8.999681879299840925e-02 8.080808371119844180e-01 2.198222742378657113e-01 4.365831496015885049e-01 -1.840728347813052890e-01 3.714420078243022560e-01 9.099521052287027345e-01 -6.024238381613621351e-01 6.006242441130623666e-01 9.338717213099194669e-01 -9.660917781723553643e-01 -5.697420433337757606e-01 -7.610067302689759172e-01 5.184363810568054509e-01 -8.196638266838925935e-01 1.012541864883527820e+00 -2.278984558891149204e-01 8.266399173827420066e-01 -6.414244373260893362e-01 -1.148743385859957722e-01 6.947521505319489421e-01 1.740107169651547159e-01 -3.357514613937616355e-02 -1.218845149664113392e-02 1.647475531162620466e-01 -7.816272933736159723e-02 -6.079536930524402916e-01 -8.195306380048003048e-01 -6.990873387247927839e-01 -8.757652455390577684e-01 1.165534189422731265e-01 6.810402386184256640e-01 -2.563370030936318322e-01 -8.438032728670213922e-01 -1.524133361620055305e-01 2.011877846802494763e-01 -1.700854439095378645e-01 6.307317023548456580e-01 8.440598936608745273e-01 7.516446866322367137e-01 4.111068454939051375e-01 -4.576840961900184579e-02 3.911402778596614893e-01 -9.947779589179017723e-01 9.803998750014089048e-01 -6.463170447596972013e-01 7.659768266166183670e-01 5.905030409466173191e-01 6.126989491982610669e-01 -4.490045261915064922e-01 -5.633074276757868981e-01 -1.644891352467848233e-01 6.896255186586962571e-01 -1.336734146922057553e-01 9.085744426677434538e-01 -2.803349491814238204e-01 2.491158425128193465e-01 9.300114241968336914e-01 2.850732255934801396e-01 -9.259070965414532006e-01 -7.878554902672979532e-02 -3.295904467084559974e-01 7.401917014240032289e-02 -4.289918043239568379e-01 -7.256537989184226323e-01 3.459826780024081172e-01 3.853098871414220028e-01 7.432500111507910345e-01 -6.942272520266252744e-01 5.888383677110470282e-01 6.668916226643870626e-01 2.657813271985963732e-01 -5.876536069699122011e-01 -4.815216368698450600e-01 -1.966749830110916530e-01 7.002501525182210085e-02 -5.386689348925011167e-02 -8.133116473891806308e-02 6.711261574201065061e-01 7.262177603137713877e-01 6.288772643104247884e-01 7.405489651862195988e-01 1.372163083235297676e-01 9.337063532451179704e-01 1.969917193717709569e-01 2.290153268101541295e-01 -3.562899602804770471e-01 3.899486947556434213e-01 -8.934026238729485536e-01 -7.304226221962003551e-01 -7.457856019825339633e-01 3.133139126895462256e-01 -6.575072120538113518e-01 -3.077047817057910195e-01 -8.897023203840341843e-01 -5.293772419205117208e-01 9.351782167316637917e-01 3.011804642059167161e-02 -6.932110434887432948e-01 6.505350906984952442e-02 8.689052646628976362e-01 7.704762074272594186e-01 -2.180941974151313911e-01 -4.367026328553023085e-01 5.307672250327641894e-01 -5.050520967843514786e-01 -5.025348513005852835e-01 -8.528055213513979771e-01 7.335554960578680728e-01 -7.823533434227153416e-02 1.308044363903004548e-01 5.149669720255222183e-01 6.180961478051774094e-01 -9.883021249994480839e-02 -6.508365543458305424e-01 6.478777201955137066e-01 -9.459432336864519453e-01 9.048408481566687644e-01 1.949241679468197153e-01 8.024394049157841380e-01 2.256393738117787873e-01 -4.781357130475515915e-01 -4.012838630740189205e-01 8.825613619802927245e-02 9.371253153268442881e-01 -6.504265321846969261e-01 3.578889869387739259e-02 -3.091201290826730563e-01 5.373868184710951512e-01 6.261545788189846196e-01 -1.467259772905335491e-01 -5.628178667612028230e-01 -8.627144889577069709e-01 -5.819133234502711360e-01 -4.285257009681381901e-01 1.800532620880555823e-01 7.215014576097643628e-01 -7.540156886661566471e-01 9.255283428563699788e-01 3.776982701767466200e-01 4.957987661262134860e-01 9.988490600995763025e-01 -1.581077647785361640e-01 5.399456641434231124e-02 3.710860190817887316e-01 1.944099632972291769e-02 -4.303811285115316521e-01 -8.459456404269127816e-01 -4.362565162669492791e-01 5.343353726877930754e-01 2.840017580723287471e-01 6.225365422656278236e-01 3.350489123524256346e-02 -5.002693286382823290e-01 2.495021127868106425e-01 -4.034311935114625602e-01 -9.140123667627867432e-01 7.950492324263590538e-01 -1.448603359026821857e-01 -1.447176593585118298e-01 5.031561458285497279e-01 8.947809486644093813e-01 -8.366851298082759181e-01 -6.483875714024062153e-01 -3.353017108899742360e-01 -4.789736379743088079e-01 -3.841817857313238171e-03 6.454101609954703278e-01 7.012764778179945147e-01 2.279099784571449461e-01 -5.431993732115766305e-01 -6.318686442327022812e-01 5.217894695839190300e-01 -5.463627003025186557e-01 9.599415697315794027e-02 5.241766248743074952e-01 -5.075667402416172980e-01 -6.157929747450197056e-01 -8.921606407935829264e-01 -6.888301774536805810e-01 6.933445189372737794e-01 -7.755183902641263893e-01 -5.583381710128421105e-01 -9.317066335156608536e-01 3.458739321988392734e-01 -5.141049962815881225e-01 -1.645344894521685586e-01 -7.268850552876385818e-01 -2.186517805689426608e-01 -1.267259166590990194e-01 -3.911418673034152554e-02 -1.576508330613390907e-01 -7.824455524491409353e-01 5.678958956161771487e-01 -7.622099029411496529e-01 -1.862379519775047010e-01 -4.692713002393728017e-01 -3.982041204532955625e-01 3.371217458361199792e-01 5.228238418994336258e-03 -6.337277125797111665e-01 -4.920758452074650013e-02 -3.096119014754802334e-01 4.134170950627518160e-01 -5.679390070610941255e-01 6.941471943212901285e-01 6.372330984417619304e-02 3.657202483425232853e-02 -5.103138354774886531e-01 -6.035988121279830532e-01 -6.565973948030003060e-02 9.990623369085473993e-01 -7.433352001575856960e-01 -4.645705138765794939e-01 6.121782664908669291e-01 3.466783673031755275e-01 -4.176182111672980812e-01 -3.729135533150511050e-01 -1.858987728377999582e-01 1.990059748525608019e-01 4.360078759565944040e-01 7.292993232424807015e-01 3.779732747284541006e-01 -5.004959173390468585e-01 9.054147286024442076e-01 5.726017705987255235e-01 -3.787204675767544826e-01 -4.073023749439836361e-01 7.273744895028780855e-01 -7.458955996911095232e-01 2.263060390455071125e-01 -4.494636156481867650e-01 6.720239415169478869e-01 -2.611990275865163635e-01 4.777801932080654179e-01 -6.128712742155245641e-01 -6.725984134526988290e-02 5.958799239113720114e-01 -2.004870612957142806e-01 -6.790210585758349460e-01 2.795071479120936342e-01 5.101924107051227786e-01 -3.942570424923134143e-01 -8.809055618465887194e-02 8.281367293271046925e-01 7.445105540361531826e-01 4.191844637491755066e-01 1.789833550369408777e-01 6.362131562873424295e-01 8.492764158663250740e-01 -9.767422992375680568e-01 -2.184453018893592058e-01 1.067150106749158722e-01 4.841055746337982746e-01 -8.206861940825284085e-01 -2.837434257010317817e-01 -4.334854407371263596e-01 -1.292520614158528813e-01 1.783734239423136192e-02 3.156203127736365577e-01 -7.217079794754277522e-02 2.350487851153061081e-01 1.645700519440131682e-01 -1.557916415717095215e-01 -1.007283394260541698e+00 -6.119849517459267085e-01 -3.888123001926233613e-01 -6.893984826447228098e-01 2.117019939542962859e-01 2.263523370809021606e-01 8.083359858033991110e-03 -3.504895941428690653e-01 3.181551429581120916e-01 -6.011958483069134163e-01 -9.951302660079255347e-01 4.461591550025699182e-01 -1.419535905424711419e-01 4.007120176578515269e-01 -6.323556782947638011e-01 -8.425276608764745712e-01 -2.388301600200044006e-01 3.814423530707707899e-01 -8.100184827263401388e-01 -5.942760347707433111e-01 -6.420718259563663877e-02 2.593896594546306611e-01 4.759813761503657314e-01 -7.822271309533008754e-01 2.574913939519825057e-01 -2.465341283244719961e-01 3.280752769738091712e-01 -5.776530888052563428e-01 8.315746394743098180e-02 -6.779212019290611346e-01 -9.215738855301139898e-01 -1.318009337306078402e-02 -6.313988879866651027e-01 2.544086919443874217e-01 7.442539153170837918e-02 5.112463402045728245e-01 -2.363871282098451987e-01 9.690101718370359718e-01 2.363367008717961668e-02 -4.805005046316986050e-02 5.026597771134884152e-01 1.302264851121990030e-01 -2.864388118369061709e-01 4.485641319718078682e-03 -6.238121840492639736e-01 -2.337073584136442339e-01 -9.428147962112772840e-01 -9.594933791955018165e-02 -4.308652291336311224e-01 5.975089317021377994e-02 -9.101895368530665831e-01 1.126002331919288280e-01 -4.231594612373550945e-01 1.562359485667011438e-01 4.387727388671747719e-01 -1.189058514253527321e-01 3.284256600511334945e-01 -5.118777004507132355e-01 9.518559398705959129e-01 -5.250755372395563558e-01 8.783148292190713358e-01 -5.527726386150771942e-01 -1.534975828750486174e-02 6.091403628190018571e-01 4.264351662082699890e-01 4.431626014372473388e-01 -1.205227043672213311e-01 4.925169714802468124e-01 8.390644210063120667e-01 -1.291610828167734093e-01 3.798080884373282451e-02 -8.719940391446646677e-01 -2.289652893038423287e-01 -2.294402065761502046e-02 7.810890927499226644e-01 -7.781655527363714464e-01 4.268769258397811517e-01 8.107032698020459616e-02 2.243552601256376122e-01 -9.470618753939962220e-01 -6.917289028495287040e-01 -4.445852719964875632e-01 -9.855107506608862256e-01 3.349143276753274723e-01 7.425310472105950410e-01 7.522647742224232437e-02 7.899561705499946740e-02 2.487264290760219654e-01 -3.968101073564482828e-01 -2.736858090808992894e-01 1.398040579160887698e-01 6.065988994027391445e-01 -6.176762266745493557e-01 -3.739132529799650828e-01 4.829920129715308819e-01 -3.358286638284786463e-01 -9.050240861487918176e-01 -6.863222621092949227e-01 -5.901630628218798025e-01 4.627897492882355329e-03 2.651034265718684724e-01 7.838748230637175851e-01 7.867564135467084441e-01 -4.071423452644569174e-01 5.067950550911454188e-01 -4.399995751207515515e-01 -2.509321489648627668e-01 -4.308405121145474359e-01 -1.609789160194794178e-01 -5.584023126839154916e-01 -3.714622741914195281e-01 -7.087018397120457003e-01 9.451561515262469904e-01 1.039836899253558482e-02 8.482556492372006485e-01 5.246698292633398264e-01 -5.656884224184758475e-02 5.026764016892536491e-01 2.307145627607744831e-01 -3.938812810172360734e-01 3.157664366584224391e-02 4.268764554622410667e-01 -4.132612750857589945e-01 -9.314536205387692336e-01 -4.045368552891439595e-01 5.893949587593434458e-01 8.795841753786586281e-01 2.332172941793562715e-01 -7.590438516597850516e-01 5.310450186125844629e-01 8.675784679006558198e-03 4.764812415999215567e-01 7.614879387556191537e-01 9.016166190218516396e-01 3.076968044989327189e-01 7.080419844938785623e-01 5.010901103123636124e-01 4.143893450692978098e-01 7.281323028164561340e-01 8.065488306499125626e-01 7.718471015441528138e-01 -2.349990293927136653e-01 -7.997119136128615358e-01 6.172136924718792939e-01 7.874490430192584989e-02 1.100913312717793774e-01 6.449305952349069226e-01 -9.668390465558814872e-01 7.648584664709711101e-01 -8.933758121610478886e-01 4.251957805754627007e-01 1.698669191342154217e-01 2.908451718525154606e-01 -2.408023583319643113e-01 -4.503336642569757409e-01 2.641956097264252720e-02 7.683580159865642800e-01 1.050650488861313292e-01 3.677442524175556504e-01 -1.187838533707071820e-01 9.474271411008559074e-01 4.846050888082487629e-01 -2.996467418962863172e-01 2.849458888484049379e-01 8.456537607874124729e-02 7.748255942440136490e-01 -4.763234347269797442e-01 -7.825744578571296461e-01 -6.323826529253375739e-01 -2.365076749115046506e-01 7.347118888342403231e-01 -5.035746852400179163e-01 2.607073939220028724e-01 2.377314191702386836e-01 -1.803185279447011014e-01 -9.042734085900311358e-01 4.947267521146503921e-01 -4.017098822401085068e-01 -2.428176448843730184e-01 -2.261702339079919299e-01 3.129430370511295800e-01 -8.185696430780454724e-01 1.175052069870271415e-01 -9.870198903786554512e-01 9.763447060381182929e-01 1.849289711798026148e-01 -1.867656015023295979e-01 -6.858497949096840074e-01 3.800597293738007809e-01 8.193807871667043718e-01 -3.253879456120152280e-01 5.655839328672108701e-01 -4.461758505888071547e-01 9.148231643601565377e-01 4.210956397345326230e-01 2.360683920652453804e-01 8.457625631152677625e-01 -4.547015252005660590e-01 8.537381041219465061e-01 3.430375982255182143e-01 5.520602129978259276e-01 1.263207235553438224e-01 6.814618082100104557e-01 3.826196217496217744e-01 -6.998298198950200222e-01 2.138436365688810847e-01 -4.365492392572105640e-01 8.471654156523699131e-01 -5.874405357076140088e-01 -4.502337909174368158e-01 -8.806325929021034948e-01 -1.267612192154452533e-01 1.139606872600029408e-01 1.792031201459935164e-01 8.134071816027500512e-01 -2.711695776962620985e-01 -1.405244699315329471e-01 6.763728337773019517e-01 1.551585864135120174e-01 2.759042047823033750e-01 -4.244619681080617490e-01 -8.172998641486644731e-04 1.867742903595394910e-01 -7.012679922467333071e-01 -9.271893585708740337e-01 -7.590477127181339823e-01 -4.342417539242542784e-02 -9.588843000450064658e-01 2.578006058572235859e-01 -8.077172390389818490e-01 -5.175769245034597121e-01 -1.951029608705966145e-01 -7.421364279145422627e-01 -4.799146966863590547e-01 -9.733939111094285224e-01 9.622352826055153852e-01 1.783433740815521806e-01 -2.204342451415371995e-01 -9.495512117966864452e-01 -2.442727760237069223e-01 -8.854706204094424382e-02 8.254023984874648834e-01 -4.644618907644492700e-01 2.542528402798220344e-01 3.401185262797002951e-01 -6.280662953271828330e-01 4.677616428057623961e-03 6.117081592785433841e-01 -7.745295167623128529e-01 2.209310012877090112e-01 -9.752561147961562593e-01 -9.671822337027735639e-01 -8.694454961911701751e-01 -3.613037840537884626e-02 8.684026744068505943e-01 -1.897438296524448786e-01 -8.448985179812379398e-01 7.219054931889843374e-01 4.051486272933808863e-02 -3.767553917315519252e-01 9.306300553478029647e-01 9.283988222086899667e-01 -4.871127041852987838e-01 -5.967946613179746507e-01 1.664545124493704842e-01 7.055331749348253689e-01 -2.630722627508827460e-01 2.048179416308688050e-01 -7.230311118434965545e-01 -6.090402406830991433e-01 5.351838452593611350e-01 -7.076459166701829506e-01 -4.793150785270920977e-01 3.864277605341663868e-01 -9.626931422721849430e-01 -9.398990796714353779e-01 -4.462208115316611545e-01 -3.565151071748495770e-01 -2.624412813066875350e-01 6.237621963552912874e-01 -9.239646586017635776e-01 -2.938849732965131967e-01 2.590784113819150081e-01 -7.678156861585703208e-01 6.795862000940696701e-01 2.890539144798899840e-01 -7.928263387201121004e-01 -6.120835714591442711e-01 4.715955970540126052e-01 -1.585947278889131840e-01 -4.494833622896581005e-02 7.452861068752094642e-01 -7.210732591308717243e-01 9.627020457268320452e-01 -9.025151650982514706e-01 -7.945876401968031688e-01 -5.487099889559924337e-01 6.009097227087210058e-01 -1.170778853000407072e-01 2.767960465275662862e-01 -6.435969667169979536e-01 -6.519972139007628176e-01 5.781057727192509543e-02 4.375870205129887558e-01 -3.156014533002055034e-02 7.481802201335352454e-01 3.235237680981595254e-01 -5.314299366892696330e-01 -5.290108532155433085e-01 -2.883973057912708748e-01 5.298111821270603539e-01 8.720882839908649098e-01 6.967343667920390393e-01 -4.996716584880065981e-01 -1.738845781544066382e-01 2.086311339909182605e-01 1.053134506223641631e-01 -2.404475858487302442e-01 -8.414193215396802428e-01 4.447159386617932086e-01 -8.292738705243597463e-01 7.476491080898091113e-01 7.318055998016944619e-01 4.446593977408270781e-01 2.449957235475198197e-02 3.771130073048943876e-01 -1.926938266567999325e-01 5.847712005064662488e-01 5.716118059208715740e-01 -7.064700469628673041e-01 -3.291169598586221601e-01 -2.998830339203543693e-01 -2.824851650346923426e-01 1.410710765637702979e-01 -9.564758944401042795e-01 3.236449115151305289e-01 -5.927956663128590709e-01 -1.788542469632424803e-01 -9.771367647117017163e-02 -3.083358158540608351e-01 -2.439029789581771135e-01 -6.276291608746005224e-01 -9.033197374080229602e-01 1.055574975106172431e-01 1.837120910133983875e-01 -7.056727856433731016e-01 -5.274396805620139572e-01 -4.597282514962676148e-01 6.381095605954169026e-01 -7.046301614066704522e-01 1.149545775719109930e-01 1.376627214081597439e-01 -3.161035859941794257e-01 -2.520186658612441066e-01 9.157626354990051620e-01 1.151497963164565541e-01 2.762341151333119749e-01 -4.526564677905097617e-02 3.023520768992125074e-01 2.209407606534012636e-01 -7.283945576919500509e-01 -3.322100940181028639e-01 -9.787156467385192682e-02 -7.452578447551483354e-01 -2.716823813776355623e-01 -5.667825395631002072e-01 7.114480963470571906e-01 -3.270619787605824613e-01 -5.889345447498366415e-01 -1.564111761450448779e-01 3.564016706000148194e-01 -8.829340186868862572e-01 -6.217320851937188086e-01 4.078975975738209359e-01 4.681267005340566945e-01 2.353147557100696841e-01 7.642424698150482865e-01 -6.675767264467273865e-01 4.342357775788264207e-01 7.831931320991964984e-01 -7.112870652754654799e-01 -5.639930587512251847e-01 6.754146153208734349e-02 -3.299691674602686087e-01 3.799095213958390005e-01 -9.152178427425678997e-01 -6.855252230751118780e-01 4.225599733949947368e-01 9.173539846767132522e-01 8.199645304256315548e-01 8.051898721615293741e-01 -7.353867788521081250e-01 -6.977494943118638382e-01 -8.511288804652300533e-01 9.001263042400679815e-02 7.645345265787013567e-01 2.736083483551023099e-02 5.419476892094415854e-01 -6.320290192443116517e-01 7.317435716429394610e-01 -5.908710388468542130e-01 -8.717515526953690808e-01 -1.610487112036927959e-01 1.166467675334432602e-01 9.791944841124922139e-01 -8.304428107207666443e-01 -4.835001716377287928e-01 -8.026491417494314717e-01 -2.444170766152697905e-01 -4.192458773391800619e-01 4.617798536158958245e-02 -2.943469094390497864e-01 8.400323820294075539e-01 5.727018894155774253e-01 7.291855534941962258e-01 -7.524958152909336784e-01 1.468344950043584951e-01 -5.799551558543761809e-01 7.615122412110653105e-01 -9.577285292333601596e-01 -7.727138219002754882e-01 -2.506423153725866881e-01 -2.068367184111375989e-01 -4.485828879870177865e-01 -8.004712219415265340e-01 -7.630603477412819524e-01 -3.587837902316846073e-01 9.033568460338318173e-01 -5.712970167806137312e-01 4.951484204745144058e-01 -4.621466144162369449e-01 -8.902711213789031852e-01 -9.684501204059092760e-01 -7.015926170462474243e-01 -8.386525582051060357e-02 5.118491930211319652e-01 4.286958386159385737e-01 -2.672792689802201971e-01 -6.173808551306034925e-02 5.997966940335892616e-01 6.843693615945971587e-01 -3.700360477049436936e-01 -9.719259642800197607e-01 -8.957146146641464801e-01 5.007422124125856522e-01 -4.696792073285091518e-01 -4.172013162476994469e-02 -6.162325743718374271e-01 7.146842561412106720e-01 -3.580893000150183608e-02 2.892532748618572083e-02 -4.246252413065056963e-01 2.041800480106720564e-02 -1.013377992054732335e+00 -4.699104227419098612e-01 -3.132366351191869791e-01 -4.357200749206054935e-01 -8.450002833308084549e-01 5.811466190533167570e-02 5.718819006642248404e-01 8.507831641914709309e-01 8.879981843089933269e-03 2.311127329818991882e-01 -4.158529657641626409e-01 -6.932874423765368332e-01 -7.182436769750365491e-01 4.547542320267098925e-01 4.427873882904271308e-01 -6.800955199541650620e-01 -1.889858468109884004e-01 1.903116948869516267e-01 -7.515617361714078681e-01 6.114646695208512117e-01 2.000078116185381449e-01 2.405381879357381680e-01 4.068742016575062626e-01 9.730494061225629654e-01 1.262375990427253292e-01 7.281300971745939821e-01 -1.468199083606030186e-01 3.183312381822209769e-01 8.444618555868039778e-01 3.325880861387833232e-01 -4.118957926176750051e-01 2.338234416075591904e-01 -2.538294020884265811e-01 -3.460568291000303831e-01 2.575160147347516637e-01 -6.606203421098113537e-01 -6.684185414270625569e-02 8.948412854890217538e-01 -2.367744263661873960e-01 -5.884818442370465252e-01 -4.652696539472219589e-02 6.862307277071360012e-01 6.683962060124085669e-01 6.861105788138310846e-01 -9.928290079768381515e-01 -4.737009996290977298e-01 1.020440359473737457e+00 -7.581666853271599171e-01 8.340237775904112139e-03 6.130750996756286764e-01 -7.135443417103839447e-01 3.290119201783963665e-01 -1.709981663313977704e-02 -6.003595688902615413e-01 7.671860550611263596e-01 -6.400527482448601369e-01 2.801406863675345860e-01 4.518321434140102344e-01 1.371974586758686887e-01 2.534672421148091992e-01 -7.659000026492105428e-01 -3.934742095750614621e-01 1.654761884814637540e-01 -2.220560447895144063e-01 3.338773529644623594e-01 7.101105276906616304e-01 -6.123527085512289192e-01 7.993389998559176091e-01 -2.470412009638775219e-01 8.838807930719121408e-01 2.299419716965437621e-01 5.815801611628850232e-01 3.356828570492328967e-02 8.236807262870145252e-02 -3.592530784430098545e-01 -7.398104304548941412e-01 -2.271880980435343755e-01 -5.818345596645615458e-01 -9.377038075401576966e-01 -4.475819410474430882e-01 -6.551761685443047156e-01 7.416031936788274326e-01 -8.521927196530537651e-01 -6.304324101119270773e-01 4.381582505888825807e-01 8.390505457162124037e-01 -4.911929113226743970e-01 -9.629553875838948729e-01 9.095405520874123573e-01 3.539003250770257902e-01 -3.834009826883219008e-01 -6.712614220872578641e-02 2.077462052412319127e-01 -2.333161399240214484e-01 7.629341678432879359e-01 4.643535679504322555e-01 9.400063779196397018e-01 -2.894178449147932763e-01 8.976056397521841035e-01 -4.694037528800300285e-02 2.729747298384757603e-01 4.915920596465245263e-01 6.074863342942404820e-01 -1.601349789985453409e-01 -1.164894124959774402e-01 6.169528182105341596e-01 4.785538887502824856e-01 8.630713393376377995e-01 9.949232899969931987e-01 -6.532048404375300210e-01 -5.222282763722266852e-01 4.481069705255336100e-01 4.806468003039046644e-01 2.465523340664786400e-01 7.713872396507264195e-01 -4.680502822849538780e-01 -3.291181801254206563e-01 -1.484484726256912399e-02 -3.379376526885847221e-01 9.272187629468334191e-02 3.702585453792071046e-01 -5.643160017425643549e-01 -2.286171966326688496e-02 9.705669653811286324e-01 -3.573802005468335596e-01 -9.353922676108532563e-01 6.381166522472175862e-01 1.290161986166898228e-02 -8.612759089363178910e-01 7.856966350421719092e-01 -1.929502418515466056e-01 8.378931234928242988e-01 -2.072147491569656386e-01 -8.457561506242500249e-01 -5.180442533777974701e-01 -2.593560636453849932e-01 4.845657891924306515e-01 -5.699454119330359392e-01 -1.421137296510841530e-01 7.415518361032360506e-01 8.639544405588686637e-02 -7.890581520768982227e-01 -9.467522288918150952e-01 4.102374201104359575e-01 9.562462596768549483e-01 5.634328565236388364e-01 5.167711218466198853e-01 3.546531847935283088e-01 5.599977513650513661e-01 -8.846796342229142907e-01 -4.583935913783247496e-01 3.792558309064076871e-01 7.584755399530832554e-01 3.401891254054606462e-01 -6.540094302059871190e-01 8.862117064201379124e-01 8.068415248828707531e-01 -8.111422873772048403e-01 -6.384511772369403371e-01 -4.442997684882318832e-01 4.826472650284160948e-01 7.016775521703491059e-01 1.506104868464581414e-01 -6.024791226788016596e-01 -1.850187164533998452e-01 -6.972564099200339038e-01 8.312713241214774174e-01 5.280984193328428500e-01 -2.896862944966478379e-03 -7.397637863922132406e-02 -8.377089647632163238e-01 -3.714277075833543051e-01 -7.735105617615135598e-01 5.774381676179569656e-01 7.496813711669990388e-02 -5.540751831069176125e-01 -5.783864063504231545e-01 -4.867583502391892858e-01 -3.857010136302721492e-01 -2.231984210587022732e-01 -3.710460611586489099e-01 3.569629786739689781e-01 -9.076666529008341477e-01 -3.111720589000021575e-01 4.682677440208753428e-01 8.525140239198060188e-01 5.921585377969106334e-01 -5.139581853189884031e-01 -4.953233427001795808e-01 -6.337329871349659527e-01 7.546336796745530817e-01 -5.310401446319362728e-01 4.944892018224225083e-01 -5.026633774991527970e-01 -9.352901006103960801e-01 4.550019026528419608e-01 4.567557253739429890e-01 -8.354114653829248782e-01 -3.394364347012021610e-01 9.050667496299215076e-01 -6.771603974237201395e-01 -8.084911555557612317e-01 1.986046855946685674e-01 8.602214809291444109e-01 -7.468438639905785603e-01 3.622846630033591149e-03 3.293888889467405101e-01 -6.710769086135369710e-01 -9.877311798930198394e-01 8.164363900206857982e-01 -9.098882034814501640e-01 -4.829408822445942495e-01 3.115118356325888849e-01 -4.359342333129472280e-01 -9.524580915627538502e-01 1.430012003529515241e-01 -3.816911927470100774e-01 -7.229442928322891149e-01 9.480642271218259198e-01 -7.034842924282360688e-01 4.688967062081079162e-01 7.988168970904432342e-01 7.332445218276852916e-01 -6.452779978133751371e-01 -5.746065647702760515e-01 -9.685574090576037909e-01 8.529774193082662048e-01 7.999420933360535946e-01 2.014294271018472748e-01 -7.477001838663603905e-01 -6.274394208346316670e-01 1.486030977081720106e-01 -4.746228101336020799e-01 -3.559331715511289129e-01 -6.942591984674753025e-01 -6.271785367303427394e-01 -1.002054732313886615e-01 -2.017867620432019574e-02 3.027260051390227164e-02 9.805161003182716328e-01 -7.229389921319725465e-01 5.378984624154385941e-01 5.634966494873177023e-01 1.879631519944108542e-01 -6.506558661836663038e-02 7.656302243619366177e-01 6.433329349342278292e-01 -8.952035457334254209e-01 9.058948029915457889e-01 -1.012831320456287321e+00 1.441933975991939176e-01 1.388947631722840526e-01 6.728976615433410746e-01 -2.221981703209267578e-01 -8.025882440303154786e-01 1.483257870366505582e-01 -9.562823034828132895e-01 -2.529108689382868480e-01 9.599827121118199580e-01 7.425723670812005572e-01 -6.933542825179481728e-01 6.101974894093641355e-01 5.958003311001229818e-01 8.582516766061959457e-01 -5.643133837156858457e-01 1.270311227382818139e-02 6.578235570264293619e-01 3.321567183961876002e-01 1.778821337078102249e-01 3.001654746526922768e-01 -5.221015923835561345e-01 -9.255772273537344885e-01 4.783772537458045870e-01 -3.511931996985758198e-01 -2.271484566309696362e-01 2.399423247100029855e-01 2.983495261854740566e-01 -5.993151109498040530e-01 6.635294907401987352e-01 -2.405016419184015930e-01 2.659540626497175486e-01 9.804517055432880879e-01 1.287115925278222439e-01 -3.048579488071219701e-01 2.287460928074868116e-01 -8.222320200691708020e-03 -9.064352047043579275e-02 4.864607699859051504e-01 8.409982156667725750e-01 -3.281369529897460585e-02 -7.997462496395182363e-01 1.355773732722876102e-01 -5.203430286838259811e-01 -8.781182852669829897e-01 5.842590391194115718e-01 -4.489896722066453183e-01 5.464280814423637667e-01 -3.100023209947301225e-02 -3.858327263044853961e-01 -3.514758119041292983e-01 -9.213592709617127730e-01 7.066009609625460708e-02 5.933752124932853977e-01 -8.211272705622498780e-01 -8.124692931957585573e-01 5.881069976606523309e-02 2.868427313568995274e-01 4.157188842007020213e-01 -3.846439446691162778e-01 -8.957495106104816918e-01 -1.457102633171335482e-01 -5.990327318328174666e-01 -1.008284618280363087e+00 3.845679641347313216e-01 9.023854488123216333e-01 -2.074575302476500127e-01 -3.638995656022546155e-01 1.258571128195613564e-01 7.046008864110436809e-01 5.756072012806240368e-01 3.852001826420621278e-01 -1.101796805498174575e-01 3.866038548316405588e-01 -5.749335157453000500e-01 -4.205159996016566981e-01 5.564719376348905566e-01 8.537559560303557005e-01 -6.371109511541759307e-01 -3.753607220798624855e-01 -9.971471615298768132e-01 -8.628338781183396422e-02 -5.740602438610855618e-01 2.587005106665953846e-01 4.283246447363253107e-01 -7.586565133523255344e-01 -8.664086606021682568e-01 7.997745138212581928e-01 -2.241116443893924337e-01 7.769419703397824339e-02 9.176700989279479304e-01 5.196087368168303966e-01 -3.451267975476391414e-01 -8.263575302291881197e-01 6.758426656219775064e-02 -3.209132249516606361e-01 -9.399278614804285059e-01 5.414244046319700576e-01 -1.939089424826830055e-01 1.724999294705533703e-01 4.931410987359930442e-01 8.798693557148310473e-01 2.300637420313281500e-01 -3.962225754660069210e-01 -7.733589398286455641e-01 -8.550886353997593226e-01 -3.834028738873075937e-01 3.557435979449766750e-01 3.865115260436380873e-01 -6.023048282056049363e-01 -8.379662383786704583e-01 -3.707919794266690272e-01 7.579028026864503831e-02 4.784034934691771546e-01 7.453870534687984106e-02 -4.376857828808142226e-01 2.365504738694894082e-01 -4.317065616910446546e-01 2.768268404759184342e-01 7.240349585496369533e-01 3.321772668426679065e-01 1.289265313558203840e-01 -3.716403128426604141e-01 7.834926202541306894e-01 9.769331503446871956e-01 5.375280972379443689e-01 1.712083645268758225e-01 -7.151148752889361360e-01 -3.542948222876391440e-01 -3.067146269427787342e-01 -4.152896500153176462e-01 -9.091977078570813442e-02 2.131460072505700354e-01 -5.871343726527996632e-01 -5.082776382534772708e-01 -7.742666499145147707e-01 -3.968387829977536585e-01 -5.779173201615612522e-03 -3.552441249510816107e-02 9.927251010452556867e-01 9.696997927920962823e-01 -1.541378748043334690e-01 9.477687406177660590e-01 -6.146156470066440614e-01 9.669222481685740833e-02 -7.348714203416215063e-02 9.344896186665054838e-01 6.886918962920558496e-01 -5.855154859760851593e-01 -1.176372586165261164e-01 -6.496713439345160879e-01 5.692898129982714578e-02
5.945483303116920748e-01 -9.239786530189293412e-01 -6.173901310912879303e-01 9.447240368712056524e-01 9.197864258320463948e-01 1.010047284796591616e-01 2.958390869676169599e-01 -4.560289870668543522e-01 9.065107792420793453e-01 3.304450193953460402e-01 3.420963710535279145e-01 -9.789145015459684851e-01 7.015908525315733835e-01 5.462872746750361275e-01 3.629413757657811712e-01 5.013296094797760061e-01 -6.770126056890664046e-01 4.399230505736216323e-01 -8.248408252516684636e-01 4.158901649348153429e-01 -1.024373329411913724e+00 5.339675116691503520e-01 -3.526142230911271237e-04 -5.922140475608747012e-01 4.496357864919424130e-01 -3.676850742686645357e-01 7.615902361401545306e-01 -6.357550635412820839e-01 8.679568823535961375e-01 9.477649543715109814e-01 -4.111063438718119412e-01 7.060661947936425209e-01 7.219234663325645451e-01 -1.315248370499402242e-01 -2.783433990409253100e-01 -4.400602148335266972e-01 9.916314463263724566e-01 -4.869382047975537309e-01 8.501213288024057624e-01 -1.354599236896764924e-01 8.780607097357930879e-01 6.816632764228059971e-01 -6.793043329548769105e-01 1.473207642916062599e-01 3.348312756814462721e-01 -1.893561068895206756e-01 -9.717313486556806712e-01 -3.819286090133308664e-01 6.758209312728871154e-01 -8.827670459883879550e-01 -7.846779518259867636e-01 3.980205603296111394e-01 3.483021771259234289e-02 1.234120730458468460e-03 -2.378447393724679726e-01 1.877553525278715385e-01 7.088236818064437283e-01 -4.570955359686495467e-01 6.820308599500071178e-01 -1.726731769172681896e-01 -1.222574081186758241e-02 4.665735767440838955e-01 -4.806285727970580623e-01 8.591812198808903567e-01 4.290550773757859093e-01 2.318777106342857497e-01 -4.670750235802402228e-01 3.940315480972721440e-01 -4.887810181632757378e-01 6.358449598216683318e-01 -1.006779016175691321e+00 -6.682360838503682565e-01 1.166749322326010169e-01 4.096801940974097445e-01 -2.394343898259763612e-02 7.539140831679722599e-01 9.466687585216408962e-01 -5.055865706579486252e-02 5.330034012344064820e-01 -2.743746519935131786e-02 3.300923901503856617e-01 -5.558384413107558819e-01 -7.795652686228102812e-01 9.572358501138249487e-01 6.471041393898501193e-01 -4.533362182817864405e-01 1.804898151961266406e-01 -2.247423802640350632e-01 -6.560744420908232177e-01 -1.428726237412419331e-01 -4.022747136726346762e-01 -9.462726680294837323e-01 -2.192381126397110191e-01 8.539684397170398400e-01 6.702760796619282591e-01 1.403392948424511677e-01 -3.849520186456075188e-01 -5.056807693631385492e-01 8.763889129886331952e-01 1.636612820612461106e-01 -5.621135637751925040e-01 -4.845192218570876230e-01 9.315443895929954587e-01 -5.167553458780165254e-01 -7.814608793698492040e-01 -6.164403714561967895e-01 5.315614715328338402e-01 4.352004202856659676e-01 -1.145071612354513768e-01 5.823240849255663099e-01 4.731572238361315269e-02 -1.660630534940763237e-01 -7.798112232444008862e-01 7.657973250387127839e-01 -4.510247086785980630e-01 2.300649120877241993e-01 9.715447898174365271e-01 -6.051607489409051022e-01 9.316201520553593074e-01 3.028216586575208091e-01 -7.375878068103128848e-01 5.534963935619210407e-01 9.078931303802839636e-01 1.156946500404327782e-01 3.909510804085998825e-01 -9.423731942804290940e-01 9.840304262290966442e-01 -3.612041784968256786e-01 -9.473005774475885543e-01 6.248871233734392128e-01 9.375310939263301613e-01 4.672990788811698937e-01 -9.878340834102110612e-01 -8.796322746924629676e-01 1.416131062572338339e-01 -3.319393464475730582e-01 7.600356207815444076e-01 7.455714938391809765e-01 9.843305817941090385e-01 4.364507599078494837e-01 7.471144922196396587e-01 -3.392973269546963877e-01 -7.787806417889190369e-01 7.293311505871399314e-01 -3.690369692765683718e-01 -1.760836012314915544e-01 2.935943533328507771e-01 1.958403615740119119e-01 -1.614189861805063464e-01 -2.087238456018408461e-01 -7.721790515153311718e-01 1.087397333016198453e-01 -5.500361027704643302e-01 4.951201690426733082e-01 3.141310160073799151e-01 -8.637601362980653619e-01 9.746830390767160512e-01 5.574125766933556436e-01 -5.198862855015883300e-01 -9.136801885926013611e-01 -3.884690883742979162e-02 -2.900479227699677143e-01 1.267113562858458720e-01 3.161526227785374510e-01 5.941551310130633867e-01 -9.832883094977696858e-01 4.071242466738669852e-01 -4.314970775309585060e-01 9.678708420818419311e-01 6.787051092183616907e-01 1.178423671792824950e-01 2.102234393364437459e-01 -6.145221600190743372e-01 -5.365164831870862239e-01 -6.894703591038603419e-01 -2.361641465099941495e-01 -7.826158733306229909e-01 3.206010825106044015e-02 2.813017307043343407e-01 -7.612956720165163782e-01 -3.324181283455467928e-01 -8.620825767348367918e-01 5.038288824291147633e-02 3.116742934227285100e-01 2.306830079578268689e-01 6.503293526234728006e-01 -5.381886093881574906e-01 2.335932941633410698e-01 -4.086272519528703628e-01 -8.333284052101855854e-01 -3.983777787652988955e-01 -8.645100404650285508e-01 9.102374112395952288e-01 4.461774992097605752e-01 -8.052051871294959584e-01 5.672216872029971491e-01 -3.062417155457740625e-01 8.257175955811547619e-01 -1.555343548850832494e-02 7.315293619282599025e-01 -5.843786013168869031e-01 -2.661617301067092378e-01 -2.542322860439598098e-01 -7.894204623411078536e-01 -3.746792419905529137e-01 3.134469924049976264e-01 -7.106477276879061278e-02 7.692470661099638507e-01 -4.987711633719864590e-01 -3.021671890622221746e-01 -3.572844655816792558e-01 1.094197051827315026e-01 -6.561589881172033012e-01 -6.339242654918365583e-01 8.854392298508141357e-01 -2.497674764470447784e-01 1.811775895696429717e-01 -8.823122143583262966e-01 -7.117786504143516213e-01 -8.241027447310651510e-01 6.038061757729411561e-01 -7.836406826944989357e-01 4.452828340030378501e-02 -6.820808445292522171e-01 -4.476390220325311975e-01 7.823545868466449393e-01 2.672404089078174727e-01 9.433310827616812055e-01 1.904424087602550608e-01 -1.001626735228290377e+00 -1.472469512542825820e-01 -9.684158073900711594e-01 -3.627130043287578043e-01 -5.598472833070363558e-02 1.431554502057033884e-01 -5.414697347638179892e-01 1.153308791275731299e-01 -2.360891681350309190e-01 -8.538462346268895636e-03 -5.987326062258582215e-01 -6.985648540959753516e-01 5.110103350536180367e-01 -3.556994953108623125e-01 2.819638993316894160e-01 1.484486185781101197e-01 7.907662524237050183e-01 7.592901529378647263e-01 -9.088311872121024315e-02 -5.992351550033163665e-01 2.537871652043793280e-01 2.464202441761240148e-01 3.897778080033583170e-01 8.119982747687740643e-01 5.827307958658707321e-01 2.394506965792848052e-01 1.838997458418030195e-01 -5.712731120282799058e-01 2.912343921876365815e-01 6.354098927483567971e-01 8.430721065665386371e-01 8.529683970226427103e-01 1.461083808257628291e-01 -4.816459008082563109e-01 -3.398184167654628163e-01 9.950679361576078019e-01 4.853110462550013632e-02 6.268188803058112324e-01 1.945373588489225647e-01 8.285085279468921288e-03 -3.272043172082731988e-01 8.688457113382606900e-02 -9.765080139865319753e-01 7.625477291599789265e-01 1.234386971222932589e-01 -9.537079778353971804e-01 6.405114977311517910e-01 -7.347227938052145468e-01 -9.650344090719154000e-01 -7.069099262442973819e-02 9.294894532939588228e-01 -8.179577663677509713e-01 -8.906922285306391185e-01 7.714028542702735525e-01 6.238898956542676677e-01 6.535347428698458083e-01 -6.627168983645885525e-02 -1.432953893556540570e-01 -1.840461351469907247e-01 1.716029201149405214e-01 4.681858126027143019e-01 5.625089148510333814e-01 2.991603813547099588e-01 1.372385058525245338e-01 -1.810016498454427858e-01 -3.638499435493854350e-01 -4.192480048209413224e-01 -4.113697600053391468e-01 3.675361080756651133e-01 5.174170679013100349e-01 2.079352776561866623e-01 -5.353871208719719332e-01 -6.408867517175124151e-01 5.294831965796944484e-01 9.533958050602370227e-01 -9.623477686589220204e-01 -5.095220731751251009e-01 5.870176050376930688e-01 4.250448191887972738e-01 -5.175926105992648685e-01 1.217362995501709566e-01 1.604760328855748264e-01 4.198089975462045986e-01 -9.055319530386339577e-02 -2.132125957488854029e-01 -4.138873360588816164e-01 -5.248830451899838545e-01 -8.228462228865294215e-01 2.884866176824328332e-01 3.165267489340358731e-01 3.772863119829186762e-01 -9.634316195378440639e-01 -8.690565474633121790e-02 -7.609073418902189134e-01 5.485095198160972602e-02 9.765277623241265248e-01 -5.864547579936539882e-04 -2.498445960285571588e-01 6.191987574118645865e-01 9.321724938465451027e-01 -4.374915919029401246e-01 6.108959903643156331e-01 9.697961909694408078e-01 -7.680835397428683597e-01 6.331043004644655581e-02 6.309426726341829106e-01 -2.544915991451877635e-01 -1.287232624932454217e-01 4.822426073267711555e-01 -8.168681294357685863e-01 -2.731016662306788856e-01 1.312826812885962147e-01 -5.042644168313764608e-01 6.883446568888031969e-01 5.059663876073751121e-01 9.335581888860461364e-01 3.665127715888195914e-02 -7.910934058299146088e-01 8.652389793743801016e-01 6.542892050910114055e-01 9.405807927045918559e-02 6.776797602724274894e-01 7.701903338495529328e-01 5.601418453663341568e-01 1.464114290340956248e-01 2.175195516813343277e-01 6.930415911268029694e-01 2.477797216096736532e-01 -6.065024537019511053e-01 4.016142011948880541e-01 7.518857620932992147e-02 -4.717708967747729076e-01 -1.023024249053487322e+00 -5.323069826058822729e-01 3.554319907964469949e-01 7.879415041026657240e-01 6.184817422516362129e-01 -7.839813704923317417e-01 -8.828277006468635557e-01 5.231019842477553361e-01 -4.328054694311853634e-01 -4.458040110069497741e-01 -9.936252671524307134e-01 -7.818882894142430429e-01 -7.113315001649462843e-01 -6.806089973486370015e-01 -1.327471737411195507e-01 6.085781118558043490e-01 5.793739961569424057e-01 8.194650314847908845e-01 -1.085843180960133492e-01 4.097621747429359140e-01 -4.102922200649942314e-02 -9.032677028482175574e-01 -8.307892087363428768e-01 -4.996376298835157326e-01 9.569165550204001836e-01 3.891691908293700153e-01 -4.717376483265194875e-01 3.947637919278240703e-01 3.445074739781588957e-01 -8.842538810859549292e-01 -2.676519947507683406e-01 5.553192761119100096e-01 -8.343451019165628590e-01 7.672182388431555422e-01 8.618209795552471686e-01 7.162462196490174682e-01 -7.726571670404801528e-01 1.269678417583711971e-01 4.140645556171171360e-01 7.902371592648447240e-01 -8.289779256246510020e-01 6.027570400518793559e-01 -4.400023010022623970e-01 1.732349635424179912e-01 4.591470479140059568e-01 5.725664577563412960e-01 -4.056203821423131073e-01 1.984884718014131300e-01 -4.321534369274199205e-01 9.823081982148700320e-01 6.330964067659810013e-01 -1.791164410430701182e-01 7.497122224417336334e-01 4.650003426650421434e-01 8.634767353174430671e-01 -6.700410080540331048e-01 -4.180940628539813742e-01 -8.120677848508267571e-01 -3.684454424607989109e-01 -2.453602136870869366e-01 2.734146432920229741e-01 -6.892179377600834989e-02 4.235474802456541954e-01 -4.545117277927555599e-01 -6.473712508863529447e-01 -2.604453662832452721e-01 -1.211205039360753466e-01 -1.557866934745639753e-01 8.076575195332564849e-01 -4.784281640467472063e-01 -2.867842217948524675e-01 -5.518160391199596893e-01 -2.499147033766102588e-01 -2.123548809651962244e-01 1.608207610747260929e-01 -4.383905889005720313e-01 -4.802042543440646627e-01 4.317272627056527035e-01 8.160013629543223512e-01 -7.639780234538723347e-01 -6.480454144921398152e-01 -7.503722905745736638e-01 3.858989131503572922e-01 -5.774249798261396061e-01 2.219748490131163710e-01 -6.126558765229159764e-01 6.111655043984446367e-01 -3.627465402091289981e-01 3.426855561651770410e-01 -7.030100830105679988e-01 -3.886275603833307946e-01 -4.102848684228859732e-01 2.553096486518273700e-01 3.381703370549478671e-01 6.661541078440861297e-01 -6.321043108028854274e-01 5.293828698874708527e-01 4.342646932890093514e-01 1.380639205660842694e-01 3.066274427358774979e-01 -8.310990841842503807e-01 -7.020944012182150917e-01 -1.622294905725897018e-01 4.227149656603153005e-01 -6.605297862956222010e-01 -2.098473412902296387e-01 1.893895968996088530e-02 8.623432129277407432e-01 -8.851321623713944708e-01 6.833822861554706973e-01 9.795518134243179631e-01 -4.776471579357591257e-01 7.819091993187285983e-01 -4.208558289644154793e-01 6.190568985932706214e-01 -6.184618398882626988e-02 1.935030672215981018e-01 -5.013597757767660479e-01 3.764141872898569274e-01 -6.935647027354784333e-01 1.163538857869360760e-01 -2.089515651363331103e-02 6.651702814656419438e-01 -4.473219402144879703e-02 5.474807916652312256e-01 -1.880869732095349356e-01 -3.767333157181443348e-01 5.696299195146116157e-01 -1.631665929627420797e-01 -1.243916879231715851e-02 1.411350874945288270e-01 6.396426297999594501e-01 1.464491256768530036e-01 -1.909426916947998820e-01 -6.420480108192367918e-01 3.899240776916083617e-01 7.690001867025226812e-01 -8.074470664157783473e-01 -7.460386730734101801e-02 8.463946638958161905e-01 1.255891420539500536e-01 9.723888755649534588e-02 -8.837413015385007231e-01 9.002744474157547971e-02 3.026164749420891531e-01 -7.236943207033477155e-01 9.164211658724763510e-01 -6.038221278883275644e-01 3.799260531089824755e-01 -4.621686844917144432e-01 -7.805957174209371408e-01 -5.018201045537480365e-01 -3.257506819997731951e-01 -6.671068470225473279e-02 -5.461466732224733445e-01 4.722865617937377913e-01 6.178869802083921670e-01 5.797104866150439850e-01 4.232996644081419291e-01 -4.362185164732163001e-01 -6.035089205657860889e-01 -7.906076790278592226e-01 -1.854259406685706268e-01 -8.287611054684977940e-01 3.474876090172971943e-01 8.821624015482478764e-01 4.996827349993000489e-01 -7.669553048042022647e-01 -9.605361141892867494e-01 -3.268632975042926048e-01 9.925764468463539325e-01 -4.040292899852697128e-01 4.787284031098246184e-01 4.284892224353094026e-01 1.630877466763013817e-01 -2.534398448664218484e-01 -5.732318686450796896e-01 9.580827610773953174e-01 -8.664701589738028620e-01 -5.295811365938095649e-01 -3.970343773794294262e-01 8.280382286079980281e-01 4.246733819718453984e-01 -4.653960201171677413e-01 -6.611174679333939874e-01 7.649843172695203197e-01 5.754154592446109051e-01 -9.283688470990862918e-01 7.550508344410498118e-01 1.391786941696169233e-01 -7.253060193809804379e-02 3.447354714222527483e-01 -9.246159550784007752e-01 -3.267210666182887580e-01 -8.219115796804102869e-01 3.552179084758711469e-01 -2.278526374807968158e-01 -5.999931715374212660e-02 -4.326686272789249110e-01 5.947029259460301365e-01 -9.070999027743664733e-01 -4.388462909894595421e-01 1.991837428277062338e-01 5.774655584912818940e-01 2.125033478473903337e-01 4.711808847019865465e-01 -9.325708425170361471e-01 -5.037252030994174845e-01 -9.223738579047403574e-01 3.890499464063654645e-03 9.862045487019202028e-01 -9.761828027145588171e-01 -1.147648370169395138e-01 -9.834669420785562277e-01 2.179226330868445083e-01 -6.331950712934427683e-01 4.219037909312667312e-01 -6.888821047437293510e-01 6.470988573416889267e-01 -5.889100944720760955e-01 -3.186926544880424594e-01 -5.497910880830383373e-01 6.024546619271559100e-01 -2.307765953464608472e-02 7.453081809488529830e-01 -7.509512143145836705e-01 -2.062599276665731327e-02 5.345841642433623031e-01 9.588525750336023279e-01 3.608861401082872344e-01 -6.492569099307918812e-01 5.219827325557833131e-01 -8.260472225892855347e-01 5.296242578734109419e-01 6.527103302451947586e-01 1.229708376079351878e-01 -3.000644378778658319e-02 8.610353208451311247e-01 -9.953721411016400733e-01 -9.605109445006987379e-01 -5.059837863090874688e-01 -7.504148258000432198e-03 1.033453745413110830e-01 -2.750234892920857543e-01 -4.123334475071083194e-01 -5.871993985047483378e-01 5.892620058848493381e-01 -3.423215602016664305e-01 -2.376318130113286645e-02 6.352406525159286499e-01 2.245928909662729678e-01 -1.744905904849829437e-01 -6.552938443682770897e-01 -1.999900893319930817e-01 -2.439579209432694157e-02 9.732766697126570277e-01 -4.457896594512830157e-01 -6.703072422092835048e-01 -5.662531722583300509e-01 -5.672082176432734490e-01 -8.263129566773261825e-01 -2.737402730480190116e-01 -4.374049185197401712e-01 7.940497451883968827e-01 5.507038896413100071e-01 -7.742995662732835571e-01 6.775546793473233853e-01 -7.850782376818358221e-01 4.501627146380612898e-01 1.538355100294249433e-01 -8.251879953584844163e-01 8.169347935607701450e-01 7.481595344267747416e-01 6.899010418135712586e-01 -2.818735073090843368e-01 -5.562398595625166475e-01 9.995054618732845952e-01 6.289356111649474501e-01 -9.188842599894285756e-01 -2.378281600991216937e-01 6.333674513560625385e-01 5.888329951403566825e-02 -5.053169089010375314e-01 5.931544642896231512e-01 -4.762615865472506482e-01 -9.990476522549174287e-01 -5.160150679865210810e-01 9.750256051992445272e-01 3.172150280709545300e-01 -5.655176430445512104e-01 3.657140918415387465e-01 3.883443136572856669e-01 2.317205755660815547e-01 -8.948329728684945028e-01 -5.161092149881898461e-01 7.371791748453916382e-01 4.709613375138568814e-01 -6.545075550100176720e-01 -4.083845516609455051e-01 1.266331875232805104e-01 6.484629147127662918e-01 -6.105788503269511391e-01 -7.966598286312868149e-01 -2.364656885123964380e-01 8.321411177558749594e-01 -4.629861839467360185e-01 -7.632782158451185683e-01 -8.950141357639819217e-01 -2.777723869671902546e-01 -9.420032365057877666e-01 1.664169609456542243e-01 3.414974117879467364e-01 -9.491672004705413446e-02 4.740632927784272921e-01 -9.180501189007709423e-03 3.935668507154207463e-01 -5.443425320659732725e-01 4.856624866948828778e-01 2.207388567229821071e-03 4.104245543828401455e-01 -9.855706885201213907e-02 -2.037678542829043579e-02 -9.117428967952145857e-01 -1.550772114201892649e-02 -7.249674355346905630e-01 -7.120426783680398053e-01 -1.400563856717113032e-01 1.457831161362209971e-01 -3.266847950904112619e-01 -6.723526040167443485e-01 4.870148521271491227e-01 9.200432979157178170e-01 4.555209021594864849e-01 -8.312839153222730815e-01 6.736706112725049378e-01 -8.647847952821943185e-01 -1.284573912832470410e-01 8.817780063174630589e-01 -4.537572895527900441e-01 -7.507392872299648579e-01 5.383281970372669756e-01 8.540263349420890160e-01 -3.426020708231653500e-01 -5.462929295759704207e-01 -6.629994466521631491e-01 9.024523460265967412e-01 1.590416902852673231e-01 7.326327023574155106e-01 -3.670670296371561503e-01 -8.969072849546037007e-01 -7.078473648652777728e-02 -5.816080436722064206e-01 2.549631426624649963e-02 9.653133350529240209e-02 -4.350450764004778481e-01 -3.917733786700050014e-01 -9.446795272451320447e-01 -1.683615892210178766e-01 -3.707060901684374188e-01 2.299875620452827285e-01 7.213679228537758226e-01 -1.790739885709904597e-02 -8.312225071908735385e-01 8.508276922407809195e-01 6.254815616223470265e-01 -2.828815523687098210e-01 -3.393178910501370438e-01 8.809769850486304232e-01 -2.469572783812794547e-01 2.673303521047010189e-01 9.594496544359037982e-01 -9.450142816420713521e-01 -3.554521896754062049e-01 -5.412153282041656244e-01 8.324250049308563604e-01 1.111527839757327774e-01 -9.152559705614793373e-01 5.100628818347255899e-01 3.697088624183958450e-01 2.948406798473783841e-01 8.900401234650666682e-01 7.563198041620720069e-01 5.202853097341528787e-01 -5.625097109218358815e-01 -7.162837762613768477e-01 -5.668661427240334616e-01 -5.888797755837608117e-01 1.476624117003218772e-01 3.413652911630755682e-01 5.284306189246581326e-02 -8.741910849904724889e-01 -2.727487728807378442e-01 9.180115168592506425e-01 3.921978997785946497e-01 -2.371659787633496330e-01 3.547447895552153230e-01 -4.825505728601648947e-01 -8.327820048182777990e-01 4.172960319112239275e-02 -4.161687005377275317e-01 -3.034881428931859859e-02 8.011448888702112914e-01 3.011050601957057093e-01 4.601153821517346421e-01 -7.952344380424883896e-01 -4.669757820864497283e-02 -1.801774838776633303e-01 3.034119720516759711e-01 -4.263408303689877332e-01 -2.070932027633756167e-01 9.672455180836446731e-01 -7.831532618499658094e-01 -5.731870159208969362e-01 -5.295585147674976012e-01 3.908637464832585562e-01 4.440221965302251217e-01 5.578412301358106617e-01 -2.554418755127787488e-01 7.009702328882746469e-01 4.164817003000036433e-01 4.277040598344368227e-01 6.008115829396269980e-01 2.176309485580181502e-01 -1.445225337872006466e-01 -9.415619464929789739e-01 1.799283435040998635e-01 1.479420444767446940e-01 1.912746666223905379e-01 -3.499657865293765990e-01 1.149320201698469796e-01 -6.683617932558695296e-01 3.033852505988215986e-01 -8.421250222277951725e-01 7.840547155104757859e-01 -5.718925025243550841e-01 -4.077052761329287844e-01 7.715880162139615583e-01 7.627881665723942328e-01 6.600710776944199720e-01 -3.525038177717214061e-01 7.840464050604949442e-01 5.610356621120636822e-01 3.149926789587842446e-01 7.966430666444637154e-01 5.719615821484382856e-01 -1.233918395790344763e-01 -3.730298556200042359e-01 -2.132366150051647757e-01 -8.765306769435268208e-01 -2.579129424057789999e-01 -3.345560077055700909e-01 7.547561367073097882e-01 7.944927575766705941e-01 9.224845044833215324e-01 -3.364061204253028237e-01 3.814602433627336531e-01 2.753209707155058195e-01 -4.960511678331693819e-01 7.432637906497465696e-01 -5.645109696990571191e-01 4.973510466691727916e-01 -7.084607245482215099e-01 -7.806435107126250550e-01 4.457212916286480420e-01 5.270099370803443123e-02 -1.025687757671343570e-01 5.398365291059845639e-01 -3.041438502650776754e-01 7.148801012741172745e-01 9.399580940674163720e-01 9.639853339322340675e-01 -4.445564519620479049e-01 -1.808700808219984024e-01 4.437774064511536554e-01 7.824476265818843812e-01 4.168219954153964402e-01 5.286313900311553349e-01 7.688089765287653421e-01 -2.827048098168126189e-01 6.622797766599010372e-02 5.608167993015109737e-02 3.056189531360201106e-01 7.746216827552463435e-01 2.114047636164567423e-01 9.201935483062937404e-01 4.528180515304874310e-01 -1.760406876674179832e-01 1.873465258493567098e-01 8.407439928716879951e-01 2.258320120006092613e-01 4.139797465891604245e-01 3.329734831505942183e-01 -3.190287325954185293e-01 -5.968325941225013365e-01 -1.698763880074932175e-01 -7.054122155692476026e-01 6.494602506862813263e-01 4.306648264525417269e-01 -1.852398754712778206e-01 -6.645843591864980526e-01 7.706489547060102474e-01 2.614642673892923486e-01 9.800840235349481677e-01 -7.897451515202306149e-01 -5.257078344467758235e-01 -8.283857015361205667e-01 4.985505233817243420e-01 -6.858653499292588496e-01 7.544920141894315702e-01 -2.620558493157191735e-02 3.415422262779922030e-02 -9.125075946058450738e-01 2.064274858877466201e-01 -5.331999947332388690e-01 -5.848945611914148079e-01 7.687912521944776367e-01 7.858875858849727614e-01 -9.828078231148869026e-01 6.574577683824547325e-01 7.990168752341065828e-01 4.056545571723798455e-02 3.034055375673753163e-01 5.503236936008559788e-01 3.680179782378005804e-01 -7.268546531498930319e-02 1.607474989572106605e-01 1.641508355159888022e-01 7.012560851128339934e-01 -5.519960449305701955e-01 5.258757951196529890e-01 6.312079615301537938e-01 6.053480054504896124e-01 6.082910679017632383e-01 6.505277851645232534e-01 -1.697914642132037910e-01 2.349788476222013645e-01 4.931147551764858417e-01 5.461094550544737247e-01 9.121071066907829872e-01 9.595395826495404235e-01 1.053066506668711849e-01 -7.175518596774818625e-02 6.822892229106695128e-01 -5.616015110567948998e-01 5.214714391777035551e-01 -5.886500785911961131e-01 1.884337657959779810e-01 1.952781350830340990e-01 -9.670460162598243370e-02 7.275608083330771247e-01 8.642138720935244045e-02 -1.066550342386765084e-02 -1.519691234852027784e-01 -8.796392760760289864e-01 -2.725304684742735906e-01 -8.027744334007200777e-01 1.386438333802253731e-01 2.910123620752263496e-01 5.368252280534243637e-01 2.377698568557587433e-01 -6.110464729326378075e-01 