7.726267659168047919e-01 -4.831328512665701846e-01 2.960359690473717276e-01 3.447217137188282043e-01 -2.341537966089896339e-01 8.323464245753251500e-01 -4.072708479002403181e-01 2.783937955797575192e-01 4.401752114531289339e-01 -5.974473307806160705e-01
-9.762231423263141306e-01 -1.200885673935161435e-01 9.264277945102971090e-01 -5.059847887582965553e-01 4.633975621166060432e-01 -6.849035488738003385e-01 -2.922167871722979315e-01 -6.804806090179880140e-01 4.792901619688531567e-01 3.479465998442257124e-01
3.725884813962077047e-01 -3.711811022754796241e-01 5.053657118294581085e-01 -7.675880008350074446e-01 -2.383825281397082552e-01 -2.498220481648001645e-01 -2.420844012541717716e-01 -8.302347165789912831e-01 5.690208674081751461e-01 4.068569832643155748e-01
2.246656811490978511e-01 4.052689779910770840e-01 -5.860520127219072117e-01 -1.003367841284935613e+00 -4.679449212746521897e-02 7.389947385687070103e-01 -6.118741122662288978e-01 -2.892622469533537993e-02 -5.452827798171311358e-02 -3.004393580536751651e-02
-6.799453713520019482e-01 -4.678857481995959411e-01 -5.720980781689518624e-01 9.381145079111389284e-01 5.975040401994275996e-01 -1.775202489485300239e-01 2.231372256329124670e-01 -7.564285000222520372e-01 3.218287107061139352e-02 -4.498235971530946675e-01
7.160833836650631889e-01 3.465478459111415166e-01 2.870097470535805662e-01 -9.262500937356255015e-01 -1.288305239165603300e-01 9.561718854803541445e-01 9.121687709175404501e-01 2.943245125311562682e-01 -7.463643177063379319e-01 2.181178239025573784e-01
1.293582212883532812e-01 -5.012800605708433305e-02 -1.199160470523423366e-01 1.236945265241314595e-01 6.809634887642747048e-01 5.175064780358730188e-01 1.802346210892086520e-01 8.505596381523572447e-01 -7.408690214019224562e-01 9.700028158131723810e-01
-8.975004329498438294e-01 -6.569803852450183390e-01 -1.857952660451625548e-01 -7.020436911732240715e-01 2.208093577793635021e-01 -9.230697377011500837e-01 -4.099810588403167144e-01 -8.912120809257986220e-01 5.279952306695537834e-01 3.072681242825692216e-01
-2.465797927665219491e-01 -5.265844650809210492e-01 5.956258621455945423e-01 -5.663809401447622571e-01 5.333535243126857894e-01 1.619652047669691702e-02 9.601800323748882482e-02 -9.118978310134322474e-01 5.539503115149403412e-01 -3.095984337626632166e-01
-5.460448871336441856e-01 -2.073420328086351683e-01 -2.514581420422214997e-01 -3.384656767860498572e-02 9.099841936100068196e-01 -2.759128632879508380e-01 5.778481259202596920e-01 7.917346569533706413e-02 8.144501263430894422e-01 -3.523991112028331263e-01
-5.104426102758374828e-01 8.879186619008375692e-01 -8.719143760051525360e-01 8.348788744518838012e-01 7.195671968631868476e-02 -2.703893300106835484e-01 1.005665596100203452e+00 -8.457202606153096935e-01 2.137074925174909656e-01 -9.285879010117998877e-01
1.386414738856111550e-01 -5.068233903924564965e-01 3.876553367101587266e-01 5.806412736360612170e-01 6.407429876465329244e-01 -9.289854109186716780e-02 4.548521369095315792e-01 6.081054894333653982e-01 1.053426519595847544e-01 1.513584026993926301e-02
-7.018734919044291587e-01 -4.143823326646235983e-01 -8.308298763212679239e-01 6.911093340925276163e-01 -7.148275817610071081e-02 -1.667485103220619214e-01 7.755154230826573070e-01 1.709594302472369418e-02 -1.995545511648671999e-01 -5.192831557035737511e-01
-8.566607994991128905e-01 -3.785012203062365077e-01 -1.100940311969266228e+00 -3.914729933620739177e-02 4.084228982633131971e-02 8.887842767993212600e-01 -7.979822584532980656e-01 2.719965812465989785e-01 -1.769847301042550558e-01 5.097101020568792773e-01
-7.145055558505311044e-01 -9.946295618387985815e-01 -3.142627999219501089e-01 8.263531853593374388e-01 -6.189191415888020131e-01 4.831488059545093194e-01 -4.273590876437846631e-01 -6.169585135706211476e-01 -1.089223745000836852e+00 -2.591235083423604202e-01
-2.399103920941952905e-01 2.646735414040551904e-01 -8.802077695222599862e-01 -6.270918452106023500e-01 -9.801144184486494382e-01 -7.759077945155599121e-01 3.164745322674908379e-01 -2.127137502331674368e-01 -3.142686178284133103e-01 9.147946554664988794e-02
9.840527184368176306e-01 5.047779023765023299e-01 3.035887410347543613e-01 1.116971105791732866e+00 -9.593406942495839029e-01 -9.374460461023517155e-01 -5.323913469844224894e-02 -3.397520047364410711e-01 7.626831832472791284e-01 -8.322174112925456724e-02
7.523302540416085260e-02 7.402249855830909109e-01 -1.124735480378708519e-01 7.314341036259044415e-01 -5.370315427220340165e-01 -4.480421847252357703e-01 -3.145168433736664215e-01 7.595053395810123786e-02 -5.093615763938058594e-01 2.891179216358110704e-01
-7.174044610271524958e-01 -8.367559717238403083e-01 7.611432479434036003e-01 -7.010298752066561612e-01 -2.661126710611007029e-01 1.769773615328499028e-01 7.311867360091608981e-02 -8.724006377283527458e-01 6.699079462692207887e-01 8.397811879617198549e-01
6.222194397013991463e-01 -3.809815577250875163e-01 7.574599531325136581e-02 -4.458229284117977698e-01 4.181942619801785194e-02 8.969984520826075336e-01 -3.617186289751397332e-01 3.757555867294203322e-01 -1.853014653371587994e-01 5.313384755963702633e-01
-3.496868809759290930e-01 7.302223412733771513e-01 4.590691840970765880e-01 6.433839925477194965e-01 -5.700406406641702478e-02 -5.986417056173894968e-01 -9.099874627625508250e-01 -3.674217744199440583e-01 -8.026165094623528562e-01 3.849999121195089580e-01
3.396689405792565619e-01 -1.789845692844387326e-01 5.150320545774932368e-01 1.751102686563763278e-01 -9.239986243282737322e-01 -7.445402942546928138e-01 -6.055929976575937790e-01 -3.381483448743728970e-01 -8.284442774101451468e-01 2.039584019277523586e-01
2.247792094550260175e-02 1.619781419200028438e-01 -1.965972799669994109e-01 8.803325374591079999e-01 -7.408734572866175483e-02 -9.902368978005211542e-01 7.555900470638043931e-01 2.926920074723778353e-01 8.233069673320705384e-01 9.060093487511567956e-01
-8.994095328966120739e-01 -5.917777218283742924e-01 -8.952389827637335928e-01 -1.230652163980107822e-01 7.601135672348457994e-01 -7.863618654923275608e-01 -3.696187413843964042e-02 -7.905490632326833689e-01 6.083681038823759435e-01 6.687509729111541512e-01
-9.162525800465468606e-01 -2.196438645496892883e-01 -6.341601539148320477e-01 1.245488355004543690e+00 8.878066680779904685e-01 1.922647051829195763e-01 9.542176505794526253e-01 -3.711634462356759312e-01 7.647811809057211141e-01 -1.803413146663263578e-01
-5.306317719132920274e-01 9.501976861757112092e-01 4.346465167276221120e-01 -1.051861363112583048e+00 7.070099360339610062e-01 4.338625689587696233e-01 2.372625932096340540e-01 4.826655150264355099e-01 -3.484420152610091526e-01 1.902512802679491855e-01
6.266615207536628818e-01 -9.491327489697746200e-01 -7.788636114937756982e-01 8.801214556540249978e-01 2.278502502495286797e-01 3.037983193748345495e-02 -4.858240888427299287e-01 -4.161861620208536228e-01 9.441099859557556817e-01 -1.602545330003619373e-01
-8.747634602808006532e-01 9.469957389911989321e-01 -4.775033339403453869e-01 2.691800460821476837e-01 6.545172075528485900e-01 -4.109966384443373977e-02 2.289394543660003278e-01 1.224685954964643830e-01 3.881071087983131718e-01 6.832726566698872350e-01
-4.390250310189032223e-01 9.465420786549816334e-01 2.784949348646413858e-01 -1.229092623372841198e+00 -6.357937846001713300e-01 2.186389504984417309e-01 -4.811028777613083895e-01 -6.741573393783892865e-01 -4.630573573643854690e-01 6.730268651109277966e-01
2.008409255230991508e-01 9.056764069105182058e-01 -2.763223675971280824e-01 3.211360905915089381e-02 1.362175558623457683e-01 2.489180827036582000e-01 -8.542719694385147999e-01 4.851404041452369031e-01 8.432026408006866314e-01 -3.665224861098829090e-04
-6.175237051344505401e-01 4.428143736894207816e-01 -1.016555728599029207e+00 -3.345864375115671363e-01 8.331503764239809318e-01 1.942945290270666481e-01 7.281813304408190080e-01 1.778308179298831726e-01 7.098767930965689255e-01 7.276647118117964830e-01
-3.622360628878839583e-01 -7.444451500654714060e-01 4.644150838303895412e-01 -1.660085856878855681e-01 -8.220092347739510474e-01 1.419581108935640268e-01 -9.006078487607733774e-01 -5.788471460500015375e-01 7.165153180789973764e-01 -1.012477160039283897e+00
-3.969590881173291619e-01 -1.122639993653532731e+00 9.269261350583761772e-01 2.850477314912841509e-01 -4.155110463891603101e-01 8.895118180376545558e-01 3.652823947090293871e-02 -1.674121758848849395e-01 1.097755820363002927e-01 -5.476649802847513016e-01
-3.916202434614158290e-01 -2.211104863065422588e-01 -5.031754880661646334e-01 6.900153453172222506e-02 3.553138979431421651e-01 -8.793111233100495694e-01 9.579574728192515876e-01 5.278519487306508884e-01 7.807403846903899769e-01 4.942322197837070163e-01
-8.438213852239310198e-01 -1.359810655907251198e-01 -1.365755441553753169e-01 3.903312859180362859e-01 -1.541598381629585568e-01 3.921199799433904842e-01 3.837433562950967603e-01 3.609157344070347273e-01 1.838566506987087956e-01 -7.708062840724402287e-01
5.197053455036004799e-01 5.843408368366272976e-01 8.241065330599122163e-01 -6.941648998528846537e-01 -6.544804112398961982e-01 -1.852982976758732192e-01 -3.402217988098327761e-01 6.259416349207514996e-01 3.234599002852380223e-01 5.036865840021701457e-01
-1.465169926080913676e-01 -1.135371436138180590e+00 -9.783901017627615326e-01 2.859020763853377667e-01 -5.805173647960508720e-01 5.865770060966604138e-01 1.819071004782198964e-01 2.612341059945846311e-01 -3.125769282230722590e-01 -9.077314141613247456e-01
-5.337122412248190839e-01 -3.113579897675197022e-02 -5.466474726647621019e-01 -1.027846676355190558e+00 3.939949296645951504e-01 4.412378755303512090e-01 -3.026504641212900415e-01 7.139417871295530293e-01 1.028976093717876572e-01 7.126036878545543019e-01
3.099247283474459436e-01 1.336245621693061825e-01 -5.909388053912543182e-01 7.072123094539621568e-02 6.965636679502551498e-01 -4.545371368115359578e-01 7.617948695951942684e-01 8.309080404948209209e-01 -3.193908677820072595e-01 3.075436998893495422e-01
7.957438385452569873e-01 -7.696695054168930517e-01 8.186461591297463647e-01 -7.969525286455478863e-01 6.629265799862915642e-01 3.578793617372284519e-01 -2.808745361737250978e-01 -6.704308611748976965e-01 4.982292960626261702e-01 6.938408914817513207e-01
6.407424263966297051e-01 1.035417534441551574e-01 8.478966251618419436e-01 4.036189960254912279e-01 -6.400121227225327170e-01 -1.818705772085435768e-01 -3.181306254361244146e-01 9.379776172157044956e-01 -3.518691140641618254e-01 9.180603225851178273e-01
3.330625528921499212e-02 -4.146933144102284419e-01 -6.673664921180701981e-01 -7.601636751175590012e-01 -8.570327481219427446e-01 2.998256581100756657e-01 -1.143342228291556045e-01 1.074356119461908454e+00 1.301179662995950448e+00 -6.924090959766732167e-01
-2.116941841604898233e-01 2.472080899056268780e-02 1.900058076105619609e-01 3.526875377850283710e-01 -8.065508032921703263e-02 -1.724811285973021358e-01 -4.596047844574795427e-01 8.676293709137467003e-01 -8.232250430318928114e-01 6.410245478313603140e-01
-6.256354606949896535e-01 2.986557659738655612e-01 -3.311093670167509773e-01 1.222255962673039154e+00 -7.842762530409681521e-01 -6.920063594553188535e-01 7.927232129741790256e-01 1.668382778853889359e-01 -2.005036707666525142e-01 -1.008016951747938261e+00
-5.475358815744011398e-01 -6.002080280790225153e-01 -5.372596877970797768e-01 4.074195286701866037e-01 6.707656842904436978e-01 3.906438730497331924e-01 -3.974352869931628562e-02 6.959703008090454279e-01 5.764781172150291316e-02 -3.111246327922616572e-01
-4.511998386356371737e-01 8.928764661693396887e-01 -1.820405580561096914e-01 -2.219840909482264091e-01 -5.661586621287741927e-01 7.452241032822769506e-01 -2.202803302735807101e-01 -3.836355318684810389e-01 3.872435151143449605e-01 -6.674743507381946106e-01
-7.641771009041210538e-01 5.145239622006929636e-01 3.936200705173730774e-01 4.229811895611768624e-01 -5.049167717857080406e-01 2.153682706912056766e-01 2.646630413845673102e-01 -4.002883967002882626e-01 -1.046824271572438958e+00 7.133690590833036138e-01
-8.223194967288234569e-02 4.714351929641767969e-01 -5.185093867859672523e-01 1.992362939352111673e-01 -1.931721606035128325e-01 -2.796474857348404952e-01 -7.444138726139768458e-01 -5.198636005014701800e-01 -9.553562741951237003e-01 -4.479015543758546603e-01
4.789047862612288986e-01 3.309410984906150932e-01 4.393525913223348955e-01 -1.245725849626750925e+00 2.776543226112898610e-01 2.199889608863335108e-02 -4.927414818765338822e-01 -6.100718384628180946e-01 -3.476398176085473413e-01 6.692964457199961359e-01
9.641068937005433659e-01 8.701278817110933428e-01 -2.701194865415926794e-01 4.486643690474706458e-01 8.078360719948246560e-02 6.509289101880321171e-01 -1.736860546345766337e-02 1.903712490214056197e-01 6.714176890130044706e-01 -8.009317854366824196e-01
7.272386352899914974e-02 -2.135227785787585375e-01 2.326969046380140127e-01 9.204313296749720985e-01 -2.603420679651657910e-01 -2.722541956500394433e-01 5.886298517422209331e-01 3.348038107557569920e-01 -4.484380441731337930e-02 3.894919168975303769e-01
-1.964664344705396026e-01 -7.324868591901931847e-01 -6.906762108673868139e-02 -4.843186158882069048e-01 -6.299384431051847644e-01 8.653538974434433761e-01 4.137366081139552398e-01 1.921196196250086197e-01 5.523189082679135220e-01 2.470268851930408280e-02
3.990888988382544356e-01 7.292871372842081312e-01 6.670526437122199503e-01 -6.150944462347377462e-01 -4.803015589481404723e-01 -8.513485876852439072e-01 9.586433365739526202e-01 -5.874446512570487000e-01 1.124518930574351233e-01 -8.917527256964170590e-01
-5.823757817994664743e-01 -1.556986897249741653e-02 -7.647772111398076778e-01 -4.463832030210244106e-01 1.905720616034702400e-02 -2.950258295193193825e-01 1.399055119018842996e-01 5.211689744613179354e-02 -2.731672213424827245e-01 3.151885290379656257e-01
3.552499093752744530e-01 4.404320112550369481e-01 1.695426167890428659e-01 -4.789874656666563979e-01 1.733234008770078716e-01 8.592805210462897136e-01 2.066316278164953002e-01 9.876567821167573369e-01 -7.587560419416952695e-02 4.582752224636587601e-01
-9.285616089429487019e-01 5.107991516525326459e-01 6.272073345961894086e-02 -1.136219906793856538e+00 -5.049937121670959872e-01 8.176664474325737175e-02 5.622208254742698808e-01 -9.062226969508816454e-01 7.200218286577769744e-02 5.379855969916913505e-01
2.962033854172077540e-01 9.503127939798964308e-01 -7.745002270941816480e-01 -7.749232327088476646e-01 7.505840728305093190e-01 5.229623796681800441e-01 2.224256468920389751e-01 6.999684282339333485e-01 8.130645267971785550e-01 9.004760167555455608e-01
9.944095324213031439e-01 -7.062239271254889816e-01 -8.211912750004091155e-01 -9.638597661799511718e-01 -1.006178049764881788e+00 9.605042386817229660e-01 -7.868813882524010594e-01 6.845519115236194940e-01 4.506519032167316530e-01 -5.161506486545277411e-02
-3.097212357930564375e-01 -4.507453455724834135e-01 -5.752928309006183349e-01 1.161653026618419515e+00 4.314632034379083381e-01 -9.979520138127121465e-01 -6.511733614479650600e-02 -4.752173322030607827e-01 -8.930753194691606334e-01 7.304998313855745051e-01
5.380882927496142276e-01 -2.745223115070065667e-01 6.622364856627488416e-01 -4.215339165563509738e-01 -4.657163171163395399e-01 8.261217528277602362e-01 9.881529945780365143e-01 9.031288722918563716e-02 1.139471423101348968e+00 7.645455307868436190e-01
3.309711321109443105e-02 -9.771477738177829220e-02 5.105446419978444395e-01 -3.705685244867613082e-01 1.459383186426432277e-01 9.745000973662295563e-01 5.807344449513713869e-01 -2.641760657270748047e-01 -4.873876828217288404e-01 -6.179624177477278657e-01
5.036419028136137482e-02 -2.762380440874304122e-01 5.688942720010503606e-01 8.500048373733519735e-01 -6.688472680933684744e-01 7.426762367838739554e-01 9.341842767930810254e-01 8.649163537584630967e-01 -1.040044271291791667e+00 -9.635590666525236658e-01
-9.921903614849136854e-01 -2.976915613513050340e-01 -7.994192020644707020e-01 -6.047245117591675267e-01 -3.557807762509879179e-01 9.266246112113274425e-01 -5.206191447008165496e-03 -4.129874378118477685e-01 2.351332946721032269e-01 2.685449869623304231e-01
-7.814446795995303452e-01 5.792018644278096318e-01 7.478225424079293360e-01 5.810551511119511625e-01 7.079058597098472072e-01 -2.671853942776297730e-01 -8.097118285099813573e-02 -7.555946597880497384e-01 -3.068241323411891042e-01 9.280507287507632208e-01
-4.343948817768683024e-01 1.092339873872594902e+00 9.943467552105985652e-01 1.703862394687827020e-01 -8.350029502284949112e-01 7.668774884990582352e-01 3.073930984903696095e-01 -4.699565047638665782e-01 -1.104798191347379915e-01 -7.030838927970610719e-01
-1.129492032167031951e-01 -7.537964744096629088e-01 -6.335947622907032173e-01 -7.529034587166201220e-01 3.453058772785694841e-01 1.322010988256693831e-01 7.624328552043175833e-01 -4.734490946583365112e-01 4.562741040147691995e-01 -9.250357109155896707e-01
2.901682026012604443e-02 8.335120411244935079e-01 1.081361253095515895e+00 -1.391305553027503583e+00 -6.093076695610074589e-01 -5.545317466357543301e-01 -8.775640555776473839e-01 -9.400844683156640569e-01 -6.239953117024902435e-02 -9.732956219521418095e-01
-4.452404863166980475e-01 2.531797555502496300e-01 -4.114064892171341858e-01 -4.470975860532076518e-01 1.711544621387133258e-01 -2.283327620858067453e-01 4.216046635725904101e-01 -2.001078188154552934e-02 3.549893437088093573e-01 -3.085141054595246790e-01
-4.290337421563791831e-01 -9.311139745349275021e-01 7.711200729490590433e-01 8.997423475744091848e-01 8.667532811648891444e-01 -6.560531156960457411e-01 8.760279435512876578e-01 8.040769228596217344e-01 -5.143245095099405750e-01 -5.178908528761945185e-01
1.006407427563241752e-01 -7.171079333860084226e-01 -1.909039543585915044e-01 -4.529519557764523641e-01 8.949685100895752310e-01 -4.509537008671313935e-02 9.345377497357197916e-01 2.662213836774017239e-01 5.100178253978659981e-02 9.147337919634348502e-01
-7.169755257822929551e-01 1.394916748467203427e-01 2.615207669178407635e-01 -6.695120125429250557e-02 -9.163442673238358926e-01 -3.682069923327198346e-02 -5.840265036068482962e-02 5.681123791393141165e-01 -5.956530079705817382e-01 -2.939080926450930997e-01
-5.218724646159729197e-01 2.020787510878587767e-01 8.782287275860459763e-01 -3.846123573117770644e-01 6.777451995035355115e-01 -5.300627831465285489e-01 -8.774193137221082406e-01 -7.934462856565875910e-01 8.561725003495342934e-01 7.424828752924632624e-01
-4.242868063985109073e-01 8.143606885815254381e-01 6.765339426362694253e-01 -1.178843699157213626e-01 -7.128973704044493098e-02 2.872278450215615120e-01 -6.642909759001158765e-01 -1.012258493405738147e+00 -4.690661825496225679e-01 -1.016652291290800703e+00
3.455527913006957164e-01 4.653428213787763612e-02 -3.769569489117424732e-01 6.001815604136001570e-01 -7.605053170420571496e-01 -5.429499664710787377e-01 -3.958328034290861108e-01 -6.167881250204941823e-01 -7.683618582784551565e-01 6.920539703843838764e-01
-8.268713203514628240e-01 2.891546779012046375e-01 -7.714160930555133966e-01 -1.153606221728353587e+00 9.544840754284163176e-02 8.745448177373648102e-01 7.435289988352032919e-01 -3.794984595249751291e-01 -1.076913976949327445e+00 5.191440166771880138e-01
6.079728942824081939e-01 8.260195185065700718e-01 4.053531462364111104e-01 4.612884582774967046e-01 7.389193059835946764e-01 -9.101885806713419513e-02 1.562660782071074450e-01 5.377887351190636239e-02 7.346633875037993366e-01 3.694971491077273518e-01
3.822209496836816850e-02 5.680780429645571061e-01 -4.705075546275339082e-02 8.188417445299341901e-01 -4.839219596951899738e-01 -7.168398682255432419e-01 9.409251180076703136e-01 4.750254496568313001e-01 -5.224394903384987909e-01 1.190220360202362826e-01
9.076752981286625444e-01 -8.089409201427588680e-01 -8.101629980280948828e-01 6.686099439466736127e-02 -6.287909245119627233e-01 4.912569064254675988e-01 1.499330625298419262e-01 3.561638705934618843e-01 -7.769566934525863333e-01 -8.788742111924722211e-01
2.473915413879474445e-01 -1.426342927399300853e-01 -8.043448238648006621e-01 -2.846667709924804446e-01 3.072134117493183214e-01 -6.415135039875096146e-01 8.178683268809258111e-01 9.255407042317761457e-01 1.207650674379824318e+00 4.634324919880731253e-01
-1.892392897171587540e-01 5.381995247980616570e-01 -3.901847384210734848e-01 -5.785436758598080376e-01 1.882697338980886814e-01 2.163746366327260473e-01 7.761518259583367607e-01 -4.817214282417500160e-01 6.138986200904096302e-01 8.652787188320054668e-01
-1.002058931616272908e+00 -1.141885950307415520e-01 3.073277689159976678e-01 6.615634627232542808e-01 -6.686573326908045178e-01 7.363776537446917736e-01 -2.389955975540898336e-01 7.525794912812718840e-01 -8.868435416565353391e-01 -8.874826270621557489e-01
9.588395728549926611e-01 2.227640182456240292e-01 -1.213053297192042829e-01 -8.745113531245508609e-01 2.203739725963739793e-01 -9.219483988735379665e-01 -3.477806177562727252e-01 -3.545434287488961611e-01 1.841723640674862716e-01 2.293989657946399752e-01
6.892974882378147816e-01 9.013230597242719577e-01 3.929761752439572819e-01 -2.409043551895312038e-02 -2.716792042726529077e-01 9.416688988952374162e-01 -6.655416818943571400e-01 8.093971340943154624e-01 -3.326413343108944320e-01 6.254558387624196969e-02
3.634299519861364236e-01 -6.167087090543538208e-01 -7.266045579600830528e-01 1.398924849327242426e-01 5.860934652823338586e-01 3.579571100335817158e-01 -7.678313372673469805e-01 7.722165979032019623e-01 -1.142053746276739112e-01 8.630661891149913334e-01
1.058985699096942901e-01 -9.014359191355384437e-01 -6.460787920078676638e-01 8.320427570082441493e-01 4.202900223852870654e-01 7.728133811553746790e-01 -3.411853804314802785e-01 3.273584298705749934e-02 3.167935535007894154e-01 1.728023664088845224e-01
-5.410550362734983798e-01 -2.392841645300170239e-01 -5.389923315725521080e-01 7.054503896072088498e-01 9.387664762452371248e-01 -8.625342084612570570e-01 4.521587956782894269e-01 -3.776407800130465731e-01 2.433387002423475221e-01 -5.501246803236455873e-01
3.005089684854468923e-01 -2.445613952598371943e-01 -3.818796699564174224e-01 8.016515793146080648e-01 8.550380894208344795e-01 2.207196068306356285e-01 -5.552665653455105543e-01 8.889797957309825138e-01 5.888365535835109466e-01 4.932215133997181478e-01
-5.808472181683594915e-01 6.466265322784783276e-01 -5.039754051766488496e-01 2.682430814927960205e-01 3.745064395636780730e-01 4.842311081698674191e-01 -1.826598180544722894e-01 5.188629567092771788e-01 1.010304844070699870e+00 1.463005610686042290e-01
-8.210778067855964979e-01 -7.839518598988215459e-01 -8.315286412231498447e-01 -6.677144865132721430e-01 -7.500388099065329328e-01 5.564252056093613730e-01 -9.125741815061576556e-01 -5.364546502183884513e-01 7.879886141504963692e-01 9.201743656978071950e-01
2.063412574351295714e-01 8.440768480637184101e-01 -9.458564429392506412e-01 1.001509418117917605e+00 -4.214560609966868654e-01 5.896011012893989101e-01 6.492322861804040723e-01 6.822536814266915162e-01 -5.468483892817697228e-02 7.956989482272280867e-01
-4.855417130444400486e-01 9.020619227495584314e-01 2.511961398204298201e-01 8.829602888872349897e-01 -9.592103164917780145e-01 4.382371385743364378e-01 1.406251073733435775e-01 1.762098665858596045e-03 -3.916294082916070285e-01 -3.526910131066588461e-01
-5.037466652214647178e-01 -4.834672757347664995e-01 6.838962903354551814e-01 -3.639338003036132196e-01 -9.124139375838172805e-01 5.759616691400919475e-01 9.219733543875142934e-02 4.990566965047651959e-01 -2.316063342147885260e-03 -2.552265384168548867e-01
9.686084003809284360e-01 -1.014887789411119456e+00 8.367720518485352033e-01 9.020079078007693374e-01 -2.519955106108336951e-01 -5.792560967042683640e-01 2.631311627213340221e-01 -6.672754931246099863e-01 6.897283335544033278e-01 -5.392640132326568247e-01
-4.210582529470556223e-01 6.737083130534533559e-01 7.048609405874117773e-01 3.403458497528657478e-01 7.417266571274268028e-01 -3.091752772979136088e-01 1.004825948084576037e+00 -1.901827944308826512e-01 -3.916271183815050461e-01 -9.553672801443641172e-01
9.763440214334508926e-01 -9.516613857613794025e-02 4.484817757782720293e-01 3.786478682002845653e-01 4.010484927060991578e-01 -9.509236640524053596e-01 8.554651425892021432e-01 8.661575079022596491e-01 2.499757463023373760e-01 9.119529891535015365e-01
-4.411863862092159638e-01 5.341458132602860259e-02 -2.945428550430380654e-01 5.433660960831706577e-01 -4.581995909859148397e-01 5.403460617897993812e-01 -8.621311547327649150e-01 -9.400113909746175000e-01 -1.015345724694199703e+00 -7.642888375622499675e-01
-2.106788035866260789e-01 8.571919139203223459e-01 -8.326453042576165142e-01 2.662908482119215048e-01 2.894221099765599547e-02 -3.276494064219311886e-01 -6.067428065934262760e-01 -5.737382625374040090e-01 -1.011150893815276008e+00 3.781095865708929971e-01
3.062378346351588565e-01 -1.676732713218720694e-01 3.918733094876730161e-01 -7.283590523852964127e-01 8.456517712324126412e-01 6.431982478857667385e-01 3.140498172645037056e-01 -2.502514854444714554e-01 -2.311430021283336911e-01 -7.312711267975262330e-02
8.673513629451854445e-01 8.610260312636561775e-01 7.482208919326882590e-02 -3.210367969453072901e-01 6.467894933834761328e-01 9.051654206192238927e-01 3.070262353749796946e-01 5.465626178396744139e-01 -2.860370146896538124e-01 7.892452502119516877e-01
6.715867200858220976e-01 -5.161895682364259913e-02 6.301615997135137093e-01 1.133809829452888440e+00 6.172699922442048681e-01 -8.115895653971051393e-01 7.101742012051739938e-02 7.694323534897722361e-01 5.831853130458698464e-01 -1.750077663060135014e-01
