1.453026409067606495e-01 -1.603956541944456804e-01 3.282585436560791353e-02 2.174161735660790074e-01 5.721876215015472278e-01 5.091174795481890891e-01 1.350542707004703802e-01 -6.015364329368456664e-01 9.138019144457529830e-01 1.273462079252096757e-01 6.334527890837141628e-01 9.450565432892997775e-01 -4.282675244938633496e-01 -2.110343785695245333e-01 5.867822116029658419e-01 5.281733244549076112e-01 -5.443071352013194586e-01 -3.409189199380182611e-01 9.033302169769107381e-01 9.744467562577483477e-01 -8.964696379367056434e-01 -8.778684102146389057e-01 -9.695392448401438656e-01 2.789252580919061031e-01 5.887016000743010569e-01 -1.017041256361282953e-01 -8.952441132793669265e-01 2.248369149898750974e-01 5.021067107718878431e-01 -6.235522306278625804e-01
9.656599627833954980e-01 9.099595542206945220e-01 6.893263085091373699e-02 -2.454100816993728604e-02 1.828057546295599328e-02 -4.564277259501196005e-01 4.809111589085842131e-01 6.184250847806510576e-01 9.938848363761432214e-01 -1.696103572429885631e-01 -5.895484036885253465e-01 -1.649389419799492107e-02 -3.024648867314417844e-01 -7.022644476769841493e-01 7.096441586826294223e-01 -5.442970630773962259e-01 -7.447366018317044256e-01 4.159796504603989198e-01 1.397261995323085815e-01 -8.574769266118607014e-01 8.330594043669237170e-01 4.817581528692351234e-01 -9.598540690841224077e-01 -2.113038172712445040e-01 -2.117392767426925781e-01 -5.998392467660220717e-01 9.745994364852886838e-01 1.387627404523074370e-01 -1.681112853333851520e-01 -2.074389664237174247e-01
7.605297616659255633e-01 -9.384883671241773806e-01 2.491777580493261673e-02 9.019060606959709014e-01 8.439000557605917940e-01 -8.740296634732246384e-01 7.520312829767694662e-01 7.094902877219790016e-02 8.343754242734910953e-01 9.326660684144263413e-01 -5.091088466763805664e-01 -6.852641074905068130e-01 5.506302744046346342e-01 2.358418868460342710e-01 7.213780520167082377e-01 4.480644485831405399e-01 4.780331355210417077e-01 -1.486125280422685158e-01 1.019463266750645081e-01 9.962429048520899943e-01 6.400965899874963005e-01 -9.063128051403659402e-01 3.203093036669412141e-01 2.723905379499069745e-01 -1.670816216808378718e-01 -5.837956888738037725e-02 2.292532674010245575e-01 6.069947374754480762e-01 -7.268125501980970959e-01 6.127215050084519055e-01
-9.750571763872235564e-01 -6.232719955416420321e-01 -5.171753053215992768e-01 -6.138930513605023870e-02 5.228722832524314024e-01 2.264760274426647901e-01 -9.282100448618548771e-01 2.744587799506482684e-01 5.831594502221143506e-01 -3.368926792226680789e-01 -8.489090491869304422e-01 -3.447712332799924423e-02 -5.892666905133510102e-01 -9.538621344841798910e-01 7.524013766077326526e-01 9.424843779491363926e-02 -9.932098833722800002e-01 -1.534952470826486115e-01 -2.655970061040539565e-01 -3.522496656875391818e-01 -5.913954503036876753e-01 -8.723297541387682319e-01 5.381057477165096525e-01 -9.945478061818081583e-01 6.975195012555019947e-01 -6.687277042320789455e-01 -8.914948891648212248e-01 8.706020358821551230e-01 4.720052282921312625e-01 3.801483469849123997e-01
-9.492098869309608666e-01 1.549914385667627015e-01 7.159962924144230856e-01 -9.701703250634977627e-01 4.305700456927620268e-01 5.930647681512886127e-01 2.166699524402888877e-02 9.108202058255850941e-01 9.363459365539215096e-01 -3.055281192144496671e-01 -8.420434435206718138e-02 -9.445661079661011872e-01 9.779812278699634431e-01 1.072207997791188028e-01 3.843927432890665852e-01 -9.910239537053184833e-01 -1.195251978604071341e-01 -9.116727479278793900e-02 7.177827732966256535e-01 9.368345595882852095e-01 7.401969027169255089e-01 7.368687545154102292e-01 3.616945376701498627e-01 -8.299584787601181901e-01 -5.216255093285516731e-01 -8.602767700817859353e-01 9.540823416737596874e-02 4.735914743195897003e-01 -9.927981249678589082e-01 2.592457068495526151e-01
3.298612116148954554e-01 -2.704892711420607276e-01 -6.498048308201128664e-01 6.132958016643482724e-01 -2.139348630193302070e-01 -6.820344040921277884e-01 -4.432070612291983541e-02 -1.048654213728778539e-01 4.298662791253071158e-01 -6.058573914842537711e-01 -4.125179020136571229e-01 -9.423762081174305028e-01 -5.713423364974954399e-01 -6.102750129924454647e-01 7.831611498137764915e-01 -2.462103558051396135e-01 8.802486728325666920e-01 3.188398743247842226e-01 1.362791505644891654e-01 9.814329711832274761e-01 7.302495928993117946e-01 -5.464627620443486267e-01 3.708296205971562953e-01 6.464288330222659439e-03 -6.201979177505368979e-01 -7.328830289962546818e-01 7.437156297307659925e-01 9.988328715958905146e-01 -8.674369982853501471e-01 -5.417135375799310149e-01
5.215583209111460672e-01 -1.170268342807308098e-01 8.300179816111745434e-02 1.387433104792724081e-01 5.383056913982893210e-01 6.868253783920984512e-01 -9.510074910131190995e-01 -5.114551896118233465e-01 -5.040662922446159828e-03 -2.261738477662202929e-01 -7.650127755504596561e-01 -3.401969195040123739e-01 3.664108907734637266e-01 5.569274533500562230e-01 1.892506709295385392e-01 -2.534583157284722721e-01 4.492191405905069934e-01 9.406999577347638919e-01 5.570568042608727843e-01 -1.384977625062329756e-02 4.412518819625813604e-01 6.640699360033121001e-01 -8.272147240479267583e-02 5.956031098296838966e-01 -7.597565501447801628e-01 -5.609352424618013755e-01 9.330813427852500119e-01 7.970151583678106721e-01 6.850570856075337556e-01 5.129815445928236350e-01
5.301181944749741026e-01 -5.612243182197209634e-01 7.552459305200773798e-01 5.813442094393066473e-01 8.510644200565796735e-01 4.123876699973636623e-02 4.413893451779064003e-01 3.331783339602690797e-01 1.525541536479185778e-01 9.381637709430235006e-03 -7.879412300915134004e-01 -9.149836134879345551e-01 -5.271720673652735556e-01 3.891346625797382219e-01 5.744035518089272985e-02 5.924059223985034262e-01 -5.987618168964603527e-01 5.114894055568389719e-01 1.936894012175275903e-01 4.857029650464344539e-01 -7.785442145905240308e-01 1.952345291148983586e-01 8.658887679873862320e-01 3.040898934332772474e-02 7.781889609663977803e-01 -2.588422997707559570e-01 2.382332826830962369e-01 -1.731437519040824879e-01 -3.839126240148930669e-01 -5.611251349758308166e-02
-9.732011606348272004e-01 -5.241800829610820944e-01 -1.530071713640405451e-01 -6.490338359786805844e-01 -3.998432033791658458e-01 3.638348295466901083e-01 6.203938509377274757e-01 2.686398483961165984e-01 -1.436256568903384323e-01 1.231543660366969384e-01 9.612512694955929193e-01 -1.843476958148535516e-01 2.722117374999354425e-02 9.913127505785763738e-01 8.198394711322637418e-01 -3.703886268555057204e-01 9.821410828354280032e-01 -2.879946953806725718e-01 -4.736098324522369230e-01 -3.333304069991188667e-01 5.996613508983872354e-01 5.821452461256269029e-01 9.102076670071438391e-01 1.921576238193152542e-01 -2.128343027143379251e-01 7.640840095539620513e-01 8.849190646521488679e-01 4.949353561088096209e-01 4.734551076458649588e-01 2.142844406801209245e-01
-3.361129055252010667e-01 1.000781172529461083e+00 -9.342072940245625956e-01 -2.686096839456031393e-01 -8.743235567330001068e-01 -4.629576274836169625e-01 -2.901828190235166555e-02 -6.355531073912656925e-01 -5.394877900802174109e-01 -3.748815482714256131e-01 3.891630742770209594e-01 -4.169445442262647572e-01 -3.215719196427960225e-01 8.989862389976756019e-01 -4.187401955110558460e-01 4.912134373599499892e-01 -6.273708802788241501e-01 -1.450864703967180980e-01 9.811033584667646634e-01 -2.146798985702012552e-01 5.539439437493445251e-01 -8.251638407423217414e-01 5.382378765327819892e-01 -7.747704856116346406e-01 -3.889575359026690715e-01 -7.673833661834325581e-02 6.484684500278546926e-01 1.693216180244980773e-01 -6.352527432160083309e-01 -5.154330526903831977e-01
1.896436333830668064e-01 7.954374689806436097e-03 -4.489879476323412055e-02 -2.578288228886779776e-01 7.225193445983958407e-01 -1.091362481017391223e-01 -5.416060368856845386e-01 -4.333214741803607661e-01 8.071167654150648296e-01 8.820810213674841194e-01 -8.031335116747286840e-01 7.362265840288279017e-01 7.467628792796789927e-01 -6.118729250331945702e-01 2.435625725857923918e-01 9.149069130898074276e-01 -2.895002896172628182e-01 9.961436392702968101e-01 7.252664518621334544e-01 -9.790484710766205190e-01 9.793563004394303939e-02 -2.236831571677523889e-01 4.446877371582900196e-01 8.221920689697496121e-01 4.123520023915612787e-01 8.938311556227056531e-01 -3.190991008364542636e-01 2.198464517097579174e-01 4.366000009192806952e-01 6.579433629906485947e-01
7.744565785989538931e-01 -9.983836759682672701e-01 5.575666192092660900e-01 8.460374892057000995e-01 -5.498873378739598250e-01 4.304648540206069129e-01 4.359255246479308843e-01 -1.040581405089071737e-01 8.762346456243787218e-02 -2.299471756448694393e-01 -9.268730838436713970e-01 -6.789601036150859636e-01 -7.199617077474548266e-01 -4.575905300375747164e-01 -8.050159156232793434e-01 4.695718246499787640e-01 -7.352901415314878619e-01 -8.773950663976700648e-01 -7.327180785641697058e-01 -1.043262955511133072e-01 -2.461911416281162279e-01 -2.722660745062523979e-01 -4.426225495178772174e-01 9.105088728889071392e-01 3.963888288816060923e-01 -7.764267576158168094e-01 -1.863750623545838148e-01 -4.386698627313436738e-01 5.651107852784762464e-01 1.929385222317430704e-01
2.711714140617881019e-02 -8.413486922081033770e-01 -6.072941643674182322e-01 -8.843421397688195906e-01 -8.436399756890813895e-02 5.214048043722261383e-01 -1.104244809561936991e-01 -8.943432957127072092e-01 7.135401805261711861e-01 -5.042796122460744268e-01 -4.153742817792925313e-01 7.742083593290085552e-01 -4.511294639260929329e-01 2.610042326730039330e-01 -8.412983070538199160e-01 -6.221985344050757760e-01 6.573874440229637850e-01 -1.642701341989278863e-01 3.675996350984644945e-01 -8.733821161597248306e-01 1.744065437841450517e-01 1.462086111276407197e-01 -1.150747021122134756e-01 9.950528438585296565e-01 5.147829700266707276e-01 -2.766258532534007775e-01 -5.493263925726543651e-01 6.764815860365072098e-01 -5.364995610867012710e-01 -3.985860779908305396e-02
7.454829045832076506e-01 8.750783185424559907e-01 1.360424022570450586e-01 9.106699966969192817e-01 -7.743555980864237354e-01 -7.823839981052199688e-01 -1.191727323707055392e-01 3.253909188031778865e-01 -7.745080885851182151e-01 -1.483537573650011154e-01 -9.597173586400078449e-01 -3.298248802768337096e-01 -1.501040382405421925e-01 6.171212299965732617e-01 -4.062134843972702303e-01 6.642410196291651525e-01 -4.681810892574220229e-01 -1.406070358929379094e-01 5.417010742808551216e-01 7.639245308955465719e-01 -1.259986128075637479e-01 -3.367510355284560331e-01 5.826414017584711363e-02 1.559098523655460811e-01 -3.380150805508069789e-01 2.111397123837538692e-01 2.071950219029984053e-01 -5.235630245942887173e-01 -5.892515924006617167e-01 -9.964000801643300154e-01
7.635956467435009998e-01 -6.410531145168901768e-01 2.999852760016431530e-01 1.604245781065719856e-01 2.998758965796711751e-01 8.196548378239729149e-02 -5.324589203926344272e-01 -9.114932530040907588e-02 3.179228707562812284e-01 3.713471185397754226e-02 1.964203528114405184e-01 1.576600193802674965e-01 -6.332262617624984102e-01 -6.109194136289121113e-01 -9.727330775065243795e-01 6.880707973341692041e-01 8.125935345376580354e-01 6.038349103309995636e-01 5.432620834105178487e-01 -7.500119814627416170e-01 -5.599960689579169815e-01 -2.124037175185988502e-01 4.936712795933983489e-01 -9.393836974198587209e-01 2.666160218786906566e-01 9.171648795619473660e-01 1.959204915510676936e-01 -4.102245629605021371e-01 -3.160496321648767482e-01 1.693366467004375764e-01
3.808725634357439938e-01 -3.948993193523218093e-01 -8.166606577133698197e-01 -3.433113030388617593e-01 5.969897637512091570e-01 -8.976043789496991332e-01 3.868787344957895780e-01 4.654719004743381183e-01 -6.257088342069532239e-01 2.940202444471831100e-01 -4.052164983693468669e-01 -1.422248245153294975e-02 -2.707686495603575105e-01 2.796272850935890841e-01 9.655839045333146353e-02 7.920309203391343034e-02 -7.137104547638003504e-01 4.107868858299187353e-01 8.279999323231332919e-01 6.346043254330755445e-01 -9.885024547507804682e-01 4.107346604867284645e-02 9.930084160776484481e-01 8.753025134212724101e-01 3.482339779313833317e-01 1.009546262487138524e+00 1.680403903542148358e-01 8.647058991966630748e-01 -6.586566397343194268e-01 8.336057812496044939e-01
7.052198197040060457e-01 3.695496696004257342e-01 -1.052885184412403335e-01 -4.770102820811240180e-02 -6.015082109659517645e-02 -2.918464384373348902e-02 -8.792385597885009618e-01 -8.237676973034111505e-01 9.758355285001419910e-01 -7.516182179696122567e-01 8.526950794445231629e-01 9.578568835848461083e-01 -6.022828548804126658e-01 1.503502739746638839e-01 -7.750529244197013057e-01 2.339823684042984797e-01 -8.663038810448944194e-01 3.188489662990934836e-01 3.035896849013994259e-01 -8.316437927270809993e-01 7.078348751666951877e-01 -7.102187547462410766e-01 8.561437356588806891e-01 1.226102689247117045e-01 9.895920656305982055e-01 -5.086060590363949974e-01 4.419183621921266569e-01 -3.189145586751659378e-01 2.029998658359832009e-01 3.282003674494163858e-01
9.262232909018512927e-01 1.734326885082185243e-01 3.037520183575392885e-01 -4.076457873569795942e-01 6.176167898517531674e-01 6.791887853024120014e-01 -1.913798643364151564e-01 3.559310172624559621e-01 -4.046570925026756194e-01 -1.381041957262407749e-03 -1.954820057485452123e-01 4.848780378809741110e-01 -1.206481036279231506e-01 -6.484205146525392482e-01 2.733157876593134694e-01 -2.181503953914128435e-01 -7.834117376422273793e-01 -3.226605934376390872e-01 2.664653588096789760e-01 3.826293118827277240e-02 5.562077769584083953e-01 9.383923234779553146e-01 -4.931293797395518985e-01 -6.554807021011221924e-01 -7.750972791582713128e-01 2.664397254154962091e-01 -2.794853297798958192e-01 -2.798356941026812761e-01 -6.559327555685533495e-01 6.068818912441779068e-01
-6.136311460224510572e-01 3.637436211789494278e-01 5.380054621914915902e-01 9.226596244052445162e-01 -8.491927112936197009e-02 -5.828428591230591094e-01 -8.539704625120467796e-01 -3.632406977996713304e-01 -6.440982832801951385e-01 -6.726455106744193557e-01 4.939588880901945589e-01 6.010487410881465431e-01 -8.501844944835130757e-01 3.302816812756600995e-01 4.408586940122550812e-01 -3.461590993807702604e-02 9.628435305322550208e-01 6.456171292617157720e-01 -2.931482777343034085e-01 2.362839275147205209e-01 -2.558685708093116906e-01 -4.348828552717622919e-01 -8.494988999515239447e-01 -3.248832404625102699e-01 -7.100262306597977524e-01 3.573804104430029493e-01 -6.619962766396194631e-01 -8.619206582629689306e-01 7.533662970264767278e-01 -2.974414467753696556e-01
2.640043019025980486e-01 3.746811529183264322e-01 -8.377842551701973617e-02 7.908056069079059114e-01 9.292471069598063904e-01 -2.801025886786607799e-01 8.991239807668837125e-01 9.840829034673892473e-01 4.746421076899741132e-01 -3.323241626256265846e-01 9.053661262758762041e-01 -2.777417092312786662e-01 -5.193169822118514495e-02 1.512776551422661264e-01 -3.322795062873916683e-01 -5.081010215361159155e-01 -9.708570141932371111e-01 2.664202039409526712e-01 -8.815869474604358658e-01 -2.672642975771101839e-02 -2.218214770915159784e-01 -2.713848402901007928e-01 -8.023633668863643376e-01 3.914840820286882295e-01 4.087682961576494245e-01 -1.012014647900316033e+00 -8.601454547449997046e-01 -4.455638164825585779e-02 9.010892369116064726e-01 -3.250030850237444202e-01
-3.534201095014996574e-01 -2.494015122777792914e-01 -5.162800029288281412e-01 6.310999738454103891e-01 8.786153880218811052e-02 5.208247494492388441e-01 -5.603491532428501731e-01 -9.540495409347121702e-01 -8.777143161811048477e-01 1.718672062132269307e-01 -6.635702055887970907e-02 -9.051624248810231643e-01 4.912133708063962656e-01 -8.487199503286518842e-01 7.183990130929968077e-01 -3.013941680574829252e-01 3.680290188066103196e-01 1.119926896707386793e-01 -1.426869470208728952e-01 5.829401002895412409e-01 -7.144136950688740884e-01 1.079226612789553480e-01 -5.179258758228466597e-01 -4.667200176158764480e-01 -2.627309967632602064e-02 4.893441668904728314e-01 8.703758086245675374e-01 -6.090366808509896090e-01 4.607473760191961865e-01 -2.110257114221029962e-01
4.640515894695448895e-01 -3.154248317220428866e-02 -2.939690786598712566e-02 8.039429930544002012e-01 -3.997279615516579065e-01 -2.308629025326443540e-01 6.630119358424201303e-01 2.996652684708911996e-01 -1.556435584382392101e-01 -7.871621316144170599e-01 -9.847341196123203799e-01 -4.191238169314199791e-01 -6.867635447239812674e-01 -8.194421636154121114e-01 -1.197233466343239627e-01 8.875705048404047837e-01 7.459375073655789556e-01 6.736396167204286023e-01 1.372659086693499009e-01 -1.258791289983313688e-01 -2.668917970136643336e-01 2.358641424816529109e-01 4.185018204486878890e-01 -8.173041722017070354e-01 -9.725790197446948504e-01 -7.824772347287766161e-01 -9.304357373694551736e-01 -3.498961124764191077e-01 2.747782934023299539e-01 9.242640153950335558e-01
6.514686417600132895e-01 -5.135180394293961115e-01 -9.673758590760015430e-01 -8.263893018640393606e-01 1.561138634983575413e-01 4.691286795052958952e-02 -4.991079730641136414e-01 -4.021135356565729013e-02 -1.922897943603125437e-01 2.062313422264960838e-01 8.887987048127106160e-01 6.359166849681548994e-01 -2.576737796743879261e-01 -7.357805635233903851e-01 -7.302427413772196729e-01 2.678701568119218335e-01 -4.011633165672254253e-01 -6.665729067372888617e-01 1.944552087253103578e-01 3.666929425349165772e-01 5.350269281161033064e-01 3.762942918449757035e-01 -5.513566253682810059e-01 7.538659812864948462e-01 2.228169844906688901e-01 -8.021088307226134084e-01 -4.147448380521485123e-01 -4.004854093809165905e-01 6.843189507354251189e-02 5.830817614334017351e-01
9.243444884224052971e-02 -8.985831971212890901e-01 8.342020480904698276e-01 -8.972590023485762512e-01 -1.797036840292056403e-01 3.918803163059134120e-02 5.228916340920410910e-01 -3.262040821032985982e-01 -6.523748927467130088e-01 -1.235014552597804016e-01 4.479493350893690162e-01 -4.585733110502339116e-01 1.955655938302458263e-01 7.695669103313595993e-01 3.686768810437401900e-01 -2.289949220639149741e-01 1.173683200616376515e-01 2.458902550565051359e-01 -7.933400012586077077e-01 9.249614528042735540e-01 -2.021129347936608533e-01 6.039416329124903254e-02 4.476612925125799669e-01 -8.944913921612993590e-01 -4.193710680663450541e-01 -7.825986266181610418e-01 9.471535671425818093e-01 2.723542430332873132e-01 -4.572868179096214458e-01 1.924425775279128559e-01
-1.042311601961389139e-01 1.900658690826818875e-01 -5.379257256826780464e-01 8.799552692709204926e-01 -4.944239730456143067e-02 -2.696982420315544582e-01 -3.243662648426284822e-01 2.612124922135766192e-01 7.855242559852601003e-01 -4.589317604635059222e-01 3.093982917767327812e-01 6.086919942453158372e-01 1.654543857727852618e-01 -3.855304169430135985e-01 -8.423524707623233354e-01 -6.732016888458738357e-01 -5.388304358235526115e-01 -1.466559423602601941e-01 8.658688094112726441e-01 7.189106816928902965e-01 7.077891176420690600e-02 1.111194321508756321e-02 -1.696695191349022191e-01 5.794017901749622945e-01 1.198096889997712217e-01 8.526475427953303932e-01 -2.485896975831348721e-01 5.148081778425782629e-01 3.884640564859128675e-01 3.825778066789101151e-01
6.781400359018284751e-01 -9.436564925225624512e-01 3.751229272476341303e-01 -3.234830015450079199e-01 -9.680363224007563216e-01 1.023384170326927523e-01 6.542819742550279871e-01 7.336798032730831309e-01 -5.622175859677094323e-01 1.806370771846015355e-01 -7.747254455848820998e-01 -9.353985612765578495e-01 -6.999011550368177126e-01 7.932560803300940933e-01 6.477979336343359096e-01 -3.696967667398609603e-01 9.396221895770182631e-01 5.769092436796665613e-01 5.998548056673449341e-02 -1.600930630141423616e-01 -6.335473482117737198e-01 -3.906753382220218979e-02 4.844481646537484587e-01 1.933305609998080266e-01 -2.800426470059544370e-01 -3.711216041826639889e-01 4.777483000789117806e-01 4.964820223872287164e-01 -6.943808783811196150e-01 -9.365775324084923970e-02
9.810668449226275234e-01 3.671966485115107925e-02 -1.099837703512752812e-01 2.752933224253142352e-01 -3.180355734815639712e-01 -8.551169703253603815e-01 4.539672748133291580e-01 -3.047321765569306895e-01 -3.250817825209047218e-02 -6.453952788764667492e-01 -4.621536606948785098e-01 6.235274876769585362e-01 -1.610431071465970032e-01 3.625545348436628457e-01 -3.993604768848981745e-01 -3.330440716948345758e-01 1.871462059992846372e-01 -5.834658871491395921e-02 1.788855064759021785e-01 2.532776568230432276e-02 3.214807173729083978e-01 1.208498509309882257e-01 -2.943213701005452654e-01 -2.651651851087835077e-01 1.870075739185798891e-01 9.527862793838541844e-01 -4.187255722288399928e-01 -5.111889564908760342e-01 -8.460291248272854281e-01 -1.814311561566260000e-01
-9.124112440851168682e-01 -3.158728643455968599e-02 7.216633665356674276e-01 5.592412820134941009e-01 2.418324662393721014e-01 -7.259046674411727684e-01 -2.935709353548676126e-01 -4.019506438917098273e-02 -2.728653301072892501e-01 -1.748647577281579046e-01 1.671078827805183298e-01 8.855291195189554099e-01 8.102020508716975544e-02 1.772717043127071401e-01 -4.167828892579925615e-01 -6.281831081184133803e-01 -1.390863922769425554e-01 -9.840329587487323115e-01 -1.247193162779585279e-01 -8.518419943435961983e-02 -5.548482547541416787e-01 -9.336395280205942449e-01 6.437281897617317394e-01 4.615402683639044934e-01 4.439370488212714128e-02 -1.748205028129242444e-01 -3.991925711131777410e-01 8.314746200620963812e-01 6.611374678082618805e-01 3.863895528206731100e-01
9.018458594290004182e-01 -8.297251518106326662e-01 -3.832303304226596374e-01 6.869915748657181576e-01 -2.993151958060207840e-01 -8.882824129797375345e-01 -7.383245213140668950e-01 4.644187213282305882e-01 8.667294426574050359e-01 -4.208520396608237402e-01 2.013930222983364993e-01 7.437270775593549654e-01 5.366443218213740041e-01 8.477720171044526021e-01 3.395455069594219832e-01 6.915219287951346328e-01 -3.362113638805810378e-01 -8.198357533956003307e-01 9.702468649046136484e-01 1.278062827131876411e-01 -3.693391035345418572e-01 2.022460540719180910e-01 -4.509451199728130022e-01 9.812601764830666817e-02 -7.711391893516120755e-01 6.300165295198512094e-02 9.003220981527743083e-01 7.353563212810434457e-01 -1.482681171884489280e-01 -8.130887428153509289e-01
-4.261763336786203449e-01 8.113310781784113246e-01 -2.447345711161499349e-01 -4.405617106863917165e-01 4.047262940352820415e-01 -7.040914453474064194e-01 -4.247395268704733939e-01 -5.304557892197975244e-01 6.690276678255506759e-01 4.656360434801134485e-01 9.747596207056248296e-01 9.022481182254322718e-01 1.004692929736708873e+00 4.659210252794844798e-01 -9.377428078261613731e-01 7.661713309275270944e-01 -7.962633499127838022e-01 -4.756405419170092741e-02 -9.497737778080771187e-02 1.621429136389786752e-01 6.633766727138955543e-01 6.248740112476216524e-01 8.841303104129720758e-01 5.294044964540460807e-01 4.951587555741612245e-01 -9.227278968698997552e-01 8.882286509223281668e-01 5.155855686808034077e-01 -4.143123029101456467e-01 -1.793076063647719709e-01
-2.833140658142367652e-02 -6.166278057074385810e-01 -4.932331491265190548e-01 3.077458353012251790e-01 -6.301426264683408496e-01 -1.570644893206769588e-01 6.449907399103183003e-02 -8.713529917458684437e-01 6.392716506332847270e-01 -1.167115274120034130e-01 -5.097138276313886163e-01 2.200401905193222762e-01 -4.467947889010058238e-01 7.752242732614590404e-01 6.653146500211153391e-01 7.899331333337887839e-01 -1.445024066013285702e-01 3.909118886690778338e-01 -9.126284567979753293e-01 3.968321471944459833e-01 1.967276079201179528e-01 1.159398796968212769e-01 -4.312312514143464282e-01 -6.573101948200933409e-01 5.922772281171905240e-01 -9.407189349252088606e-01 7.826527046220488337e-01 1.763726175228897200e-02 -3.340257598631282687e-01 9.481078357267840317e-01
7.804571738504468836e-01 -7.716344045648220185e-01 -2.642506073468446348e-01 7.188392546432254004e-01 -4.053021490135934046e-01 2.593850961378165176e-01 -8.470084524956204008e-01 3.938276096877023069e-01 8.283628901695486713e-01 -6.569321832734493771e-01 -5.368511970516172127e-01 2.235254807952285483e-01 -8.882941870897465009e-01 7.029636515102936078e-01 -8.956457051395234625e-01 -2.540596330148214843e-01 4.800411982992697779e-01 4.720653321624723731e-01 -7.836135294838447729e-01 5.890458006582467432e-01 7.122767512363450404e-01 -4.584042014514362884e-01 3.917474482344661113e-01 3.925351728901709247e-01 8.918225069099463553e-01 -1.305746781736177864e-02 -9.650440978484930987e-01 6.311205189324481379e-01 4.061468081814932352e-01 9.403478023807326780e-01
6.692695533436969768e-01 -7.813514810026304103e-01 -2.681747896934549846e-01 1.999606045044808877e-01 8.941028751637321026e-01 3.652038003839048336e-02 -5.657416097781921005e-01 -6.976055839862114194e-01 -1.157750587500657180e-01 8.561794660905310828e-01 -2.476086922965335668e-01 6.801756438567880814e-01 8.793526789093737417e-01 -2.158886236183213958e-01 1.910963447799703396e-01 1.474333376304220455e-01 1.109276173017188921e-01 -3.363810114997803358e-01 -5.151037196806714791e-01 8.941202931947432875e-01 2.053009715508360145e-01 9.876117777802727593e-01 9.607776407298282972e-01 -9.859056412441307149e-01 7.631791355375809882e-01 8.332236002011871312e-01 8.903265953405905542e-01 -7.732230512182730608e-01 -6.171665278163211976e-01 9.537722413319307257e-01
8.371429941936107955e-02 1.255105948365998758e-01 -1.957254854128576416e-01 -5.320683654265316864e-01 1.577476102434980099e-01 -8.397696741556325284e-01 2.890058089602665636e-01 8.436465958316009539e-01 -5.785522534568341424e-01 -1.976450295202130114e-01 -4.698660693882937833e-01 -5.073718712154541288e-01 3.739572619112577767e-01 7.703277211996593099e-01 1.016235582186691133e-01 -1.372000859162432820e-02 -9.701185129828359122e-01 -1.159027016484777545e-01 9.372574238513621259e-01 -9.453662537011842115e-01 -7.845316904875735409e-01 2.857940469937536587e-01 9.159237487009886935e-01 -4.718464638066194317e-01 9.496606839118603149e-01 1.413699026262525971e-01 4.813855446273471728e-01 8.544892305762569196e-01 5.429042431050700168e-01 4.683192061460009770e-01
5.598757551298602086e-01 4.313731600032527647e-01 1.664166354858461483e-01 8.125636107051515955e-01 7.837149830693607155e-01 -9.049431126182212459e-01 -5.196189081178624880e-01 8.841355343025794067e-01 8.595596626666909268e-01 -6.406843440600431538e-01 2.937395863171576860e-01 5.991397264816452628e-01 -4.510406027134469809e-01 9.309299731390319188e-01 -9.175428015581298113e-02 -8.127755453830487475e-01 -9.039581781988870191e-01 -5.807351722123108573e-01 -4.761867366175964733e-01 1.930141974586259412e-02 8.980571735558444679e-01 2.308953806447444079e-01 4.809644858647268983e-01 1.168343088791148621e-01 -4.659474945806804658e-01 7.402222860551083139e-01 3.202226719072057692e-01 -3.420298157234630265e-01 -8.060898043521576017e-01 -6.645695135572313728e-01
5.079029273686204160e-01 1.141608059658420077e-01 -7.560255624940224184e-01 2.186323006060910124e-01 1.144655411649217747e-01 3.917775732661592514e-01 3.467405735753455454e-01 -9.392132494302072310e-01 8.557177136566325448e-02 -3.183138378671834801e-02 2.219169249114096576e-01 3.604176484321356400e-01 2.408110781814975787e-01 -5.944572028723225099e-01 6.271847379055363048e-01 8.577028644839903571e-01 8.695595199014055643e-01 -8.956095292009730313e-01 5.959702635819902339e-01 5.264038223329114974e-01 8.154446745677519370e-01 -8.154576044644973321e-01 -8.971144063075746633e-01 1.423125640286010407e-01 8.435944117359528427e-02 2.991398868510167786e-01 7.458731776549066064e-03 -1.152589192552237324e-01 4.808807302140986062e-01 5.158769769151153595e-01
-8.366440198716937893e-01 8.828392110562250927e-01 7.571309431759170039e-01 5.628155363094725430e-03 2.786250219005044770e-01 9.136864987673839478e-01 5.019376743926752260e-01 -9.435801650499950344e-02 -8.314132137842912273e-01 -7.324932777036583520e-01 -1.114492821127888340e-02 4.109029141259359919e-01 7.681512385170242707e-01 -8.613753827720296297e-01 7.682582758324393302e-01 -4.869044099761353217e-01 6.019235026309246450e-01 4.353028980564718764e-01 8.857509444386728603e-01 -4.024284698092676638e-01 9.276675633444524116e-02 5.525489869845678914e-02 -9.187814178331523696e-01 6.751074797073920442e-01 3.888845860692404233e-01 -9.288138023085978912e-01 -9.554491971128028505e-01 -8.318469449247649639e-01 -5.255189042258983090e-01 3.256320999070555500e-02
-8.675587059045259952e-01 -4.215561686066287006e-01 -1.000126435105659128e+00 -6.975803431668273769e-01 8.936379871860314905e-01 8.466201796736391172e-01 8.716687219805501208e-01 9.127745076882539665e-01 1.937305992760208484e-01 -3.708234679079513985e-01 -5.985956564895198451e-01 -5.459508745469188185e-01 4.917073639702592147e-01 -4.332299190826463531e-01 9.254406551108732559e-01 6.715958893791624806e-01 9.591901108372640206e-01 -5.152470933403890951e-01 6.163944311467419584e-02 3.850721955954841680e-01 -2.164258201933683678e-01 -1.870329358703494704e-01 -1.553862922730969431e-01 2.358978200454990570e-01 -9.462507939682207603e-02 3.474652257761426943e-01 7.570445624008811381e-01 -7.555436038735278137e-01 3.955802693126231895e-01 8.524798581056215463e-01
-9.941204281762646700e-01 9.517268782679947359e-01 1.138927066189837287e-02 -6.716150600401250559e-01 5.690363536934553990e-01 4.846213960349219918e-01 -1.255310861972238068e-01 9.351761258876325478e-01 -4.080876489976235089e-01 2.885881270676016186e-02 -5.097563438765564392e-01 1.308551396816196206e-02 7.498850513008495366e-02 6.711602055827580182e-01 1.323339005453840200e-01 8.187633923246285805e-01 8.323855443538323851e-01 -5.225474918892767384e-01 5.727582738066294699e-01 -5.149462005784136709e-01 -9.550335882211873073e-02 1.191352133856177740e-02 8.971169528788711656e-01 5.253172555114588027e-01 -5.127944426462626160e-01 -3.939906876730869811e-01 -8.612636088147074265e-01 7.097552562508810947e-01 -9.037402720385271371e-01 -3.798885465819502594e-01
-3.308045725092498834e-01 -4.980246513592628266e-01 4.819206438496413947e-01 -5.642072611692008390e-03 -7.621793071788339480e-02 3.621275137788421139e-01 -6.584258201413311085e-01 8.672925345610392744e-01 -4.888919543278266167e-01 3.694604401706080843e-01 -2.515609673127625068e-01 -2.731665713840279452e-01 6.633414055247272012e-01 -7.576802069297975395e-01 -8.200948546801773986e-01 -3.897888734472349653e-02 6.101179849173780090e-01 7.139561776637692869e-01 5.281473093813874309e-01 -5.725571191834533114e-01 -1.655128625311366730e-01 -8.799556006636392036e-01 1.250974506744808312e-01 -9.292509818803291743e-01 -4.845530045326044977e-02 -4.073417410220137036e-02 4.454830842777072197e-01 -9.253591609641648175e-01 -1.287999009630863279e-01 4.277842455099398755e-01
2.343629398618768123e-01 -2.029999402935803721e-01 -9.106806392596242805e-01 -3.478783360714656769e-01 4.114122903410973864e-01 2.473701547693067382e-01 -3.914489763269449196e-02 1.468378776516251760e-01 -3.514297011497146683e-01 6.712188747374270292e-01 3.458720562776158025e-01 -3.253781989392280360e-01 2.802165476320883086e-01 1.592476449268145910e-01 -4.426151982106922289e-01 9.121220980129229883e-01 -2.296734375842749143e-01 -6.087079799651164969e-01 5.754006828132376405e-01 2.186344503827277186e-01 4.659556559709827628e-01 -4.035475439052508412e-02 -1.801403990485304918e-02 -5.033995904285843981e-01 -2.977525948375173148e-01 -4.225816168689290608e-02 6.276609370076554617e-01 6.136173862813373292e-01 2.654346276459117471e-01 -4.818296333371376722e-02
6.947051203359398963e-01 -7.433103906283792250e-01 -3.405680136770019018e-01 -6.003089868918742855e-01 -3.066498427054005771e-01 8.575338715666471767e-01 3.309637364681254912e-01 -2.622041385214131104e-01 -3.350154479252858142e-01 -8.719257423731909817e-01 9.146116023261438577e-02 4.389427454922950056e-01 -3.672641705330120243e-01 -6.600347999080234951e-01 7.297489245998721730e-01 9.026611821122458856e-01 -4.863139225432126511e-01 -2.313898916497328095e-01 2.922275634559114432e-01 1.586280503797556640e-01 6.660314130281810852e-02 5.288995558628581950e-01 2.865782573688976931e-01 -3.771875053255933086e-01 2.902505555099462176e-01 6.461037898346663200e-01 1.154665349143829678e-01 3.032052226396356187e-01 -8.538917355335724491e-01 7.922724917336348982e-01
1.686785741866006771e-01 -2.248970244449180200e-01 -1.539976800963643588e-01 -2.796611371816372094e-01 8.509427471073851557e-01 1.328877953027332581e-02 -8.069412973894433128e-01 4.406680779126373459e-01 8.350695057111146014e-01 7.792655712206073559e-01 9.604211955465413730e-01 1.263351185596491566e-01 1.742553546803598807e-01 7.291458063026191594e-01 2.662764813245262485e-01 -7.841662093526462485e-01 4.021273513606616334e-01 5.107936190325986781e-01 3.422027308532055723e-01 6.134896747826414920e-01 1.660131021066105494e-01 4.146651938532907034e-01 -9.361096316972251641e-01 4.780169303673122427e-01 4.736644028469146339e-01 1.862882708776577301e-01 -2.661162878805266030e-01 8.766243971320643036e-01 -1.700523058973217871e-01 7.604838566826767066e-01
-7.445439329464743627e-01 -5.620518080863897703e-01 -2.267995684085626074e-01 -8.132343485315604026e-01 -9.882728997697309836e-01 -5.554405871958507657e-01 9.038023234967691444e-01 -9.559233354657853399e-01 5.820193781153596424e-01 -4.993315947457384052e-01 -9.012633125312723426e-01 -6.861332370006305303e-02 -5.340721843019036186e-01 -6.029150333564280428e-01 2.341656308171243817e-01 5.548357905224728936e-01 -6.282078090505301970e-01 -3.150589651387393775e-01 5.238655739390326582e-01 -1.257341540228236743e-01 -6.265774391732366055e-01 2.285557463889513197e-01 3.176961642823216553e-02 3.892311964967384852e-01 4.199542524110950747e-01 -3.196857303111506066e-01 -9.314915272876165275e-01 6.492665488595249501e-01 -8.203382563189473564e-02 5.133850256537093593e-01
-6.629048217378854524e-01 -5.815239397619159645e-01 -3.258336079304657851e-01 4.846638902629777368e-01 4.132855419685547704e-01 -6.601594633132562562e-02 8.095207716375284468e-01 1.034375086272845690e-01 3.741283877603048258e-01 -1.738214672863076515e-01 -4.159737949554819236e-01 8.215989672421099010e-01 3.955465761847574147e-01 3.446450230680517812e-01 -2.380120324066984094e-01 -9.077505408837098777e-01 -5.255894376384410149e-01 -3.823370147021165621e-01 -9.028064383782856694e-01 -1.002470866518619941e+00 2.427397173103785777e-01 6.976380403538653963e-02 -2.904170832986981421e-01 -4.071010267853826803e-01 -5.891019118963655155e-01 -6.494627370173997605e-01 -6.483542108876771959e-01 -5.554449239892845780e-01 6.537192817864433403e-01 7.485305763181384631e-01
-2.669035475338245034e-01 -3.125873110123056908e-01 1.655545204084652722e-01 -8.933786793375465551e-01 -7.918325544027623453e-01 9.027800050305400115e-01 6.472619641183066097e-01 8.479149769689307836e-02 -1.451817966890836809e-01 5.815058879830607985e-01 2.175792271292562030e-01 -5.510696782859189069e-01 -7.169975804266358610e-01 -4.656032095341138266e-01 3.033443843265511974e-01 1.318052998526618447e-01 -3.307534062086288085e-01 3.049409978986494796e-01 -9.441218961204271565e-02 -7.772645617251819905e-01 -3.730736602401500956e-01 1.398985525408559527e-01 -2.253650909617897213e-01 -4.469053539988393497e-01 -2.702181572772652252e-01 5.057837441849225568e-01 -5.192114417362504453e-01 6.703796847362187838e-01 -6.959031535022248693e-01 -8.281209875321203784e-01
-9.614393221621148067e-01 -2.618963660962442819e-01 5.906808636890904518e-01 -8.197190227832500398e-01 2.602442928783436082e-01 -8.051288283938023982e-01 -9.740201527273306681e-01 2.718429798231416505e-01 -1.957458668136730084e-01 4.616846279547948129e-02 -8.308517221001114617e-02 -8.413616805647425867e-01 -9.809045273793430830e-01 8.294139943103258084e-01 -2.386294213986424328e-01 9.581592318421900956e-01 1.941347717178513732e-01 -6.496258561085529459e-01 9.089866069618548483e-01 -4.682717519862608091e-01 9.742990628029057909e-01 5.183064421675882549e-01 4.633165556434751253e-01 -2.599757856857354277e-01 4.220802706855919517e-01 7.193153817179560594e-01 1.554598621952588688e-01 8.280945174730532932e-01 -7.729121870039010744e-01 -7.095118861685412170e-01
2.662079930932229610e-01 7.083340844821062188e-01 -8.059846838560486004e-01 3.331797283138328569e-01 -3.513214208598171573e-01 -3.821923838755801328e-01 -8.269605191280126055e-01 -7.759255535050795238e-01 1.865087758449109068e-01 -4.259920122514480045e-01 9.827264636168407952e-01 -8.372484890465513585e-01 3.647866608595300431e-01 3.151565522928208019e-01 7.515686972235193775e-01 -4.903045966921890098e-01 -1.654820643994772966e-01 3.464192328150219602e-01 -1.809875436397820614e-01 3.917077007776090802e-01 6.603506184073079099e-01 -7.891569496087240676e-01 2.678843584077314488e-01 -5.587582830393893474e-01 -6.234606551772066130e-01 -9.020466302025449412e-01 -4.048454933520986843e-02 8.324410330111818856e-01 7.619993037245132994e-01 -2.975450301107512296e-01
-7.954217381726205183e-01 2.383368879067380430e-01 -2.574288080119078656e-02 6.147571824451381062e-01 -3.607772773834531099e-01 2.558033293838981800e-02 -6.360276171096189424e-02 -7.602832804924726240e-01 5.676852746560568930e-01 8.451339925953871290e-01 2.020792910442722745e-01 -6.170916364100325069e-01 -7.718681488844721938e-01 -8.405474827858524511e-01 6.763111763736812110e-01 -1.094140342662513199e-01 3.547606589453351500e-01 7.376858588816956885e-01 -3.268214379024805272e-01 -7.565216361432111625e-02 -7.701022536202019042e-01 2.820855663736973259e-02 -6.190113328989786945e-01 8.091816863457252929e-01 9.637408147653836465e-01 -8.846084428990305115e-01 9.464420787106828103e-02 9.733512126258039299e-01 -3.860766409897249951e-01 -4.095077256991201398e-01
1.527090369264240410e-01 -4.290477033633540160e-01 3.416262713026366193e-01 -3.423976471373308961e-01 3.983277742833506996e-01 -3.796535278771719368e-01 -6.054773943903409839e-01 -2.030230592693461622e-01 6.569839395090028011e-01 3.336918681469049908e-01 -8.054850819872864109e-01 -6.209095872390524296e-01 -6.751774288790260981e-01 -9.603586072639812288e-02 2.819578838803894483e-01 -1.930588948183831546e-02 8.071175284967122554e-01 9.978818209117502891e-02 7.083814227064473279e-01 5.249646857285090729e-01 1.861697821154635960e-02 -6.904748862396918874e-01 -7.103617582066790170e-01 6.170402944158052128e-01 -1.363465883755768382e-01 1.237935701282871781e-01 -1.444323207408607958e-02 -2.430098437906877407e-01 -2.443637988852409848e-01 -2.164566341410631700e-01
4.021034892284959250e-01 -3.222290510528740826e-01 7.652519490089338960e-01 -1.168614024840459176e-01 7.019620256746632592e-01 1.140265506544576452e-02 -1.344515482923429317e-01 -4.500970481381767474e-01 7.584180810645351212e-01 2.123699393328770668e-02 7.577030891462201989e-01 2.137337250396759980e-01 4.072040971118443334e-03 8.797819470701258027e-01 -7.492886573935486627e-01 -7.594648893128630451e-01 -9.399576508758960003e-01 -7.788192406441488691e-01 4.792173801452681015e-01 -8.282238667341218497e-01 -7.954731657280290635e-01 -5.598388748893156075e-01 6.672584441577346093e-01 3.345150641830529209e-02 -7.628104137829427867e-01 -8.077568392295485511e-01 5.090566713442219449e-01 -7.448370394180586773e-01 -7.966039021225924666e-01 -2.909672667243913824e-01
-3.110697244941714179e-01 -6.930833597017023173e-01 -2.118165038847696080e-01 -4.178447484603430850e-01 9.363614769732636622e-02 5.427321239407618680e-01 2.357539850456935038e-01 -7.009972111772537484e-02 -9.144384160964890151e-01 -6.719870698241465767e-01 7.680663017450681807e-01 7.365456918811189579e-01 -9.240860903876423338e-01 -8.101591636661190643e-01 -3.605597993535751278e-01 -1.471347714865273992e-01 -5.559088551674987722e-01 -7.602943080842091694e-01 3.488498360096020101e-01 -5.582050138910045478e-02 -5.228397633978030257e-01 6.005264817375455255e-01 -7.141900518688873989e-01 -8.927010359461953204e-01 -3.667729850232172989e-02 4.863646003595492595e-01 8.254288054491824012e-01 -3.391889505315675568e-01 1.286332765598023065e-01 -7.316283540422034992e-01
-6.056483817736711961e-01 9.785315113409945864e-01 3.265600763113956084e-01 -6.147208251395626100e-01 -3.538057319807924039e-01 -3.652124271769731645e-01 -6.288990077422605962e-01 1.461829625870309513e-01 -5.738681339587949903e-01 -5.181897148990715074e-01 7.295362701371532754e-02 -8.789649895906452848e-01 2.189912117344217438e-02 -9.494759404901498279e-01 -5.523372993554608312e-01 -4.601160747517255567e-01 -3.495211703231438372e-01 -9.003232765956010741e-01 -3.317037141054764438e-01 6.477871079129196019e-01 -9.042537411443617446e-01 6.631186041567148637e-01 6.088392981420154282e-01 -9.701066899828989509e-01 9.759519735054097422e-01 4.027954958577443234e-01 -8.024934712986941943e-01 8.642640468303146584e-01 -2.890280119561662864e-01 2.730191912062529536e-01
2.575141342781096521e-01 -8.382988629103425016e-01 -7.100235206305291480e-02 7.294800193731125759e-01 4.012984130631668811e-01 2.533229516051295760e-01 -3.995157514985162028e-02 6.030042288845062215e-01 -4.586985274751502750e-01 -4.663812191003255947e-01 -7.651989027707528646e-01 6.060301373324365748e-02 -4.891382816518924370e-01 3.694359266050015189e-01 -3.388627296263816979e-01 2.817546754377882046e-01 3.336675345028322637e-01 4.711472511748503351e-03 3.854385236451909891e-01 -4.948442029485249360e-01 -4.429777243181904911e-01 9.803945513702930770e-01 -5.611707631754774273e-01 -6.371272577555376904e-01 7.494940001464903689e-01 -8.211125654539030982e-01 3.095551109666501710e-01 8.824250756151497121e-01 -9.431830854291820554e-01 5.257796746575582603e-01
-4.809870762986314108e-01 4.440500046812142498e-01 8.880085139190773136e-01 -6.983408313554219093e-01 3.215203700304883339e-01 6.121843251133652908e-01 3.309203901077316656e-01 -1.339811105616643683e-01 2.996071608917854068e-01 9.207007820157111500e-01 4.814970406925691560e-01 -8.758608139453792907e-01 -6.396506328137870900e-01 7.980695758306722842e-01 9.667644316651499148e-01 1.127697351480755616e-01 4.320685646771553756e-01 -6.930806909588811404e-01 -9.705321847420003145e-01 -4.514279866976452782e-01 3.391609246988138149e-01 5.559958795825803435e-01 -9.718572719642828428e-01 4.090359064713264270e-02 2.806120911511693072e-01 5.861251284846736853e-01 3.264677249954897054e-01 9.664125353355390580e-01 9.765280599232437631e-01 -6.292480917721740008e-01
8.006498260389637300e-01 -9.037226895934302728e-01 -4.572851898274165050e-01 -5.004221904087498007e-01 1.339140013503534454e-01 -2.659122078633063269e-01 -5.777758710407389087e-01 -2.790568600761547113e-01 5.214505379565483878e-01 -2.550603726093041423e-01 2.802098057742749004e-01 1.357132812664781640e-01 1.070126218346893476e-01 -1.153122700155501806e-01 -6.795161377885086118e-01 -6.958114382080424209e-02 4.048929895503119991e-01 1.953700832446786939e-01 -4.279761672191105260e-01 9.233500992845825595e-01 -1.127370704336036755e-01 9.689219199832317386e-01 -1.365254214791875864e-01 -1.832008720357206077e-01 -3.541241365772960781e-01 -7.307379521019605750e-01 5.497483825740949737e-01 1.454998083687829846e-01 9.846666190784058026e-01 2.526764663703613967e-01
8.242074385908793044e-01 1.056766901946057241e-01 9.450049711550705389e-01 -2.738657245696460296e-01 1.923701545804809010e-01 -4.926516488075263073e-03 -2.148758255316166044e-02 -4.466659927166108379e-01 7.442239138211190763e-01 -7.632923097732087214e-01 -9.495282507464996025e-01 7.248516240397074872e-01 -2.444749220767685749e-01 3.911983065795406334e-01 -5.169909015366684901e-01 2.950865655716165548e-01 3.709551328173952833e-01 -4.882005971573482039e-01 7.598589253153190462e-03 6.026607036224989056e-01 -3.216727339867012092e-01 3.061180052786946840e-02 -8.334167613562807331e-01 7.035006369587741559e-02 -3.077771619759371857e-01 4.606234449478003312e-01 -2.950161482342717467e-01 4.021211857401510437e-02 9.085094212706674999e-02 9.319554344124687528e-01
-2.280909951040260564e-01 5.019314196013446860e-01 -7.178125280495329941e-01 5.701042806681778652e-01 -3.590632542391362647e-01 -3.819110978639153053e-01 -6.416078982884073634e-01 -7.451628490770842994e-01 -5.080892073955390470e-02 6.474504050468312677e-01 9.636653678062874484e-02 3.898463902760447297e-01 4.722940575925538287e-01 4.008977835124219458e-01 3.047890686856622455e-01 -6.587334684215069291e-01 -1.631139326515557708e-01 1.761106784848796014e-01 -1.527944585419628021e-01 4.827927499742169504e-01 -4.993645504040974403e-01 -2.715726615042142744e-01 -6.257433843651434291e-01 -1.011374972851411258e-01 2.204623934662073848e-01 2.152690558644515528e-01 2.175794676443992270e-01 -9.320025774537032959e-01 -6.136868940638547931e-01 -9.725007915301816519e-01
-3.433843673229771132e-01 -7.039933006492433976e-02 3.853513204244794765e-02 5.632703663827545171e-01 -3.498047253004459844e-01 9.784342253967219794e-01 7.707024631253603930e-01 7.650912134036289003e-02 -3.611494141923184825e-02 8.884664755642579514e-01 -2.156495954682968175e-01 5.190243462986728895e-01 -9.932108860202234490e-01 6.560055504799517934e-01 -8.998240786551182924e-02 5.777803891088645338e-01 -6.967862079111581952e-01 -5.919962558409040329e-03 -1.686418805657352582e-01 -1.900752261128263176e-01 -5.363179400597013480e-01 -2.273804574615306551e-01 2.654939469949315831e-02 4.566256204956061771e-01 -5.340473163701742187e-01 1.154492153701365265e-01 7.517759263508598799e-01 -8.928449634270002599e-01 -9.475194107819835398e-01 -3.922608427393595165e-01
-1.710407658797870323e-01 -6.206364624282392772e-02 3.292424374742149440e-01 -3.395939849097126539e-01 -5.405026945903267377e-01 -6.971808408326178874e-01 6.618166077107810741e-02 -4.284844809080957662e-01 2.786564925670665938e-01 4.840019854538721855e-01 4.348323462863834532e-01 3.725230064394760565e-01 -5.114838341594851734e-01 -5.491356265462697950e-01 -2.072210242043264761e-01 5.495869018442544468e-02 2.288630796425134839e-01 -5.765397409681392166e-02 8.604367735374314208e-01 2.176932381526862359e-02 -4.503117322006345291e-01 2.331762139394073230e-01 -7.310164105731223883e-01 -6.323813334555403731e-01 -5.612286000163788646e-01 8.775277216865996488e-01 -7.233505338550485497e-01 6.578866673408370058e-01 3.871905408052030984e-01 -7.432318453537567482e-01
-3.142728655028824147e-01 -6.437569628532467669e-02 6.839979574984211830e-01 8.676604578196575046e-01 -4.393236861218580147e-01 -1.967215567048138103e-01 9.138059002276024412e-01 -1.767563567704840410e-01 7.585209605018282675e-01 1.245008791975237283e-01 -6.739457240592261478e-02 2.599414949660597274e-01 -4.895724732564749049e-01 -3.202442266455028941e-01 -3.073134810657803251e-01 -7.517516982404672810e-01 1.286449442036601276e-01 8.040159160241167058e-01 2.772133850828492063e-01 -8.120020952874364983e-01 -3.765235028128358641e-01 -2.858622585321026199e-01 -2.227525486982563363e-01 4.283414216424676936e-03 -5.754482673437549822e-01 3.329784796339120279e-01 9.812866396172925665e-01 -2.388847391234750484e-01 5.665651321333293744e-01 -9.797699365439185293e-01
-6.432566517915255799e-01 2.592420246197217337e-01 -3.516646147721669835e-01 -7.257851180365751942e-01 9.219706380273903767e-02 -6.837584099880653632e-01 7.015952831724308059e-01 9.320749282217005716e-01 -4.648655755592036032e-01 3.153426173687121636e-01 -2.018964290507501980e-01 7.611712244929315085e-01 3.999477833213030409e-01 -4.588890148151495429e-01 8.319774034049439715e-01 -5.437614287258913937e-01 3.733664458785832529e-01 -5.835332929110229605e-01 6.838311856713003012e-01 -6.308025765643971994e-01 5.532420467470785530e-01 -9.526355103035903937e-01 -3.823691729529292149e-01 4.837356852208402058e-01 -4.486682376410625617e-01 -8.225525519882427306e-01 2.214525735101336157e-01 7.148751801757188273e-01 -6.633350736609556764e-01 -9.769689639774131740e-01
5.721239153035332370e-01 -2.213867756475223492e-01 -2.122527569081298082e-01 -6.908638343305849583e-01 3.198527362068348534e-01 7.092027878289318688e-01 6.848743675585921009e-01 4.790795090010318558e-01 -5.808497960185976527e-01 7.868272782597025561e-01 -3.698803176243734558e-01 -8.815150923037501363e-01 6.911384945598201268e-01 3.756754613425807299e-01 -2.114384817686784657e-01 -2.082519846037513278e-01 7.188544364818291732e-02 8.434980496617522361e-01 4.860687934645970820e-01 3.075270187533750144e-01 3.524387071395817528e-01 -3.310957986746987936e-01 8.261949524153134883e-01 -4.155205388903245867e-01 1.602625591450550779e-01 5.185456908510702734e-01 7.428082422218512670e-01 9.300018767479769632e-01 -4.775091566563654522e-01 -8.791309673421078275e-01
-7.166845294494245122e-01 -7.434553384529266618e-01 3.885507102932034273e-01 -8.733414166927527811e-01 7.913254371692012012e-02 6.676421525620964692e-01 -8.048826679952423291e-01 -5.115146505137785349e-01 -5.948115740197320589e-01 2.599883011218682149e-01 -9.437340391045990762e-01 5.425386621989312097e-01 -9.520662206587013343e-02 2.623148257109112480e-01 5.339160090666777991e-01 -5.977176933535783832e-01 4.442844559158273809e-01 -7.394090323990439861e-01 5.098598183377921478e-01 -3.776119240868321819e-02 -8.869474680801885391e-01 -3.317782201079639837e-01 -4.101354812201029043e-01 1.263277749370885494e-01 4.940729744355748521e-01 6.599938944130602225e-01 3.584969718734547506e-01 7.576229794700179987e-01 5.269187048855610012e-02 -5.935033920551512354e-01
4.483466230735917990e-01 8.332430608585407183e-01 6.356866903711138050e-01 -8.996810868880712464e-01 9.103560821694927502e-03 -7.195681020156544094e-02 9.550862856513462340e-01 -5.090342879312484969e-01 7.537879748133535784e-01 -2.255578123733270601e-01 6.381616229350616232e-01 7.205478974619622390e-01 9.265727596324714321e-01 5.660055549883440118e-02 -7.940674486399765808e-01 3.203868733982804806e-01 -1.774656085515733395e-01 -9.118549564646606376e-01 1.972432074125396451e-01 -7.972685620922854710e-01 -3.626248738425469909e-01 -5.266867258965224341e-01 -3.227684846799811630e-02 -7.049231756344046529e-01 9.473372480515607208e-01 8.345108874279619227e-02 3.998875641283586857e-01 -4.254233228896491803e-01 8.809654691135655469e-01 -3.775892821831775548e-01
-3.683217749120901718e-01 -3.651646447418646635e-01 -6.148267718857792774e-01 -2.148338813280449844e-01 5.834725072225487030e-02 -3.256310422427247109e-02 5.123073541651973484e-01 -4.482605617746381887e-01 8.736051847946010168e-04 -7.931515259487915692e-01 4.492929172169615182e-01 4.104059801422416665e-01 -1.900577328504950425e-01 8.160489784057395335e-01 -6.235489542032875976e-01 -7.623168536110498383e-01 5.041289569125912973e-01 7.860502207004320674e-01 -2.563830903928869809e-01 2.774528559517251414e-01 3.324568435454005599e-01 1.099951987456297825e-01 5.541176379132191077e-01 -2.215319965645155820e-01 2.755019565968764850e-01 -1.237687331901917397e-02 9.100697955316807697e-01 -8.482081043249181107e-01 3.706533134793440348e-02 -7.266705483762789797e-01
-4.194347199857818009e-01 4.587334673250347827e-01 -8.136512133916801170e-01 3.865602831012748819e-01 9.709642864076944990e-01 5.186932334312130966e-01 -5.818404149747964382e-01 1.316494739678060188e-01 7.568096631537536527e-03 -9.280414283013420640e-01 -7.128055453411291653e-01 -7.866031003995820337e-01 -7.408096707430924521e-01 -2.191972659955804814e-01 5.935241809728473150e-01 -1.121025851211545216e-01 -7.123989295704937774e-01 -7.681344624699838475e-01 -3.508757588543962025e-01 5.900070521089262332e-01 -5.020182668427914940e-01 8.252234071059942888e-01 -4.529255773016110931e-01 -4.853356243386094948e-01 6.393142407303813446e-01 3.980057227892278698e-02 -2.754390117884122358e-01 2.041637334307020712e-01 -3.205737572807594582e-02 -3.989323319678420576e-01
4.662246087915477011e-01 3.657600886807987894e-01 -1.428620126712517313e-01 6.307570775349117254e-01 9.300959242631119395e-01 -7.276380291625205166e-01 4.627217700061632133e-01 -1.611184898707506419e-01 -8.642476403446484878e-02 6.496653139065400318e-01 -1.558901534298335334e-01 -3.161710208216434448e-01 -3.369802672444853209e-01 2.701996456041605987e-01 5.312334666773123049e-01 -9.207589496356866077e-01 -4.702251737973149881e-01 4.818451279563800149e-01 -4.823867544058781376e-01 9.822251085991712261e-01 -4.957620481638315146e-01 -9.526633698299854514e-01 5.538787365100293902e-01 6.246634775091476355e-01 7.016544791152460325e-01 8.191953627769663626e-01 2.496756387592138915e-01 -5.668598928434858131e-01 -6.399560583415281334e-01 1.688111915246792993e-01
8.248615307896746129e-01 -2.422682672687792027e-01 8.017656872166440962e-01 5.677215048710639728e-02 -9.323587696019723925e-01 4.419040236010609024e-01 1.469346819673481852e-01 2.665673852411643008e-01 -4.255190789515866934e-01 -2.861562592974320474e-01 -8.196536129039728724e-01 8.753806286266958558e-01 6.705318544658477320e-01 2.099545052432364445e-01 5.516267224430157490e-02 -7.941828976049225552e-01 4.304612758639976555e-02 -7.589667564814167600e-01 -1.014645029510882895e-01 3.153888267568720760e-01 -3.389829582275085684e-01 -6.607170076142818149e-02 -6.771241682404421924e-01 -7.176971688356410528e-01 -3.719327872808349533e-01 3.203453535206302050e-01 -5.107740902047709364e-01 -8.514069596149460573e-01 1.812615349012754451e-01 -1.240751051712606634e-01
9.851357786607826128e-01 2.736653633221461379e-01 -1.753147492508863592e-01 -1.002307151295910082e+00 -5.675690794059301547e-01 -5.173310303277741662e-01 8.858970656245480635e-01 9.364407472657572118e-01 4.117567037688036891e-01 4.202646933573852550e-01 -7.465523277561123550e-01 6.782427417357649313e-01 9.875863404600605522e-01 1.300084173685677191e-01 8.845528126733755991e-01 -5.774921148125243819e-01 -1.094012059066031411e-01 -5.377887084709404020e-01 -4.213724418247872805e-01 -5.406629793999564448e-01 -2.875102005817192219e-01 -3.402274063495200895e-01 -8.439962811305814494e-01 7.437399936298476621e-01 2.080793729716680363e-01 -1.020115328646564734e+00 -5.428944056697859732e-01 -7.170474417068257722e-01 9.294284832576535926e-01 1.510604879304523751e-01
-3.821759771407883255e-01 -1.624108725963613609e-01 3.340199531290383161e-01 6.380699155470859196e-01 -6.629087118306008740e-03 -2.180922599456767697e-01 -5.886775500098615499e-01 5.652104659717067658e-01 -3.884577511205961620e-01 -2.348662663426013264e-01 -6.272156582461291263e-01 9.459146665086011208e-01 -7.406412480693037592e-01 9.053776407474392052e-01 1.231405831261519063e-01 -9.493232193258384077e-01 6.468196520486428902e-01 -5.204462653309824827e-01 -3.137670738020728045e-01 6.428248828036010609e-01 -6.772385160413830762e-01 9.103641878921721053e-01 8.675405621949197621e-02 3.353988300448952353e-01 9.440848468667534243e-01 6.297319804785447284e-01 -7.846720116882425211e-01 3.477931986241813295e-02 2.101960054418995291e-02 8.585819693201703906e-01
-2.506442856547685949e-01 -3.157030047919385241e-01 -8.915171322423267597e-01 7.163709370756123906e-01 8.220011891508219870e-01 1.350328036312749107e-02 2.709543512615446015e-01 -4.097324956819002328e-01 8.482698013054534858e-01 -6.679001335169099107e-01 8.861424839374951734e-01 7.359735745736553092e-01 -7.954503917600486140e-01 -3.692656262988090049e-02 8.474705171738025067e-01 7.711808636774472037e-01 -6.362321647261069968e-01 -6.631141045059190109e-01 6.416318556223540304e-01 -4.412662483597216689e-01 4.715067377833940254e-01 5.073639638376067351e-01 -3.067772147195811303e-02 -8.252970616622140598e-01 -1.570317265010282848e-01 -6.137196534488227329e-01 3.001348328252594899e-01 -3.939296208921451159e-01 1.940121877606713063e-01 -8.730403995503935866e-01
4.346080275538120596e-01 6.871107341496843768e-01 -2.272391422925347515e-01 -8.662586722117775473e-01 -1.040958601812147638e-01 5.775207778951387816e-01 9.788323378320621382e-01 3.444494067887973743e-01 1.597095263505319759e-02 -3.095219677327634145e-01 4.088178866646787757e-01 6.118691421192581359e-01 5.568656256104884683e-01 -1.276010784436483192e-01 8.014435450808364836e-01 -3.114279390780374523e-01 1.135428136640011521e-01 -9.882758104816318223e-01 -2.727984397529152893e-01 5.171091641502029157e-01 -2.798816927988463654e-02 -3.968531316841968914e-01 2.209990584297080451e-01 8.558976985418579320e-01 -8.042724897781970972e-01 -4.434217624612132314e-01 3.674001609428840243e-01 4.283630290224810788e-01 9.508857477802832303e-01 4.985037069076955762e-01
3.571360704632573491e-01 4.138953610009717399e-01 -4.880822770696888746e-01 -1.130826918717459939e-01 3.635795137615012718e-01 -9.547527902588138771e-01 -9.094285786195989152e-01 -9.824967801117828747e-01 7.921290306893440381e-01 -9.232123020034226357e-01 2.933270740719157166e-01 -3.648416897104959089e-01 4.029821276897505578e-01 9.600709015237445243e-01 7.728797346380165134e-01 2.178880259742584646e-01 5.555971362339489072e-01 -1.272301606308916255e-01 -4.101852628259786693e-01 6.068080938312542250e-01 -7.233997066692746669e-01 8.481698832790885989e-01 -4.126445084577209377e-01 9.129746390719621907e-01 -6.159992217789335145e-01 5.022280311852898027e-01 -9.249244945928557504e-01 3.074254764253979144e-01 -5.788589892304347312e-02 2.511616902362387993e-01
2.103662947480225698e-01 5.183530362531978408e-01 -2.658171309605328325e-01 9.118034934406257230e-01 -8.780211908157169454e-01 4.158161153090996209e-01 -1.113300913247937812e-01 -5.311435773731534304e-01 -8.196348211762380931e-01 -3.176954093214521269e-01 9.802353050598875406e-01 7.466890320471130105e-01 4.511671516830648154e-02 3.762626470614756635e-01 5.845093490960641125e-01 -3.324746184898929452e-02 -1.328631025252995923e-01 -4.453459598710352019e-01 -1.248456340378873847e-01 3.077059319985115393e-01 -8.318485169495926090e-01 3.118274954008879996e-01 -3.672960076243698968e-02 2.488479384303811381e-01 -3.621565633499735926e-01 -4.761086448916466707e-01 3.372688034973932159e-02 -8.762525469642901133e-01 7.801818431240462592e-01 -3.752632552633540231e-01
-9.959997116191999789e-01 1.235336719298901764e-01 -1.388285077439830872e-01 7.817403382202012807e-01 5.527604498709086656e-01 -2.157117358314575642e-02 3.991378183324991724e-01 6.017703928143421921e-01 -5.347471299359906061e-01 -9.605852262198855129e-02 -9.235989369404503657e-01 4.784045248307982057e-01 -2.898523920424197486e-01 -6.211391135564103827e-01 -8.457349694375646543e-01 -7.231975345336921768e-01 -6.212042905292356476e-01 6.028872856370569577e-01 -2.544708246606603441e-01 7.424521788725492177e-01 -7.733727543054536024e-02 6.945359255915661834e-01 1.394899925717816569e-01 7.468286902767192759e-01 -3.933333550608890672e-01 -5.423280843838289567e-01 -2.143464047984517673e-01 -2.842668916502423815e-01 4.132996304443943281e-01 -2.668180633621092812e-01
-5.954074846509547214e-01 -2.786109204596712852e-01 -3.374013976252602243e-01 8.720770809149390734e-01 -5.501059960095186496e-02 -9.221691354907775029e-01 2.909765791530459778e-01 -2.459061307072818170e-01 -4.382558910863253998e-01 -3.813827850673912057e-01 -3.337145017810937975e-01 -4.861695865325135202e-01 -9.798734244549228700e-01 -3.735303776888355132e-01 6.383713133307383769e-01 -7.639043139771157787e-01 -3.502319376193882561e-01 -6.497249316848380252e-01 -4.875406933665931697e-01 -7.102515601273577672e-02 -7.285869918560748948e-01 -7.617765031288679101e-01 9.232899792998879862e-01 -6.552906930749629044e-01 -5.924487935175739572e-01 5.058572411660897661e-01 5.306278610400790852e-01 4.797707611367286185e-01 -8.880754935369494785e-01 4.140242984084380740e-01
8.589355064748976920e-02 -5.563052421279093135e-02 7.775847494161469697e-01 -4.490645644534619341e-01 -1.101701578872508469e-01 6.667907100473341453e-01 -9.773954931901973620e-01 -4.782841453874124293e-01 2.084640376170570353e-01 -8.860911897632184342e-02 -2.020728458318732379e-01 5.770312255553686764e-01 -4.800765984905499550e-01 7.896451409605084182e-01 -8.577382943038773799e-01 -4.611699367271634986e-01 -6.425881064806502341e-01 -3.200029063192976198e-01 5.521958909426350620e-02 -8.276090032921318285e-01 1.290129366941810685e-01 9.912259017044540432e-02 2.893011309084534410e-01 7.372346527206480316e-01 9.471280980469295452e-01 -5.494949488743817306e-02 -6.024445792922122900e-01 -6.662865552487616805e-01 -7.895183064501489767e-01 9.244524261926748698e-01
7.827895738598457109e-01 7.895479379529994901e-01 1.581694146040855398e-01 -1.664779642246871638e-01 1.342175420774686656e-01 4.208761435540644968e-01 1.725874829731519899e-01 7.729905769312027664e-01 -8.079067959783633457e-01 -8.052993540274622219e-02 -5.773215854540979519e-01 3.029747361541896833e-01 -2.576525575229239307e-01 2.099715595819994784e-01 -8.902148668491895178e-02 7.552892192140379102e-01 -2.460712792838708751e-01 6.212224184405417127e-01 -8.784232932865586596e-01 -3.071327756434094614e-01 6.510272159067914677e-01 -3.816034355521222277e-01 -5.513175672055740106e-01 -8.818094071888522567e-01 -6.434505328910613553e-01 -2.160807028048888911e-02 -7.112312605338877436e-01 -6.320957777679514500e-01 7.696941918881395894e-01 4.185512697243536917e-01
-3.234298555995134272e-01 4.913026439663528699e-01 -2.940658195664611063e-01 9.713079913531253995e-01 -6.666930051290262949e-01 1.858713075673463222e-01 3.514462504431767886e-01 7.643143959894313499e-02 -6.378744405652172489e-01 -5.085978983101251405e-01 -3.899923068353129962e-01 3.181002471649979624e-01 -7.742661273919208831e-02 7.461040179101047221e-01 -5.752223818993345006e-01 7.890677702345371136e-01 -2.556200064143634432e-01 -7.074591952378938009e-01 6.401171306361299607e-01 2.730027301113402971e-01 4.325345381922668930e-01 9.642111205054973988e-01 -3.632955143892670491e-01 -4.622362413597823072e-01 -1.523438033201204300e-01 9.206897521332897405e-01 -1.625983923260956310e-01 1.591196105598842794e-02 5.037016766695726067e-02 9.142829846838710361e-01
4.022060350284816788e-01 7.608867226936126826e-01 -5.465998079724528891e-01 -4.609706312876323819e-01 -5.290480065242018082e-01 -2.858740664968948963e-01 7.760526654153778736e-01 -6.175144250556646730e-01 -3.266529577613621615e-01 3.499408834515311817e-01 -8.133554496351692864e-02 8.497055113468763299e-01 -5.363002065149424791e-01 -6.431916116818539031e-01 3.616442582144632767e-01 6.874384155884296632e-01 -9.645938859142504374e-01 -3.015507028378232035e-01 3.293505871861088230e-01 -4.349939212919219367e-01 9.636772472265661138e-01 -3.691903994137323286e-01 6.018210613609732418e-01 -7.336904759849083302e-01 8.581499177873930240e-01 8.727352084991488734e-01 -1.194449673464398898e-01 -5.908773180966373495e-01 -2.466337606646920935e-02 6.983737676526493576e-01
-3.079959282697710687e-01 6.019227179006150230e-01 4.975826618611492447e-01 4.208260171882722833e-01 -7.112576737306158803e-01 9.254560613335791608e-01 -3.965853644819320456e-01 1.456910052608823003e-01 -3.990604841328614372e-01 1.511752156829053728e-01 -6.508761610649304030e-01 6.393443532563870546e-01 2.205243874564948581e-01 -3.126952868388013090e-02 6.627458546824109842e-01 -3.127097541207084497e-01 7.216406139597332237e-01 -2.205162630145510727e-01 -3.813825120690753634e-01 -5.531945857088004653e-03 1.632600207205355258e-01 -7.629883143892431940e-01 -2.474425925798692805e-01 -6.917347420634736288e-01 6.120072154694951028e-01 -7.985980407309289930e-01 9.957360633513392401e-01 9.428748408582746654e-01 -4.751340154293258178e-01 7.570798642195913919e-01
8.301257603801132090e-01 3.890120752601782805e-01 9.096283867339628459e-01 -4.123502155193256580e-01 -6.269145098389016235e-01 -9.025637861268717699e-02 6.281431645092594440e-01 -3.942448832587278074e-01 8.304968555908324168e-01 -9.115776669101944840e-01 -7.930820076359677007e-01 9.100466822662831579e-01 6.847380502807275393e-01 -8.177273817482942908e-01 6.740758206690145027e-01 7.830107196911896272e-01 -6.396275943151495946e-01 1.990556020910299873e-01 -7.941433050614314926e-01 -8.641287654407963092e-01 6.606197752381713917e-01 4.179156283617643797e-01 4.596346576673164819e-01 4.307334700720891196e-01 8.498300026065469526e-01 -1.752073751993242223e-01 6.916971547255261477e-02 -8.533582963022458001e-01 -3.977056792026513574e-04 5.370408292457787836e-01
-4.084475863786665162e-01 -8.931967461153373922e-01 -8.887145755965499827e-01 -9.102811775735666355e-01 -6.973956718516474140e-01 9.796805589377540757e-01 5.980586464839180438e-01 -7.083969425334383230e-01 3.530401739281365248e-01 6.105200554226513088e-01 -6.118568575874132609e-01 2.337237090872261724e-01 -9.651821421881704444e-01 -6.971152401765429163e-01 9.613640401261769330e-01 -4.286230914227209254e-01 3.276792980749255180e-01 8.850310334165644166e-01 2.646628244207487324e-01 -4.163514767133144612e-01 -6.299549566270175038e-01 -9.556373662237709343e-01 -5.111662676466052213e-01 -3.753099450178236096e-01 -2.493192168536364217e-01 7.497145096479156390e-01 5.464618245738788183e-01 -8.977938380909505911e-01 6.708341263446163660e-01 5.332160640049137257e-01
-8.356420393413424019e-01 3.889174126449905233e-01 9.727362013425787657e-01 -4.212309811324287390e-01 -1.209416208167295725e-01 5.398384207010349378e-01 8.012788675801735261e-01 4.362079707976285747e-01 -2.659659622175666871e-01 6.287176466568846767e-01 -9.033677543303429980e-01 1.483613869796046938e-02 3.878105185308343417e-02 2.303882164406278743e-01 4.565919687085179951e-02 -5.721279493562108076e-01 -4.483314215747159492e-01 -3.170812395399713601e-01 6.348146210161875747e-02 8.400778494577696431e-01 3.164504456020655887e-01 -6.962233274891060919e-01 -7.379766065021394761e-01 -1.399713070461703901e-01 6.950215419388221239e-02 -1.071427031009490743e-01 -7.921827889518046062e-01 -4.887530735564969420e-01 -7.941186110016243971e-01 2.292739206137102692e-01
-8.270321856603913835e-01 -8.771112134633314295e-01 -4.577451691303350279e-01 8.718684007304698946e-01 -9.899292053581347783e-01 -8.641336083541967250e-01 2.808335712726621747e-01 6.396392714101631904e-01 -5.374045187282773250e-01 -4.799315374067356643e-01 -8.770906211490412385e-01 -7.779103632631301224e-01 1.379298941106757714e-01 8.641575048742859977e-01 8.430845401485395074e-01 8.675002739548536290e-01 -7.154980950430487319e-01 -3.308950754025380414e-01 5.849622753073313586e-01 -7.173946844703515957e-01 3.589328649522846026e-01 -1.789243773383754343e-01 3.217208892386729802e-01 -8.105650272357239894e-01 -9.995755453390101630e-01 -3.314077849516526841e-01 -1.011807148865982581e-01 -2.042099669275488916e-01 4.194052491238137725e-01 8.572750336819215944e-01
-4.139064538979905783e-01 5.366150495524236730e-01 -4.187050304096752718e-01 -9.565503916380400096e-01 2.793628968855609296e-01 -9.934677476849342881e-01 -2.350526167067081007e-01 -7.481083648816876097e-02 -1.180808426597613342e-01 -6.422684505098277263e-01 5.944619902057871608e-01 -3.529982412475559106e-01 3.814995002823062253e-01 -7.647768858888220889e-01 -9.268693849081740543e-01 -4.034892720866253835e-01 -5.691836903029923178e-01 -2.148282954371862064e-01 -6.086374532482191624e-01 8.029102824520993609e-02 -2.877156604305109444e-01 3.478468506364854052e-01 8.842974961495425612e-01 8.291132505651331863e-01 -6.161896743074385396e-02 7.289570683220408798e-01 4.027005392702877051e-01 -1.214561213134781881e-01 8.451533662233620126e-01 -8.720307138745969633e-01
-5.860234223547496901e-01 5.853844840131167127e-02 -6.826116194758919953e-01 8.128206056815530101e-01 -9.124808662426401318e-01 2.927713052916492975e-01 6.447846814182321973e-01 5.437821163096975274e-01 8.396842345540136421e-01 -2.081364137238539413e-02 7.054449562422779318e-02 -1.027778951976404537e-01 2.623841771752928875e-01 -1.140752534287744618e-01 3.402654969320194622e-01 6.620976889071423788e-01 1.304193567647344600e-02 8.167846374787897101e-01 2.926110461373633842e-01 1.168881865205040754e-01 -2.498124054059331911e-01 6.798742412812848190e-01 4.535168053284267531e-01 9.203207812214545536e-01 7.569198814689390709e-01 -9.735670762583118476e-01 -4.414658881694427106e-01 -4.043998482522868088e-01 -4.890755084218163795e-03 -8.940759223976309233e-02
-7.621301947396530441e-01 6.047011151135138762e-01 -4.499977907081587070e-01 -5.779941473459003776e-01 2.808564068449370676e-01 -6.990348529525758359e-01 5.297337845608837137e-01 6.525771277261386283e-01 9.265756508230696964e-01 -7.827828375845500286e-01 2.233064157766145863e-02 -2.076781412723184839e-01 -8.445223017084538819e-01 7.549584502053544033e-02 -9.365438584871529359e-01 1.631465515251533660e-01 -4.721219526854950055e-01 -1.320359547615591600e-01 -8.327169558627571799e-01 5.652532254856069693e-01 -7.313794771742355705e-01 -8.692153041813384107e-01 -8.243207588413524745e-01 -3.755790648088728201e-01 -8.548895024790367225e-01 -2.643456075031933028e-02 1.153988157331547748e-01 3.412729541404433964e-01 3.821694263247870094e-01 -1.787434162497218149e-01
3.332653074824571959e-01 8.288741370913044193e-01 3.962617595037617457e-01 -9.682773835314082422e-01 4.969259106054705333e-01 9.495073237789639631e-01 -7.936180611466620016e-01 1.958370309054461300e-01 4.170987287274581790e-01 9.050005595593539898e-01 -5.996473017762425639e-02 -7.819768841490223332e-01 8.599523714442339761e-01 6.998035994657848535e-01 -1.570293417146284287e-01 9.022709473586227880e-01 -1.411814316653796642e-01 7.256488163667436098e-01 2.860565327530689150e-01 -8.586517862555598235e-01 -5.167166933329362527e-02 2.356485421269430558e-01 2.744793696545445028e-01 1.690720688494422586e-01 -2.259824138817066175e-01 -7.036804923127562006e-01 2.885170528665275125e-01 -6.117643690702472270e-01 1.911794092177230842e-01 -6.023852349974830739e-02
1.120705097770487435e-01 7.413967987645999624e-01 2.327756858956092356e-01 -5.926632607104823647e-01 6.405774423571718446e-01 8.314165025719689739e-01 -8.004630033007208434e-01 4.534936429917835743e-01 9.742301143155478460e-01 -4.009151222748521537e-01 -7.098463054000901939e-01 -5.124663788597678682e-01 -2.818797001690255266e-01 2.379586145788914753e-01 2.648156881542642616e-01 5.988224882282357220e-02 5.145297044074740311e-01 1.024128295162651386e-01 -6.792446517184974608e-01 9.469623606658667675e-03 8.517627821781809105e-01 -7.685396308382793640e-01 -4.535744260914451043e-01 2.725713517780101180e-01 2.389587810056075512e-01 7.948045873145153095e-01 6.088007233347302316e-01 -5.368559929441187872e-01 -2.598236313510658979e-01 -4.838640961145911357e-01
9.663880389096761725e-01 -6.859914521440159396e-02 8.595780292726249439e-01 -4.023810456096397203e-01 -7.179011351168027022e-02 -2.169993734713908107e-01 -7.162699167414279811e-02 6.491318775344691039e-01 -4.935981466163842923e-01 5.473805141010545938e-02 -3.724387178155914024e-01 -4.008262401436435418e-01 3.067791160032475317e-01 -5.602229220307033963e-02 3.112298014245639677e-01 7.509437013999763488e-01 5.785779273088897945e-01 5.036244396181649430e-01 -5.533199284168200949e-01 3.910365132138077793e-01 -3.353140729853353319e-01 -6.086345063748203055e-01 6.102990063513553665e-01 6.463713158140870219e-01 9.152897331452304330e-01 5.792729622721660698e-01 -9.935960658517225541e-01 9.381880820084827211e-02 8.289285327799141845e-01 1.091038330069773049e-01
2.350513274343558057e-01 -9.108968322861240585e-01 -7.303153768019025049e-01 1.840140116102738921e-01 3.841200558118716968e-01 2.259168400434004853e-01 -2.781376962517460583e-01 -4.433630433217402092e-03 4.370726822019100344e-01 4.691743062947975051e-01 -3.533922339775961152e-01 5.539635391796829955e-01 -5.226365852247377708e-01 6.768189394461313069e-02 6.695531447763584110e-01 5.999944511104827738e-01 2.321710066373709747e-01 1.211180125145283198e-01 2.364471358808060419e-01 -2.526110483386365124e-01 -8.662651547563064991e-01 -5.031503539246657830e-01 -6.980121044752087833e-01 1.839271858773530444e-01 5.966819322992835684e-01 -3.282625656263797320e-01 -3.538165743187204892e-01 -2.666198352838247132e-01 -1.928343604441851156e-01 -8.480497169644705653e-04
4.385684679519929463e-01 5.077033465802156531e-01 1.708459089221175120e-01 2.317521212048452572e-01 8.167637537189691432e-01 -5.148476805608431794e-01 9.349842687066448610e-01 -4.175126486718479524e-01 1.272561020551478961e-01 -6.375106401312524707e-01 5.982476806814919154e-03 -8.692078305233573721e-01 2.619192239544892997e-01 8.294276759184829872e-01 -6.716649881371878905e-01 8.405511636521297847e-01 -2.005830009836571115e-01 2.107382270582900882e-02 3.225758973763506177e-01 6.452764796941917735e-01 -2.704920722502556218e-01 5.570251907913206235e-01 7.495992958732117240e-01 -7.712678705401586621e-01 6.099013556895290789e-01 3.189833048641652069e-01 -5.827392387066964163e-01 4.475099731275657411e-01 9.685353402323361172e-01 -3.199539892470947278e-01
-8.230241946312530921e-01 2.194951964965375923e-01 9.374646261397165947e-01 1.741126339469132867e-01 -2.236553682581809144e-01 2.249528690199876502e-01 -9.117279284696484520e-01 -1.390390466107677692e-01 -7.295898052103896303e-01 -7.325625290305715076e-02 4.534326148071569640e-01 6.301411889688139922e-01 2.248203024461274124e-01 -9.815469743458122842e-01 -9.675584179361342851e-01 -7.299360232709440899e-01 -1.036571566497033470e-01 3.201441457615724628e-01 1.804293942510168114e-01 4.292953082334016734e-01 -4.705244258750322928e-01 2.471255773159935359e-02 -7.469449492408730684e-01 3.063202917389983848e-01 -9.004984316410706846e-01 2.471265632748896879e-01 -7.338535608527133602e-01 9.028143071152173738e-01 6.048326001330935897e-01 -3.027997428413031766e-01
-1.871023610634374723e-01 7.954949568261263648e-01 -9.612549399378863546e-01 7.774577446335959596e-01 1.421330747314152876e-01 4.328933194519630212e-01 7.614599935878052506e-01 -1.680767129004923088e-02 4.376519220470243554e-01 -9.782521485005335471e-01 -3.294377840441343186e-01 8.267281371083909924e-01 -6.195096555251453641e-01 3.507925455009777149e-01 -6.047862272945395690e-01 7.202028188497643368e-01 1.734651375786315786e-01 -2.097645363880450142e-01 8.686572849904257154e-01 -4.127293859584778013e-01 -2.562722898373085978e-01 2.129246662251074451e-01 4.209631306998277145e-01 3.577309122839854583e-01 2.945609584890119259e-01 6.876173519061442585e-01 -3.601890694638313350e-01 -3.955474395808900590e-01 -1.437043729295072736e-01 7.853183433238287714e-01
-4.060729696172341585e-01 3.147766027283106505e-01 -7.698573650658803169e-01 9.478707285695510132e-01 -5.236110559137384657e-01 -5.680227742402331748e-01 4.692152918448458387e-01 -2.821319488000505540e-02 5.685461288800404134e-01 9.987454771582560120e-01 3.370707828301318099e-01 -4.769571289733119390e-01 -2.557355327995575189e-01 -6.997284057049458772e-01 -5.477977612224738807e-02 -3.038841871636241421e-01 1.388053289390493439e-01 -8.212918202306216386e-01 2.323971986795370648e-01 6.393230749496108256e-01 -2.669817500437082214e-01 1.104495564011484521e-01 6.855430020956869708e-01 5.418371341358928506e-01 -7.187656883744500402e-02 -9.160780165823042553e-01 3.524920797137879314e-01 4.216580805928645259e-01 5.794756328205391549e-01 2.536021885675209808e-01
-4.290347331485284688e-01 9.611084465143747702e-01 7.025024731853135584e-01 -6.701924721243958383e-02 -5.612226604310506690e-03 5.612304518693255195e-01 -2.950185102093622058e-01 8.534021949387247119e-01 -2.517503578744332282e-01 -9.780296845441029951e-01 -6.242269030232600047e-01 8.773319529532978001e-01 7.216836294525891260e-01 -3.557716804882430917e-01 -8.008576950053522547e-02 8.962601712648771146e-01 8.239775570418464978e-01 -6.221946917151107703e-01 2.623796448860534203e-01 -2.237595429990482318e-02 -6.173572219127835409e-02 4.711624809540518877e-01 4.595254996179765072e-01 9.288460495002974771e-01 4.674259979546297461e-01 3.222772437401167367e-01 3.147110972608784807e-01 -8.468437479132367995e-01 4.146792209834523346e-01 5.744238411390522048e-01
1.063927026237563578e-01 8.758800117731487811e-01 -7.867989731611730875e-01 5.557514718796329189e-01 -6.732793227060513974e-01 -5.879565164775021197e-02 8.547655917765331068e-01 3.731742305697356987e-01 2.048140400572584785e-01 4.399169219019904986e-02 2.343744485742713102e-02 -4.367990341785163988e-01 7.231768897420656206e-01 -1.906944301603920311e-01 -4.524006665935038640e-01 -5.513152958294660344e-01 6.715879212728254055e-01 8.804022799570865310e-01 1.032939457692057666e-01 -8.034337615527629151e-01 3.955342919444552185e-01 -2.221852339374797425e-01 -2.450644685795671796e-01 8.742306527582500708e-01 2.405492450581705466e-01 -8.865840519783337870e-01 -8.526772927835742921e-01 4.492423457672967690e-01 5.416194324654146630e-01 -9.093792227181243248e-01
-6.415589467837434778e-01 -1.660005093130489662e-01 7.952874218628279701e-01 -2.459986902941187492e-01 8.949891418189368508e-01 1.546852180060377391e-01 -9.049384076968036705e-02 -5.457577999245082356e-01 -6.156398476894889837e-01 3.023664576931168746e-01 -8.586253861060278991e-01 9.765139095947029668e-01 9.614017608920677471e-01 1.577774835096540373e-01 6.558751194375037619e-01 -3.882761159168979237e-01 5.111856375103336347e-01 -5.409656816651974010e-03 1.427984787904427177e-01 -2.012162231811890079e-01 -2.378170728632704456e-01 -4.746318051018739159e-01 -4.617861137017113538e-01 9.319563902280196821e-01 8.453223984212614450e-01 -5.821535483098678743e-01 -9.093658827721569082e-01 -1.056314876650243650e-01 -9.318331792583159356e-02 1.323292025776470759e-01
-2.471073047741124407e-01 -6.886598140596904560e-01 -5.274919784041010029e-01 -8.534531068589820135e-01 -8.058058326533930060e-01 -6.741577192082348624e-01 7.501680605853652262e-01 -8.059255824121913658e-01 -9.119157421656507445e-01 -5.779597886282508146e-01 5.433924051085217144e-01 -5.058833519357334163e-01 -4.071697295515939730e-01 3.445764470806263469e-01 5.293789780023943070e-01 8.122966403912840194e-01 -7.595585999555212187e-01 -2.512909860889417923e-01 9.799401787731267799e-01 8.146821093947074210e-01 -2.419876335546348733e-01 -3.432106314041868944e-01 1.392847497384299138e-01 -5.112414827400243444e-01 4.835119080643752731e-01 8.851020232064161775e-01 -5.291313733639826378e-01 3.645248388648208993e-01 -9.006570304649519354e-01 7.937255179795417170e-01
-8.995393062111028959e-01 5.252418955142337254e-01 6.545345996525400167e-01 6.749812828580307178e-01 2.058822901653599713e-01 -7.884933729090541910e-01 5.862583763020453587e-01 -6.982393286816871436e-01 5.773484342443453432e-01 6.022883446906075466e-01 -6.392828368526671801e-01 -1.449127279495926457e-01 -5.087275368313536744e-02 5.654971533155374042e-01 6.635839973137379610e-01 -5.700608117646959183e-01 -1.638320981175513391e-01 6.511985483272951791e-01 2.071712489801738888e-01 -6.539378679814686901e-01 2.335433732158637143e-01 -8.373184555140940066e-01 4.602618120043482919e-01 5.235147578514267597e-01 5.201480377431390023e-01 -1.311423866122022608e-01 5.500055954019057447e-01 -8.620579358911223400e-01 2.069355468288722744e-01 7.006306949259981653e-01
-2.286639121598786073e-01 -5.110845745243584037e-01 8.940041527211223249e-01 -4.320847949940761490e-01 -6.810349009490493932e-01 4.078346266749834359e-01 -2.546397861542302188e-01 7.367065575906326380e-01 4.215847074772635095e-01 4.431157929643394500e-01 6.324679666031619574e-01 9.860712184518826140e-01 -7.202079712506233022e-01 -6.657191021891399885e-01 -9.756290109868444027e-01 -9.472557368942712275e-01 -8.176145169227242437e-01 -2.584723631616570594e-01 -4.430869666814841665e-03 -9.141770063193466189e-01 -4.122637733516132386e-01 1.581373735687369719e-01 9.739371222102476411e-01 4.722271625745518286e-01 8.590907368052136395e-01 -2.915598023233577640e-01 7.786009580492103677e-02 -5.451175005086076331e-01 -1.962160496173246393e-01 4.866076335766887362e-01
-2.237956571288160779e-01 -1.741973313887045516e-01 -2.608415566570802535e-01 1.564778065419409614e-01 -1.849535469674206123e-01 4.624222350668409920e-01 -6.578559710737885702e-01 6.975059298117967099e-01 -5.168554024098507282e-01 4.658856627606311473e-01 -1.050993699786856306e-01 4.223906044413132665e-01 -8.021289401471670688e-01 -7.001087116545919864e-01 3.583162421233150319e-01 9.457408498198713875e-01 -8.450425761405651048e-01 9.122607038582889460e-01 -4.923364833199276869e-01 -6.322312761198424225e-01 2.944730577450879738e-01 -8.696178143643075453e-02 -1.962981527161147821e-02 5.055487692326589011e-01 2.238498480435155147e-01 -5.577692868943202598e-01 7.982982496427003527e-01 -8.308464184279042986e-01 -9.833370616774363970e-01 -1.390041494022972723e-01
5.831461448584752683e-01 6.007887553393775892e-01 -6.472535293813698187e-01 -8.236064650690944067e-01 4.628721733847230846e-01 -2.531206705123126288e-01 8.097332446957320462e-01 2.208644733501625157e-01 3.039106378602651759e-01 -5.049431125416474764e-01 -1.783381475660034965e-01 -7.617395966249999040e-01 6.466109689323323861e-01 -7.817509802205312441e-01 -4.708355550415653790e-01 9.997250598811695532e-01 -6.364038011994872790e-02 -6.220033605829331513e-01 9.701866877844068648e-01 -9.821494391242803212e-01 2.322527917300482303e-01 9.769201678866638039e-01 -3.114365924215680703e-01 2.132288024460188836e-01 -9.437785183072464612e-01 6.110562852400711620e-01 -7.186047304136962133e-01 -6.477345177512334740e-01 -7.151580073807860538e-01 -8.030012301095379446e-01
7.852507919407780701e-01 -8.645007344037857200e-01 9.687750343933743125e-01 -9.036004388657017938e-02 9.687865265769773915e-01 -2.802883042254767330e-03 9.560286568540493635e-01 -1.795590144226000551e-01 -3.318352262110228490e-01 8.967596639089925326e-02 4.797768052649425269e-02 7.096124795892969073e-02 -1.093957851068322884e-01 -9.889368783229808280e-01 -3.115959817099027140e-01 2.773540932829960948e-01 1.300758458836505649e-01 -8.741423115501209540e-02 -5.667136219535962721e-02 -5.898055425528588858e-01 -6.884808043496192242e-01 -7.194347701157648434e-01 2.813369586658394095e-01 -2.208735564535202756e-01 2.391411580744869092e-02 -2.414143250214567382e-01 -2.208245207516963335e-02 5.851537716397632316e-01 -5.942258988590894964e-01 -1.801693094241919590e-01
-8.196184487629720739e-01 -9.014419765230859138e-02 5.344943135918738264e-01 -6.289979453107685803e-01 -8.609721025503622172e-02 -4.822648290550083927e-01 -8.524885251668261610e-01 -2.510673256559259880e-01 6.793967384386557784e-01 4.668855854028108876e-01 -3.237558371386289879e-01 2.919536220947683836e-01 -9.241448949497722554e-01 3.771986529147868250e-01 -2.485685271502530158e-01 -6.760905909391899948e-01 6.457900437896867407e-01 6.297232261646669160e-01 -8.958493709094854651e-01 -8.886297914848413360e-01 9.689468605500126674e-01 2.381929009406889841e-01 -3.633103348688956902e-01 -1.194585506056779350e-01 -1.895959609311758387e-01 9.920683039710639362e-01 8.174806472744831076e-01 3.976842631058864486e-01 -1.744483762583780850e-01 -9.928708854542881435e-01
-8.000570616367816967e-01 5.790264708752056455e-01 6.166076670078437516e-01 8.459384790886407268e-01 6.070978319260889045e-01 9.548223135113867999e-01 -3.070071993787469311e-01 -8.859304065547002338e-01 -7.304353671325202191e-01 -9.835778738434155510e-01 8.859166147208885622e-01 9.030037395461767424e-01 -1.903663762697912695e-02 2.571087618140706077e-01 5.449819793117276490e-01 -7.666897643504755333e-01 -9.316915490161163937e-01 1.179685109680569666e-01 7.548770154122481646e-01 6.812084983234505120e-02 -6.104262308371876528e-02 -8.060327168661405306e-01 9.995329022247027018e-01 5.925964979788670428e-01 5.051992446228100592e-02 5.357248796438068839e-01 6.906868024637212722e-01 1.100951592399840584e-01 -7.002442240550479369e-01 5.442892205760836433e-01
-3.261181013480374813e-01 -4.252846925198555672e-01 -2.099600578036877122e-02 8.038262374405583666e-01 5.375993889842900497e-01 5.771967580911804285e-01 5.025599746032708426e-01 5.415224778837619546e-01 6.177905870189368542e-01 4.571071851701393740e-01 1.609301108980170369e-01 9.057896478246204100e-03 6.076373803383253724e-01 1.872590897429732004e-01 -6.098484586518158057e-01 -1.018190660357271016e-01 -7.282630243882112220e-01 -2.462440651878579634e-01 -7.063913470559076702e-01 3.657578066583604404e-01 -9.453134161133216473e-01 9.531034026991937191e-02 -1.126408693990208904e-01 -8.748455256508884670e-01 6.984746992508411578e-01 3.610159992552455233e-01 -4.207552263125711178e-01 8.591096372969981854e-01 1.986566589409237416e-01 6.416950600853617015e-01
-9.623436105055506173e-01 -4.267457009598585871e-01 -3.433712578621498923e-01 -7.795277564998860376e-01 3.542817256478397736e-01 -4.451931494698867509e-01 3.016564608434599837e-01 8.710982307738336372e-01 1.919286752990812805e-01 -2.602997786910339340e-01 -5.376924913397697070e-01 3.405288827010432007e-01 1.461368104118281330e-01 5.347572816106134219e-01 6.942605086340668530e-01 4.242573064133755012e-01 -1.029180844256943061e-01 -8.195954342881845989e-01 -7.942848213086985965e-01 -4.708388855934567685e-01 6.875489313236865518e-01 3.433495699230474929e-01 7.884653041052136491e-01 8.451279109875973680e-03 -1.760917751551731025e-01 7.567656112122909950e-02 -7.814247158192543230e-01 -6.616136070584557327e-01 -3.033122418576867374e-01 -5.363702637526194389e-02
-9.020516292443484518e-01 3.013955466678910344e-01 4.622080571009885563e-01 -4.112175806270579326e-01 -2.706607719675201418e-01 1.858259933068288905e-01 -9.050208119096226911e-01 7.965829486438614770e-01 6.080933815557241218e-01 -8.050943873264817530e-01 2.361835802115468119e-01 -1.679233257756992115e-01 6.523675062139632219e-01 -1.354350095360935535e-01 -6.060563113983934436e-01 -6.184290124614600925e-01 -3.743014826457268240e-01 6.189314538284157452e-01 -1.641235464665303512e-01 2.666303095126429379e-01 2.691912927507557618e-01 -9.082471284497606323e-01 7.585761139505191597e-01 1.542548507465361651e-01 -3.014128321121479770e-01 4.112306586923309415e-01 9.440918697106401858e-01 -5.201044972679823575e-01 8.285183889630021170e-01 -6.285245435105490941e-01
6.957283412301911163e-01 -1.828776213060673006e-01 -2.186695747702001869e-01 -4.175836074607852492e-03 -3.030083039333106854e-01 -5.856475900709647853e-01 7.434272554760761320e-01 -2.009664543199768394e-01 5.999031754245230941e-01 7.224162272888809966e-01 8.897119277163871853e-01 -4.135540732674668485e-01 2.517307718189422672e-01 7.246867118099107330e-01 -9.339586402283377442e-01 -5.461330217990167935e-01 3.460419852247711980e-01 -9.981319453619698079e-01 -8.439915756603562080e-01 -2.127328471593544212e-01 -7.224645664736929485e-01 -8.202267087629674380e-01 3.203038194063786981e-01 8.396806864533764569e-01 9.471620868654936354e-01 6.288699433129758820e-02 -7.136269674900953541e-01 1.692128017716162947e-01 7.187477649195518348e-01 5.894328443784245808e-01
2.908922242550636139e-01 3.845603707579263730e-01 -8.610744097505558248e-01 8.006347507117999029e-01 5.271699546319299490e-01 3.219738794547616356e-01 3.980497800382902240e-01 -2.893791891958978901e-01 -3.524438869413068498e-01 6.787101762255829396e-01 -7.598826213241637317e-01 5.579627542846401500e-01 -1.469504205102887262e-01 8.997482789243335111e-01 1.337641364953649596e-02 3.487821864125194987e-02 -7.281383778297467746e-01 8.518377503411870277e-01 -1.082987493254352479e-01 5.901790123733048343e-01 -6.935457965667455316e-01 5.211023120814326504e-01 -2.276396422059867586e-01 8.665739844326040275e-01 -7.958372623212228714e-01 3.490359488326766346e-01 -9.338973472260223008e-02 -4.639333098556385204e-01 -4.908751513217655127e-01 8.204370096164054216e-01
-2.366820867370546533e-01 -9.464381251343600976e-01 -4.865574371911386004e-02 5.410097445474612576e-02 4.314525523073461932e-02 -7.943437282736378613e-01 -2.799531337328838854e-01 8.542331436457833993e-02 9.049596877615188883e-02 4.278544453884820520e-01 -4.984692901690431222e-01 -3.968595708316770554e-01 1.194325647886388675e-01 7.772043799331593839e-01 -3.436810376063710593e-02 -6.141087146725133783e-01 -8.839088300100804707e-01 -6.645593587830156412e-01 9.420683817131737525e-01 -4.867427195886498970e-01 -2.449107333400227238e-01 2.048344076901526256e-01 2.306649636855041818e-02 2.634666847637560094e-01 -8.533982850813213172e-01 8.825491280921787807e-02 -9.232565182071955645e-01 -4.002248447193333947e-01 9.693756705086208347e-01 3.938125902768932485e-01
-3.294596286101326120e-03 -2.620065471432398430e-01 -2.548269427323277547e-01 -9.104183523127528099e-01 1.179458112645800361e-01 -6.261932301470440887e-01 5.929523233996609743e-01 8.830498938134326847e-01 -7.909841361314389196e-01 1.876453531463351254e-02 1.733963084036347080e-01 9.733328726942882536e-01 -1.619761516997348522e-02 7.946051529329918317e-01 4.907587797605527657e-01 -4.228267954484608016e-01 3.837825958362733880e-01 -8.249503710630141651e-01 7.894976666916464492e-01 4.825897502015734086e-01 6.618232418531347916e-01 4.517183866833765493e-01 5.943662184229164813e-01 -8.922227659393100474e-01 -2.050866394179230723e-01 8.647120303979172196e-01 -1.588230230194478398e-01 4.427653135170286358e-01 -8.857593131830262534e-01 -7.706923478458387322e-01
9.856649330075114568e-01 8.049349108344274750e-01 -5.285505334336100258e-01 1.157941414978506667e-01 7.541995817885916997e-01 7.358757995919482653e-01 1.128627148126803148e-01 6.209247972252447401e-01 -5.252792154335870212e-01 -3.167482238527823402e-01 -9.815452001665756487e-01 7.857812243879824798e-01 -2.509143091080170973e-01 2.404696720460722525e-01 -8.153685238829794235e-01 4.307500991781743754e-02 -8.902383878303010700e-01 -3.687923281656764751e-01 3.118271220337947014e-01 -5.641834305719678477e-01 5.007318291744967675e-01 4.368442612560890503e-01 -1.366725338762042330e-01 -1.194700534617636201e-01 -6.810481193878033246e-02 7.575696302887532374e-01 -9.073899624350467708e-01 -7.130009796900430574e-01 -2.476904574407846893e-01 4.325972918906786369e-01
-4.238889520987297876e-01 5.844703086452436303e-01 5.881131792525243762e-01 -3.337800904674063651e-01 5.318189636731495140e-01 2.579299530088217107e-01 6.712544165936550344e-01 -9.587200384587776236e-01 -8.240102148604963039e-01 -7.752626774787407804e-01 2.483798871095763694e-01 -7.217031463704624006e-01 -9.243608895504260570e-01 -4.640100577226886069e-01 8.994260759966681285e-01 -1.207711258642042429e-01 6.009452648629514115e-01 -3.809381316729011369e-01 5.020278465106648991e-01 6.278703251606186919e-01 4.237320406374113224e-01 8.373263998212334691e-01 -4.386085268375320978e-01 1.399552058310695457e-01 -3.946683041023003602e-01 -9.997302083218738422e-02 -5.895455027466669495e-01 -5.405048746861619291e-01 -3.273034297001248261e-01 9.427530434110384938e-01
-4.516924536443442384e-01 -6.167265543254951687e-01 2.508020522634611948e-01 -9.333384003649564109e-01 -7.232393909125747200e-01 -2.276377793907285174e-01 -9.210812358113742437e-01 4.951995638994505233e-01 -6.963378786316865021e-02 -6.080799676827008948e-01 8.107873509090369746e-01 -4.182147351493116783e-01 -1.035548364293013973e-01 9.151251217710161256e-01 4.419664493386687987e-01 -4.062116863598071448e-01 -3.283028528274423707e-01 7.895127001290170865e-01 9.707227648562891664e-01 -2.619380112173009256e-01 5.216435872778172333e-01 -7.006767534539627418e-01 -2.927044098732488608e-01 -1.613683668414540029e-01 3.626904772108087149e-01 6.050253453798251080e-01 -6.288114526004608962e-01 2.288380587680296230e-01 2.765533268257496791e-01 6.331809282768221525e-01
2.065806767505795616e-01 9.761312109347197383e-03 -5.743711669910860351e-01 -6.635462182536947529e-01 -8.308561998542055571e-01 -6.647473276994180225e-01 3.402573641053399656e-02 8.978706360715507651e-02 -6.595940442332972609e-01 -2.787913990995307678e-01 -3.987477913031609034e-01 -1.556150830097516036e-01 -8.750316049045283595e-01 4.590948289331448495e-01 4.395029318268892093e-01 -7.368666788056534855e-01 -8.394187501823899833e-01 6.890695487687974463e-01 8.328271587249634900e-01 7.251281890559014842e-01 -1.274863558804837926e-01 4.361508469640085206e-01 -9.716475474269355983e-01 2.020877593466378352e-01 1.223886441911098549e-01 -1.201148555161520998e-01 -4.703759752253215409e-01 -9.995777900710940411e-01 -9.502228951808997515e-01 8.772023468702451199e-01
-5.826048548917890368e-01 6.741194349015309228e-01 3.148569872104748368e-01 -1.327970724021662607e-01 5.698274786072395903e-01 -3.002679664304528928e-01 8.145939293535667813e-01 -9.771858677156451956e-01 -8.079716799323891641e-01 -8.028284041841307062e-01 -5.249350594496399180e-01 -2.497406655063568598e-02 -5.047782748679319198e-01 4.974725098730731765e-01 -2.625819450526530874e-01 5.231181661230239754e-01 4.943506848100240880e-01 3.033197870709714583e-01 -3.732640029940870741e-01 4.080543650779500098e-02 -8.358757638963498771e-01 1.462955679273629517e-01 4.200058312653401349e-01 1.653373841393990795e-01 -3.590235739097260570e-01 7.543250589847835252e-01 -2.600999665964951607e-02 -7.229289530775561134e-01 5.094912468635695024e-01 6.795615016305125433e-01
-2.935354590981069656e-01 2.921508136825831103e-01 -6.494159537866980303e-01 -9.434896290347968284e-01 5.977373837019096525e-01 4.799859790603777654e-01 6.557305002907528602e-01 -7.089442037072792857e-01 -9.699429913134370584e-02 6.649026573188325795e-01 -2.926751299322788435e-01 -6.321397171010394445e-01 8.750137149366776779e-01 2.509640918030510148e-01 9.835844368566988294e-01 7.572188665504838712e-01 5.670574737658441444e-01 -4.646079469802157913e-01 3.333077417874769077e-01 8.758809803790101878e-01 7.076865888424508366e-01 -8.035705053521559060e-01 -2.971540711737546414e-01 6.154747868608617667e-01 6.662841699127373118e-01 -2.340786656080595107e-01 -5.180632579994440823e-01 9.649991879648792681e-01 9.610789533872937662e-01 6.894059143603897821e-02
-4.916925945031519474e-01 5.601319817465123529e-01 2.479475074252590339e-01 -1.070527042197343126e-01 5.235494597118358628e-01 -9.145027710797538623e-01 -8.246746195327854245e-01 -5.491871863403241516e-01 7.517554683205156518e-01 -9.797825084350610947e-01 8.663388197146336678e-01 -7.575457508383927063e-01 -1.126055234270894045e-01 -1.205866770340966176e-01 9.254816938691909911e-01 3.034208726352783953e-03 -7.422080667871423509e-01 4.233522438088583861e-01 -9.432917167294989635e-01 -6.279281833027214876e-01 1.274413474359424592e-01 2.013034065263580308e-01 9.895833731713524761e-01 9.019047354629691204e-01 6.794177251360401515e-01 -1.125232918077579553e-01 -6.849121251241533370e-01 -6.307189252417561010e-01 -2.284114873428314263e-01 7.577703624462978071e-01
-1.061809316080717658e-01 4.288301389534731056e-01 8.922614929385882521e-01 9.792177485723692065e-01 -5.337127630328262207e-01 -6.261167806655792978e-01 -6.900913095858735025e-01 -1.622756470941639217e-01 4.562896477958480190e-01 4.484066585085182410e-01 7.570273773760829439e-01 5.167538672371031483e-01 -5.820290226588358262e-01 2.921602801676864009e-02 9.690692333608579012e-02 -3.508644458249987053e-01 -2.698959662080340771e-01 -1.300430039681360894e-01 6.667949922669504925e-01 -4.664302615721547807e-01 2.540707779667006894e-01 -7.112588205102233774e-01 -1.582068651298957490e-02 9.448099610202920218e-01 -7.129836490650369729e-01 8.048788148402823417e-01 -5.772743621356499766e-01 1.945537255731359313e-02 3.075459970971989310e-01 4.001541981511301804e-01
-4.727876003386651815e-01 -4.231787569715709796e-01 8.588649283440741300e-01 4.489509889496712258e-01 -9.868989947291895160e-01 8.969184093004970437e-01 6.700816816279403509e-01 -5.686120815556470198e-01 9.506173174045311480e-01 -9.533376027991542490e-01 -6.515102780228285151e-02 1.430389836875785858e-01 9.514142908755939265e-01 -4.288537836949309900e-01 -7.440747161388698572e-02 9.661975032626021198e-01 -1.980602544176822688e-01 -1.142099243680382535e-02 9.332108112159100965e-01 -6.465810509973789477e-01 5.369836688518989654e-01 7.176487978651183708e-01 3.933829230183990000e-01 -9.478871794906099657e-01 -4.212587914594959071e-01 -3.365651192713741691e-01 8.526299199030141773e-01 -5.082031543761329484e-01 2.870061249817058568e-01 -2.095398021306732472e-02
6.212264958299478224e-01 7.580211768579022680e-01 -2.836320570783260053e-01 -7.628498132060037573e-01 3.933228164787133108e-01 -2.225903056665451685e-01 -3.819962019932155450e-01 6.084102231644010761e-01 3.004216474654006208e-01 4.089830136524670312e-01 6.781767088751040617e-01 -2.472435683249674110e-01 4.536362180188185378e-01 -3.913457702369699809e-01 2.535501932761031751e-01 -7.715556899228335208e-01 1.587939677391237148e-01 3.413501009656204621e-01 -5.459773796419230552e-01 -7.088660524853001021e-01 -3.181988946258548778e-01 9.762383711971264200e-01 -8.751545537405432951e-01 -7.789753083669486156e-01 9.866191291516169803e-01 3.966761857695407234e-01 3.241548783710140325e-01 -9.643422364844606021e-01 2.717400265538071347e-01 6.377261482522583735e-01
-3.228827818879239676e-03 4.436357464278480045e-02 4.044199131349173748e-01 -2.823096017034599226e-01 1.402706262352184652e-01 -9.103509074045952332e-01 -9.971832192661431726e-01 9.038931831338108402e-01 -8.234829349041620228e-01 2.018777321790334867e-01 1.561109727130229607e-01 -9.447748210858121221e-01 -9.338716716010293517e-01 -5.087638124521216554e-01 6.574383889941539660e-01 -8.211689190296671548e-01 -9.949326108316121076e-01 -4.528270504028120702e-01 -7.833847293232277798e-01 -1.257563280144796680e-01 9.363641296046985030e-01 3.413123764354635825e-01 4.922442762497424296e-01 5.881938085552314982e-02 3.250452010115196799e-01 -9.010742785279284295e-01 -7.221247316276072636e-01 -6.286056933334231989e-01 7.075056030605678670e-01 -4.394744324715177397e-01
1.051928739589513689e-01 7.463329602258363948e-01 5.115129380942828874e-01 3.080207682910662270e-01 -1.747412355980370868e-01 6.965824793252793912e-01 -5.061850862798178419e-01 2.797956029472173280e-04 -1.624578271620481518e-01 -2.390246471023709240e-01 -6.387832259837868953e-01 -5.233311301940763577e-02 3.008157460672116756e-01 4.188856583884931206e-01 -6.670996483304961755e-01 5.924526292499179281e-01 8.043536924031748914e-01 6.042613883539720288e-01 9.188394414976861491e-01 -4.796958013287083711e-01 1.704788659756635572e-01 -7.027722861936768206e-01 6.935345155937931994e-01 -6.488148819996260031e-01 6.946782259991009061e-03 -5.893604258122995265e-01 -9.594783090823771898e-02 8.133147082991761811e-01 4.909967250699017183e-01 -7.002411762039777443e-01
3.903446656575622342e-02 1.854714446946398310e-01 -9.451478720348667206e-01 -1.768400109905760853e-01 5.130512838191698261e-02 4.077937454758203545e-02 -4.719042927678629429e-01 -1.942299344599273669e-01 -8.255081223264617574e-01 -5.886873769033695858e-01 8.046278474932673230e-01 -7.181701137522001899e-01 -1.163663826132586704e-01 3.648488424431700072e-01 4.106542187446886594e-01 -8.090953606747863791e-01 -2.696433740251520939e-01 -9.575221412421102141e-01 -2.775651828991421155e-01 -1.055869528349545755e-01 3.135356461687950902e-01 5.187958996127054467e-01 2.629130368078507196e-01 6.481609962768055677e-01 7.830285458982890745e-01 6.011963997689184769e-01 8.861855961446514218e-01 1.962897153661180005e-01 3.300000685510874887e-01 -4.057892361304570317e-01
-1.094869627543837154e-01 -1.454202367698656517e-01 -5.477724629714348925e-01 3.174481903751222994e-02 6.019430392172155919e-01 1.211984972422932294e-01 9.857612184685713430e-01 5.681803879067377494e-01 8.749273253277416451e-01 4.848807407005077952e-01 -4.510725626766334817e-01 4.591366196007556910e-01 -3.149885202014095498e-01 -4.816932469758491431e-01 6.650355949944825040e-01 5.727969928606773120e-01 -5.632934784383644145e-01 6.305569978819569599e-01 -6.544433936419473685e-01 1.758571768028062698e-01 1.935940891402502806e-01 -4.420973586828221280e-01 -5.985020858658477438e-01 7.175743330724018154e-01 -2.477316995800298016e-01 6.818355246639640210e-01 -6.487119963528320543e-01 -5.929216697478025822e-01 -3.631483999544555807e-01 9.896356839385711535e-01
-2.577483688227588665e-01 3.614701479705969001e-01 -2.275377425506706908e-01 -9.446216846611132922e-01 8.185421452310042145e-01 -3.187302608950550176e-01 3.073003739512247812e-01 9.864653814183943492e-01 -7.197458300954097908e-03 -7.836891082689405597e-01 4.815377424474003853e-01 8.020215891675376296e-01 9.246521437694608103e-01 1.564094915238950501e-01 -8.343827936598958717e-01 7.249656991706938947e-02 5.813145551974738812e-01 4.242947274342598329e-01 -8.961404613862204993e-01 8.373165786504334074e-01 8.581343993446149954e-01 -4.148768137057370353e-01 -8.947130215849398160e-01 -3.457394810403692786e-01 2.018916077165152090e-01 -9.557618141396028166e-01 7.295493876422505242e-01 -7.099986962104561927e-01 3.784220747616246494e-01 -6.902952352030378158e-01
